{"type":"LSTMTimeStep","options":{"inputSize":4,"hiddenLayers":[8,16,12,8],"outputSize":4,"decayRate":0.999,"smoothEps":1e-8,"regc":0.000001,"clipval":5},"hiddenLayers":[{"inputMatrix":{"rows":8,"columns":4,"weights":{"0":-1.721534013748169,"1":-1.848233699798584,"2":-2.3095903396606445,"3":-2.710895299911499,"4":-2.2464916706085205,"5":-2.773442268371582,"6":-2.609651565551758,"7":-3.5574791431427,"8":0.0695945993065834,"9":-1.263824224472046,"10":0.08666880428791046,"11":-1.5499789714813232,"12":-1.1242012977600098,"13":-2.1178231239318848,"14":-1.755252718925476,"15":-3.1654412746429443,"16":-1.9670039415359497,"17":-2.4110500812530518,"18":-2.364015817642212,"19":-3.3754189014434814,"20":2.464724540710449,"21":1.3697144985198975,"22":2.4487318992614746,"23":1.5477287769317627,"24":1.1607236862182617,"25":1.4365485906600952,"26":1.8515185117721558,"27":2.296855926513672,"28":2.551856756210327,"29":2.777850389480591,"30":2.719127893447876,"31":2.815505266189575}},"inputHidden":{"rows":8,"columns":8,"weights":{"0":2.1378378868103027,"1":-1.1159429550170898,"2":-0.87286376953125,"3":0.03664390742778778,"4":1.1130338907241821,"5":-0.9346030950546265,"6":0.9279026985168457,"7":-0.6140449047088623,"8":-0.27459582686424255,"9":0.014822152443230152,"10":0.3249063491821289,"11":1.7606253623962402,"12":0.3170824944972992,"13":-0.5670890808105469,"14":-1.6996926069259644,"15":-0.6059080958366394,"16":-0.8402909636497498,"17":-0.3154131770133972,"18":2.654677391052246,"19":-0.823955774307251,"20":1.592881441116333,"21":0.5993137955665588,"22":-1.1904194355010986,"23":2.05535888671875,"24":-0.3188776671886444,"25":-1.148888111114502,"26":2.227839708328247,"27":0.6356490254402161,"28":0.4878983199596405,"29":0.6525336503982544,"30":-0.7872868776321411,"31":-1.732574224472046,"32":-0.33464741706848145,"33":-1.2416001558303833,"34":-0.5009877681732178,"35":-0.45849353075027466,"36":0.5892131328582764,"37":-1.291146993637085,"38":-0.3761769235134125,"39":0.5242765545845032,"40":0.8064870238304138,"41":-5.6585612297058105,"42":-1.7399479150772095,"43":-2.293848991394043,"44":3.065253973007202,"45":-2.2201263904571533,"46":-0.4343109726905823,"47":-0.30127114057540894,"48":-2.14031720161438,"49":-0.8020573258399963,"50":-0.30841225385665894,"51":-0.22361302375793457,"52":-0.1492365300655365,"53":-0.3166644275188446,"54":-2.0393993854522705,"55":-1.694197177886963,"56":4.309274196624756,"57":-3.751797676086426,"58":-2.612407922744751,"59":-0.5379999876022339,"60":5.75319766998291,"61":-1.3494101762771606,"62":4.926815986633301,"63":0.29789188504219055}},"inputBias":{"rows":8,"columns":1,"weights":{"0":1.5235387086868286,"1":6.091462135314941,"2":0.9144014716148376,"3":4.445058345794678,"4":3.2772061824798584,"5":-3.7210965156555176,"6":-5.7080183029174805,"7":-5.236131191253662}},"forgetMatrix":{"rows":8,"columns":4,"weights":{"0":-0.8666881322860718,"1":-0.7266640663146973,"2":-0.9935820698738098,"3":-1.0752129554748535,"4":-1.7129298448562622,"5":-1.9017423391342163,"6":-2.2612876892089844,"7":-2.739686965942383,"8":1.1925057172775269,"9":0.19982345402240753,"10":1.427738070487976,"11":-0.0541570819914341,"12":-1.1622519493103027,"13":-1.3798154592514038,"14":-1.2509233951568604,"15":-1.5871273279190063,"16":-1.4944740533828735,"17":-1.6712110042572021,"18":-2.1042847633361816,"19":-2.56294846534729,"20":2.7645137310028076,"21":2.5003249645233154,"22":2.738309383392334,"23":2.354867696762085,"24":0.4856239855289459,"25":0.44857367873191833,"26":0.8824651837348938,"27":1.1313190460205078,"28":-1.2671853303909302,"29":-2.897209405899048,"30":-1.5085333585739136,"31":-3.989915609359741}},"forgetHidden":{"rows":8,"columns":8,"weights":{"0":0.9684301018714905,"1":-0.4925191104412079,"2":0.9425641298294067,"3":0.8455011248588562,"4":0.6434391736984253,"5":0.702509343624115,"6":1.0777337551116943,"7":-0.9947023987770081,"8":0.35286745429039,"9":-0.48228633403778076,"10":-1.1682181358337402,"11":-0.36348220705986023,"12":0.419720858335495,"13":-1.6343878507614136,"14":-0.8649494051933289,"15":0.6414560079574585,"16":-1.2264171838760376,"17":-1.304092288017273,"18":-0.5662360787391663,"19":-0.34736740589141846,"20":0.12975236773490906,"21":-1.3038865327835083,"22":-1.3555595874786377,"23":3.331523895263672,"24":-0.8674142360687256,"25":-0.208201065659523,"26":0.10876336693763733,"27":-0.010104109533131123,"28":-0.5086013078689575,"29":0.4516250491142273,"30":-0.547004222869873,"31":-0.10419642180204391,"32":-0.2518918216228485,"33":-0.19968143105506897,"34":-0.893314778804779,"35":-0.8702057003974915,"36":-0.16628137230873108,"37":-1.6127874851226807,"38":-0.7833191752433777,"39":0.6660146117210388,"40":-0.8814655542373657,"41":-0.5710089206695557,"42":-1.3163985013961792,"43":-0.24912473559379578,"44":0.37537238001823425,"45":-1.6220000982284546,"46":1.0100164413452148,"47":0.5159093737602234,"48":-1.219670057296753,"49":0.6455732583999634,"50":0.07725539058446884,"51":-0.436888188123703,"52":-0.30873289704322815,"53":1.248531699180603,"54":-1.3690985441207886,"55":0.976394534111023,"56":0.7925847172737122,"57":0.20341578125953674,"58":0.46249353885650635,"59":-0.4716187119483948,"60":-0.4218997061252594,"61":0.4815593361854553,"62":-0.6919260025024414,"63":0.23762103915214539}},"forgetBias":{"rows":8,"columns":1,"weights":{"0":0,"1":0,"2":0,"3":0,"4":0,"5":0,"6":0,"7":0}},"outputMatrix":{"rows":8,"columns":4,"weights":{"0":-1.9784486293792725,"1":-2.0432088375091553,"2":-2.417348861694336,"3":-2.8691787719726562,"4":-2.111697196960449,"5":-2.485865354537964,"6":-2.4183454513549805,"7":-3.3309593200683594,"8":0.875493586063385,"9":-0.6095574498176575,"10":1.0327292680740356,"11":-1.179466724395752,"12":-1.43561589717865,"13":-2.5201849937438965,"14":-2.1029913425445557,"15":-3.4781925678253174,"16":-1.9649701118469238,"17":-2.508195161819458,"18":-2.3861567974090576,"19":-3.480991840362549,"20":3.07504940032959,"21":2.796424150466919,"22":3.125866413116455,"23":2.7231619358062744,"24":1.1262540817260742,"25":1.3075506687164307,"26":1.8106590509414673,"27":2.1335020065307617,"28":2.1212172508239746,"29":2.427903175354004,"30":2.375434160232544,"31":2.751359462738037}},"outputHidden":{"rows":8,"columns":8,"weights":{"0":2.6337010860443115,"1":-1.1696741580963135,"2":-0.7714665532112122,"3":-0.1598200500011444,"4":1.3324366807937622,"5":-0.6942957043647766,"6":1.025165319442749,"7":-0.5804755091667175,"8":-0.2021024376153946,"9":-0.3103257715702057,"10":0.061162080615758896,"11":1.2612740993499756,"12":0.5768890380859375,"13":-0.871110200881958,"14":-1.5399161577224731,"15":-0.30766844749450684,"16":-1.3242796659469604,"17":-0.7094017267227173,"18":1.4026225805282593,"19":-0.005911359563469887,"20":1.0858935117721558,"21":0.32986509799957275,"22":-1.5630087852478027,"23":2.76210355758667,"24":-0.7318640947341919,"25":-1.432776927947998,"26":2.074479103088379,"27":0.0009679215145297348,"28":0.6097365617752075,"29":0.7726258039474487,"30":-0.8945322632789612,"31":-1.6558998823165894,"32":-0.29490575194358826,"33":-1.1790828704833984,"34":-0.5335575938224792,"35":-1.0914198160171509,"36":0.6011723279953003,"37":-1.3238657712936401,"38":-0.5425836443901062,"39":0.5107880234718323,"40":0.4660736322402954,"41":-1.4957058429718018,"42":-1.498187780380249,"43":-0.14653685688972473,"44":1.556471586227417,"45":-1.4818445444107056,"46":0.33535489439964294,"47":0.976306140422821,"48":-2.6661126613616943,"49":-0.3469572365283966,"50":-0.04772235453128815,"51":0.5547937750816345,"52":-0.7164357304573059,"53":0.46451789140701294,"54":-1.8186888694763184,"55":-1.7017011642456055,"56":4.222677707672119,"57":-4.669627666473389,"58":-3.035557270050049,"59":-1.7748253345489502,"60":4.0361127853393555,"61":-2.8978044986724854,"62":4.428094863891602,"63":-1.264817714691162}},"outputBias":{"rows":8,"columns":1,"weights":{"0":1.7009228467941284,"1":5.63604211807251,"2":1.7643187046051025,"3":4.111954212188721,"4":3.5317704677581787,"5":0.5541598796844482,"6":-5.899062156677246,"7":-6.335066795349121}},"cellActivationMatrix":{"rows":8,"columns":4,"weights":{"0":1.3557512760162354,"1":1.2779736518859863,"2":1.2496888637542725,"3":1.3110483884811401,"4":-1.2066115140914917,"5":-1.18130624294281,"6":-1.2299531698226929,"7":-1.1190842390060425,"8":-0.7016974687576294,"9":-0.2630293667316437,"10":0.18335171043872833,"11":1.1376664638519287,"12":-0.3118878901004791,"13":1.285905122756958,"14":0.6893285512924194,"15":3.137139081954956,"16":1.2197953462600708,"17":1.203839898109436,"18":1.205552101135254,"19":1.1503512859344482,"20":2.5631251335144043,"21":2.6742494106292725,"22":3.046602725982666,"23":3.8172740936279297,"24":1.412487268447876,"25":1.7504980564117432,"26":2.0539398193359375,"27":2.555570125579834,"28":1.6953999996185303,"29":-0.29118144512176514,"30":-0.3438304662704468,"31":-4.285691738128662}},"cellActivationHidden":{"rows":8,"columns":8,"weights":{"0":1.2534782886505127,"1":-1.0680235624313354,"2":-0.8520025610923767,"3":0.37727123498916626,"4":0.766781210899353,"5":-1.0014240741729736,"6":0.9938910007476807,"7":0.2031651884317398,"8":-1.7666609287261963,"9":0.5022072792053223,"10":0.7891464233398438,"11":-0.010405541397631168,"12":-0.4040488600730896,"13":1.3259291648864746,"14":-1.8265875577926636,"15":-0.23036611080169678,"16":-1.6806660890579224,"17":1.8883579969406128,"18":-2.0751242637634277,"19":1.549437165260315,"20":-1.510991096496582,"21":1.1527944803237915,"22":-0.2641838490962982,"23":-4.848300457000732,"24":-1.132248044013977,"25":0.4581698775291443,"26":-1.5412306785583496,"27":-1.679290533065796,"28":-0.7820259928703308,"29":-0.7189707159996033,"30":-0.43507757782936096,"31":0.3882575035095215,"32":1.8193659782409668,"33":-0.5640751123428345,"34":-1.0249994993209839,"35":-0.044054388999938965,"36":0.4597667157649994,"37":-1.3809784650802612,"38":1.7881059646606445,"39":0.24895375967025757,"40":-0.2742716372013092,"41":-0.6201930642127991,"42":-1.7018522024154663,"43":-1.1276549100875854,"44":0.9492688179016113,"45":-2.004546880722046,"46":0.06664692610502243,"47":1.2631471157073975,"48":-1.5016872882843018,"49":0.019993484020233154,"50":-0.8999486565589905,"51":-0.6062661409378052,"52":-0.4682502746582031,"53":-0.6609129905700684,"54":-1.774232029914856,"55":-0.0043585291132330894,"56":-0.5211967825889587,"57":-0.33964839577674866,"58":0.42364445328712463,"59":0.04796057939529419,"60":0.5416479110717773,"61":-0.12555468082427979,"62":0.5792646408081055,"63":-0.5640846490859985}},"cellActivationBias":{"rows":8,"columns":1,"weights":{"0":1.437848687171936,"1":-1.4025895595550537,"2":-1.8480255603790283,"3":-5.377175331115723,"4":1.400213599205017,"5":-9.295268058776855,"6":-4.035632610321045,"7":2.09596848487854}}},{"inputMatrix":{"rows":16,"columns":8,"weights":{"0":-1.4607572555541992,"1":0.6545248031616211,"2":-2.8082029819488525,"3":0.8384936451911926,"4":-0.8813679814338684,"5":-2.5355796813964844,"6":-1.2974553108215332,"7":1.5940275192260742,"8":-1.1971513032913208,"9":1.6791560649871826,"10":0.48964524269104004,"11":1.1748194694519043,"12":-2.3914926052093506,"13":-0.16400834918022156,"14":0.04538650065660477,"15":-1.0092052221298218,"16":-2.058119535446167,"17":1.4025524854660034,"18":1.769119143486023,"19":0.3437674939632416,"20":-1.740963101387024,"21":0.9278554320335388,"22":-1.133941411972046,"23":0.6399136185646057,"24":2.2906899452209473,"25":-2.912684202194214,"26":-2.725442886352539,"27":-2.305637836456299,"28":3.997574806213379,"29":-4.240674018859863,"30":1.2080729007720947,"31":2.70412015914917,"32":3.104062557220459,"33":-3.080806255340576,"34":-1.773396372795105,"35":-1.96387779712677,"36":4.488308906555176,"37":-2.268369436264038,"38":-4.271826267242432,"39":1.598763346672058,"40":-2.6700100898742676,"41":-0.39329925179481506,"42":-1.1390293836593628,"43":-1.8440637588500977,"44":-0.19252917170524597,"45":-2.526984214782715,"46":-3.0243237018585205,"47":2.5670595169067383,"48":-0.7191852331161499,"49":0.656909704208374,"50":1.3380444049835205,"51":0.8607006669044495,"52":-0.23201489448547363,"53":1.6697834730148315,"54":1.517053484916687,"55":-2.708181381225586,"56":2.6947360038757324,"57":0.023899918422102928,"58":3.0461556911468506,"59":1.520713210105896,"60":2.5029828548431396,"61":2.888578414916992,"62":-0.7102732062339783,"63":-0.822586715221405,"64":0.6801849603652954,"65":-2.122300624847412,"66":-1.2598423957824707,"67":-1.692486047744751,"68":1.8324520587921143,"69":-3.324664831161499,"70":-5.273981094360352,"71":4.02249002456665,"72":2.073674201965332,"73":-5.616239070892334,"74":-2.0415351390838623,"75":-3.7949416637420654,"76":3.981262445449829,"77":-1.3924776315689087,"78":-3.7139832973480225,"79":1.6309614181518555,"80":3.0462679862976074,"81":-2.9297213554382324,"82":0.8010801076889038,"83":-1.4075651168823242,"84":4.713594913482666,"85":0.13314160704612732,"86":-4.946910381317139,"87":0.13679206371307373,"88":-2.5553760528564453,"89":1.0694248676300049,"90":1.3759715557098389,"91":-0.8135682940483093,"92":-1.116183876991272,"93":0.6960062980651855,"94":0.5870152115821838,"95":-2.796921730041504,"96":3.1383886337280273,"97":-0.3560437858104706,"98":-0.6966479420661926,"99":0.8628847002983093,"100":1.698866844177246,"101":-1.826062560081482,"102":-0.5973502397537231,"103":-1.2129571437835693,"104":-1.6779605150222778,"105":1.0785331726074219,"106":0.541494607925415,"107":0.7343928217887878,"108":-0.39886191487312317,"109":0.6527740955352783,"110":0.07838644087314606,"111":-0.5023360252380371,"112":-1.8403245210647583,"113":2.345407485961914,"114":-2.5284583568573,"115":-0.1648201197385788,"116":-1.9820855855941772,"117":-2.003861427307129,"118":-2.677614688873291,"119":1.7365723848342896,"120":1.0010966062545776,"121":-0.46483924984931946,"122":0.24548880755901337,"123":-0.39417046308517456,"124":2.1539812088012695,"125":1.1747788190841675,"126":-2.359950065612793,"127":1.6560311317443848}},"inputHidden":{"rows":16,"columns":16,"weights":{"0":1.5917552709579468,"1":1.1763330698013306,"2":1.2613526582717896,"3":1.7811386585235596,"4":0.2336282879114151,"5":0.12356936931610107,"6":2.9843244552612305,"7":-2.7034175395965576,"8":3.1740286350250244,"9":-0.5424654483795166,"10":-0.07112783938646317,"11":2.465261459350586,"12":-1.6922340393066406,"13":5.5587358474731445,"14":-1.0713906288146973,"15":-0.6614462733268738,"16":2.128167152404785,"17":-1.2375493049621582,"18":2.9821600914001465,"19":1.5775260925292969,"20":-2.540019989013672,"21":0.5009381771087646,"22":-0.6634114384651184,"23":0.8672582507133484,"24":1.4470971822738647,"25":2.3851544857025146,"26":-2.3242709636688232,"27":-2.1804099082946777,"28":0.9986197352409363,"29":-0.12207776308059692,"30":0.08285705745220184,"31":-1.5255011320114136,"32":1.090226173400879,"33":-0.7181785106658936,"34":2.0431580543518066,"35":0.06982315331697464,"36":1.506399154663086,"37":-0.7012665867805481,"38":1.6921402215957642,"39":-0.05546022206544876,"40":-3.3143742084503174,"41":-0.8112590909004211,"42":-0.03144548833370209,"43":-1.3791782855987549,"44":1.3157681226730347,"45":1.1676957607269287,"46":2.8866236209869385,"47":-0.8424113988876343,"48":-1.1367148160934448,"49":-1.853488564491272,"50":2.5950229167938232,"51":3.054161787033081,"52":3.344132900238037,"53":-2.0388779640197754,"54":2.051666021347046,"55":1.0522404909133911,"56":2.0281553268432617,"57":-2.309974193572998,"58":1.7854969501495361,"59":1.4268343448638916,"60":-1.9723888635635376,"61":1.9225929975509644,"62":-2.4366507530212402,"63":2.6837363243103027,"64":0.35135284066200256,"65":-1.268757939338684,"66":-0.5095037817955017,"67":-1.2139374017715454,"68":-0.28997573256492615,"69":1.0588335990905762,"70":1.1308047771453857,"71":-1.7789108753204346,"72":0.09005001932382584,"73":0.4300522208213806,"74":-1.6882750988006592,"75":2.837799549102783,"76":-2.1944968700408936,"77":-1.3014016151428223,"78":0.25207316875457764,"79":1.5369940996170044,"80":0.9333739280700684,"81":-0.7066407203674316,"82":-2.0810234546661377,"83":-3.8508198261260986,"84":-0.4149048626422882,"85":-0.011096539907157421,"86":-0.6709722876548767,"87":-2.5966906547546387,"88":-0.5230665802955627,"89":1.768141508102417,"90":-1.871558427810669,"91":-1.2844336032867432,"92":-2.441089630126953,"93":0.19183246791362762,"94":-0.45235344767570496,"95":-0.8209440112113953,"96":0.0780225470662117,"97":-2.3032965660095215,"98":-1.2924402952194214,"99":0.034589625895023346,"100":-0.07308528572320938,"101":0.23407699167728424,"102":1.8512718677520752,"103":1.6742740869522095,"104":-0.7731047868728638,"105":0.6081873178482056,"106":-0.5421053767204285,"107":1.1554840803146362,"108":-1.786466121673584,"109":1.4357682466506958,"110":-1.0326783657073975,"111":-0.9413992762565613,"112":-2.770016670227051,"113":0.5472730994224548,"114":0.14594227075576782,"115":1.7062946557998657,"116":1.9473521709442139,"117":-1.555827021598816,"118":2.637596845626831,"119":1.601335883140564,"120":1.1021572351455688,"121":-1.8368535041809082,"122":-0.5024511218070984,"123":-3.643859386444092,"124":1.449634313583374,"125":2.5745768547058105,"126":-0.004297300707548857,"127":1.7328541278839111,"128":2.2572460174560547,"129":0.12094509601593018,"130":0.847363293170929,"131":2.5294065475463867,"132":-1.6463021039962769,"133":2.308851718902588,"134":-0.18669991195201874,"135":-1.3612409830093384,"136":-1.2530101537704468,"137":0.25205719470977783,"138":0.22556205093860626,"139":-5.601386070251465,"140":4.476828575134277,"141":-0.09254062920808792,"142":3.541358470916748,"143":-2.6627371311187744,"144":-0.7594516277313232,"145":-0.23446756601333618,"146":-0.5599986910820007,"147":0.4898609220981598,"148":-1.4598783254623413,"149":1.0052855014801025,"150":0.7160182595252991,"151":-0.7022808790206909,"152":-0.6958317756652832,"153":-0.10892032086849213,"154":0.7393013834953308,"155":-0.7764667272567749,"156":1.613021969795227,"157":0.3637918531894684,"158":0.49348971247673035,"159":-0.8352285623550415,"160":-0.18618282675743103,"161":-0.42828160524368286,"162":-2.863708257675171,"163":-2.583228588104248,"164":0.18438145518302917,"165":1.2155944108963013,"166":0.43101271986961365,"167":0.0327187143266201,"168":0.009557751007378101,"169":1.3181097507476807,"170":-0.4753798246383667,"171":1.872901201248169,"172":-0.3556399345397949,"173":-1.4621782302856445,"174":-0.10980626940727234,"175":2.1074953079223633,"176":1.8544074296951294,"177":-1.1774266958236694,"178":0.7265070080757141,"179":-3.9239566326141357,"180":-2.3491294384002686,"181":-0.21465176343917847,"182":1.3240405321121216,"183":-2.065688133239746,"184":-2.3650832176208496,"185":-0.09978700429201126,"186":1.7829639911651611,"187":0.7749239206314087,"188":-0.06445640325546265,"189":-3.247445583343506,"190":-2.9495365619659424,"191":1.2126526832580566,"192":-1.4956891536712646,"193":-2.7457377910614014,"194":-1.6668895483016968,"195":-1.2096710205078125,"196":-1.7350895404815674,"197":0.7621800899505615,"198":1.8384870290756226,"199":0.7109995484352112,"200":0.7223711609840393,"201":-0.6525739431381226,"202":-0.4893682897090912,"203":2.001776933670044,"204":0.11045444011688232,"205":-2.4853403568267822,"206":-2.1660375595092773,"207":-0.575154721736908,"208":6.486949443817139,"209":1.0044442415237427,"210":0.9305782318115234,"211":-0.9814431667327881,"212":-0.14771877229213715,"213":-2.3357670307159424,"214":2.7474348545074463,"215":-2.8950767517089844,"216":-2.1865339279174805,"217":-2.4978723526000977,"218":0.8192680478096008,"219":0.48986491560935974,"220":-0.510342538356781,"221":-0.8213080763816833,"222":-1.5484039783477783,"223":0.21518218517303467,"224":-1.5265905857086182,"225":-2.4733810424804688,"226":-0.5823163390159607,"227":-2.247223138809204,"228":-1.992234706878662,"229":0.9975059628486633,"230":1.7872835397720337,"231":0.3146294355392456,"232":-0.048631541430950165,"233":0.009589687921106815,"234":-1.0693191289901733,"235":1.767970085144043,"236":-0.530899167060852,"237":0.5161691308021545,"238":1.3855657577514648,"239":-1.8491002321243286,"240":0.26801565289497375,"241":-2.468773126602173,"242":-0.2423705905675888,"243":-0.37093982100486755,"244":-0.9783532619476318,"245":-2.8034842014312744,"246":-0.7787379026412964,"247":0.2962840497493744,"248":0.2610293924808502,"249":0.5395049452781677,"250":-1.1051949262619019,"251":-3.695784091949463,"252":-1.1437907218933105,"253":0.6404027342796326,"254":-1.0533063411712646,"255":0.8463456630706787}},"inputBias":{"rows":16,"columns":1,"weights":{"0":-1.3885325193405151,"1":-0.30070409178733826,"2":0.36410269141197205,"3":-4.893819332122803,"4":-3.4141745567321777,"5":0.7856959104537964,"6":-2.554781198501587,"7":-1.3895881175994873,"8":1.0617575645446777,"9":-0.10301577299833298,"10":-0.4933341145515442,"11":0.6414175629615784,"12":-1.567574381828308,"13":-0.08847114443778992,"14":-1.403693437576294,"15":-1.9388017654418945}},"forgetMatrix":{"rows":16,"columns":8,"weights":{"0":-0.36540427803993225,"1":-0.5046209096908569,"2":1.4254997968673706,"3":-0.5178622007369995,"4":-0.3732210397720337,"5":0.03281162679195404,"6":2.6001267433166504,"7":-0.016434023156762123,"8":-0.06858212500810623,"9":-0.3762514889240265,"10":-0.3295164108276367,"11":-0.053824879229068756,"12":-0.00694394763559103,"13":-1.1832809448242188,"14":1.963287591934204,"15":0.01975264400243759,"16":-1.7052226066589355,"17":1.3750214576721191,"18":1.9121919870376587,"19":0.08130186051130295,"20":-0.9134420156478882,"21":0.5462089776992798,"22":0.2895064353942871,"23":0.12671439349651337,"24":0.7472997307777405,"25":-2.4755330085754395,"26":-3.941194772720337,"27":-0.787750780582428,"28":1.4131405353546143,"29":-3.0111453533172607,"30":0.38740938901901245,"31":2.1223015785217285,"32":-0.13959366083145142,"33":-1.5552877187728882,"34":-1.1478389501571655,"35":-0.654200553894043,"36":1.0311552286148071,"37":-2.527529239654541,"38":-2.9657094478607178,"39":3.786437511444092,"40":0.357164204120636,"41":-1.4541643857955933,"42":-1.9157536029815674,"43":-0.8805273771286011,"44":1.131211519241333,"45":-4.537977695465088,"46":-1.7681896686553955,"47":3.6386759281158447,"48":0.07679188996553421,"49":0.22932103276252747,"50":1.086538314819336,"51":0.19139043986797333,"52":0.1713012307882309,"53":0.35584142804145813,"54":0.23589420318603516,"55":-0.8367915153503418,"56":0.333232581615448,"57":0.15890729427337646,"58":1.426550269126892,"59":-0.09561922401189804,"60":0.32317423820495605,"61":0.8256189823150635,"62":-0.553164541721344,"63":0.8369553089141846,"64":-0.03223593160510063,"65":1.4821765422821045,"66":2.0337398052215576,"67":-0.17220503091812134,"68":0.18255212903022766,"69":1.6231939792633057,"70":-3.1896164417266846,"71":-1.723913550376892,"72":0.6619857549667358,"73":-2.117027759552002,"74":-1.3005934953689575,"75":-1.5022526979446411,"76":1.7810496091842651,"77":-2.6123123168945312,"78":-3.89410662651062,"79":-0.902474045753479,"80":-0.28911665081977844,"81":-1.2688628435134888,"82":-0.5661325454711914,"83":-0.9070753455162048,"84":1.035549283027649,"85":-1.2598267793655396,"86":-0.805769145488739,"87":1.6669061183929443,"88":1.2889342308044434,"89":-1.4378005266189575,"90":-0.6898184418678284,"91":-0.7566278576850891,"92":1.9875357151031494,"93":-1.301326870918274,"94":-1.780847191810608,"95":1.809919834136963,"96":-0.6598266959190369,"97":1.0728195905685425,"98":-0.16235291957855225,"99":0.33845409750938416,"100":-0.6234909892082214,"101":0.9056752324104309,"102":0.5063986778259277,"103":0.32812735438346863,"104":-0.7787473797798157,"105":0.5742471218109131,"106":1.7729891538619995,"107":1.0761351585388184,"108":-0.4894089698791504,"109":1.967292070388794,"110":1.2441869974136353,"111":-0.7268608808517456,"112":-0.48719674348831177,"113":0.998573362827301,"114":0.5751672983169556,"115":-0.035929374396800995,"116":-0.6003326773643494,"117":-1.0742111206054688,"118":0.35251444578170776,"119":0.1278398185968399,"120":0.19659319519996643,"121":-0.9869357347488403,"122":-0.11207650601863861,"123":-0.17958208918571472,"124":0.8104442954063416,"125":0.5937662124633789,"126":-0.5822029113769531,"127":1.736737847328186}},"forgetHidden":{"rows":16,"columns":16,"weights":{"0":-4.9192657470703125,"1":1.474577784538269,"2":-4.533655643463135,"3":0.4368418753147125,"4":2.5150322914123535,"5":2.8462753295898438,"6":0.45155832171440125,"7":0.3874073624610901,"8":-2.5189006328582764,"9":0.6329240202903748,"10":-1.0921502113342285,"11":0.5556483268737793,"12":0.04685855656862259,"13":0.6811974048614502,"14":-0.2777419686317444,"15":1.4059083461761475,"16":1.022645115852356,"17":-0.3962041139602661,"18":1.2184947729110718,"19":1.6523680686950684,"20":0.49490565061569214,"21":-1.3407726287841797,"22":-0.014501265250146389,"23":0.99301677942276,"24":-0.541862964630127,"25":-1.0832509994506836,"26":-0.2579001784324646,"27":-0.7748288512229919,"28":0.5716032385826111,"29":-0.956754207611084,"30":-1.1202054023742676,"31":0.6813778877258301,"32":-0.8389503359794617,"33":-0.215694397687912,"34":1.1837303638458252,"35":-0.5456363558769226,"36":0.19961023330688477,"37":-0.681359052658081,"38":0.18850991129875183,"39":-1.777443766593933,"40":-0.5483021140098572,"41":0.4328143894672394,"42":-1.1213257312774658,"43":-0.98209148645401,"44":-1.3886144161224365,"45":-1.1112092733383179,"46":0.9339817762374878,"47":2.0912177562713623,"48":-0.14777743816375732,"49":0.03718927130103111,"50":0.13758032023906708,"51":3.375835657119751,"52":0.033388033509254456,"53":-0.28675320744514465,"54":1.0991226434707642,"55":1.6912143230438232,"56":1.9633750915527344,"57":-0.8626000881195068,"58":0.16667991876602173,"59":0.5737679600715637,"60":-1.979020357131958,"61":0.7611136436462402,"62":-1.194271445274353,"63":0.42448532581329346,"64":0.9059841632843018,"65":-0.0671621784567833,"66":0.80362868309021,"67":-0.2701476812362671,"68":-0.6963631510734558,"69":-0.5185760855674744,"70":0.7112368941307068,"71":-2.2336301803588867,"72":0.22893215715885162,"73":-0.8401034474372864,"74":-0.3501858711242676,"75":-1.4173157215118408,"76":0.39297884702682495,"77":-0.7545550465583801,"78":-1.9982138872146606,"79":-0.3405165672302246,"80":0.7930282950401306,"81":2.229114294052124,"82":1.5264103412628174,"83":-0.8979851603507996,"84":1.9754407405853271,"85":-1.7480151653289795,"86":0.7397716641426086,"87":-1.8082985877990723,"88":1.5332863330841064,"89":-0.18239107728004456,"90":-0.05192243307828903,"91":1.4016304016113281,"92":-0.5589184761047363,"93":-0.8487836718559265,"94":-0.5094704031944275,"95":-1.3329261541366577,"96":1.365683913230896,"97":1.4826892614364624,"98":-0.009632406756281853,"99":0.7841085195541382,"100":-0.008170968852937222,"101":1.6722161769866943,"102":0.25625157356262207,"103":-0.33209964632987976,"104":0.029411276802420616,"105":1.423858404159546,"106":-1.33490788936615,"107":-0.4577990770339966,"108":1.2910494804382324,"109":-1.979922890663147,"110":-0.059442415833473206,"111":-0.334572970867157,"112":2.8067166805267334,"113":-0.2938495874404907,"114":-1.3167762756347656,"115":-1.9717037677764893,"116":-1.1395270824432373,"117":2.074265241622925,"118":-0.4739408493041992,"119":-1.0469273328781128,"120":0.569874107837677,"121":2.86553692817688,"122":-1.5570744276046753,"123":-0.7486749291419983,"124":0.10474634170532227,"125":-0.8253029584884644,"126":-0.24681077897548676,"127":0.40544742345809937,"128":0.09745154529809952,"129":1.9986021518707275,"130":0.11030840873718262,"131":-3.6378684043884277,"132":-0.09126296639442444,"133":1.5006070137023926,"134":-1.4698805809020996,"135":-1.3814479112625122,"136":-0.6395288109779358,"137":2.56728196144104,"138":-1.9353365898132324,"139":-0.8244147300720215,"140":-0.9654462337493896,"141":-1.571149468421936,"142":0.39123043417930603,"143":2.3573074340820312,"144":-0.39550042152404785,"145":-2.045128583908081,"146":1.2097179889678955,"147":1.0607177019119263,"148":-0.662093460559845,"149":2.7842116355895996,"150":-0.1402301788330078,"151":-1.1833924055099487,"152":-0.4125738739967346,"153":-0.3335661292076111,"154":-1.11089026927948,"155":-0.19076082110404968,"156":-0.04887738823890686,"157":0.3990515172481537,"158":0.24451866745948792,"159":-0.9153236150741577,"160":1.8168883323669434,"161":-0.153526172041893,"162":0.4447963535785675,"163":-0.019219525158405304,"164":0.5124470591545105,"165":1.0669611692428589,"166":-0.3726639449596405,"167":-1.0244935750961304,"168":-2.0949904918670654,"169":-0.2479526251554489,"170":0.060657113790512085,"171":0.4551539123058319,"172":0.4320986866950989,"173":-0.5410740971565247,"174":-0.3244115710258484,"175":0.47433918714523315,"176":3.5276362895965576,"177":-0.31210586428642273,"178":0.7034363746643066,"179":-1.204011082649231,"180":0.8626422882080078,"181":-0.6898130774497986,"182":0.49439892172813416,"183":-0.5978501439094543,"184":-1.6601295471191406,"185":-1.6566239595413208,"186":-0.32241424918174744,"187":-1.2673184871673584,"188":1.9249112606048584,"189":-0.4270024597644806,"190":-0.05890645831823349,"191":-0.050028152763843536,"192":2.172987461090088,"193":-1.6546896696090698,"194":1.1061214208602905,"195":-0.5404505729675293,"196":0.1519835740327835,"197":0.4321241080760956,"198":2.560872793197632,"199":-0.9745201468467712,"200":2.2767066955566406,"201":0.09609328210353851,"202":-0.5252684354782104,"203":1.5409044027328491,"204":-0.01321807224303484,"205":-0.12490007281303406,"206":-1.7438372373580933,"207":0.7073636651039124,"208":-0.2685375511646271,"209":1.1749552488327026,"210":-1.5270965099334717,"211":-0.7583310008049011,"212":-1.0852351188659668,"213":2.398212194442749,"214":0.5726156234741211,"215":-0.7841836214065552,"216":-0.5044902563095093,"217":0.7937060594558716,"218":-0.6819918751716614,"219":-1.0861868858337402,"220":0.14701037108898163,"221":-0.9480778574943542,"222":0.5062470436096191,"223":0.6804174184799194,"224":-0.3822210133075714,"225":-0.4934181272983551,"226":1.027312159538269,"227":-0.7022446393966675,"228":-1.188830852508545,"229":0.6663811206817627,"230":0.6318739652633667,"231":-0.5914031267166138,"232":0.014569858089089394,"233":-0.0437641516327858,"234":-1.347483515739441,"235":1.2211744785308838,"236":-0.7821050882339478,"237":0.33211642503738403,"238":1.7535622119903564,"239":0.14030678570270538,"240":1.4621391296386719,"241":0.6846303343772888,"242":0.2054283767938614,"243":-0.24836745858192444,"244":0.3687324821949005,"245":-0.22597086429595947,"246":0.15893729031085968,"247":-0.10958873480558395,"248":-0.23008832335472107,"249":-0.5005557537078857,"250":2.6048057079315186,"251":0.42690643668174744,"252":-0.04545249417424202,"253":-0.3743462860584259,"254":0.679286003112793,"255":0.3993107080459595}},"forgetBias":{"rows":16,"columns":1,"weights":{"0":0,"1":0,"2":0,"3":0,"4":0,"5":0,"6":0,"7":0,"8":0,"9":0,"10":0,"11":0,"12":0,"13":0,"14":0,"15":0}},"outputMatrix":{"rows":16,"columns":8,"weights":{"0":-1.3116765022277832,"1":-0.8971720933914185,"2":-1.0423120260238647,"3":-0.9820102453231812,"4":1.131544589996338,"5":0.5927712917327881,"6":0.725505530834198,"7":-0.3729313313961029,"8":-1.3717048168182373,"9":1.1830649375915527,"10":-0.017676517367362976,"11":1.4578043222427368,"12":-2.5877580642700195,"13":-0.1326247900724411,"14":0.3983175754547119,"15":-0.4530608654022217,"16":-1.9921315908432007,"17":1.2837848663330078,"18":1.6212158203125,"19":0.6318223476409912,"20":-1.967125415802002,"21":1.4457577466964722,"22":0.4786456227302551,"23":-1.0345958471298218,"24":2.660552740097046,"25":-4.328023910522461,"26":-3.268770694732666,"27":-3.0978260040283203,"28":4.1817708015441895,"29":-4.742149353027344,"30":1.2780011892318726,"31":2.1406290531158447,"32":3.9454751014709473,"33":-4.146488189697266,"34":-1.586894154548645,"35":-2.414109230041504,"36":5.072667121887207,"37":-2.556903123855591,"38":-4.610927581787109,"39":1.8248519897460938,"40":0.4857552945613861,"41":-2.1116034984588623,"42":-1.7707916498184204,"43":-3.2802188396453857,"44":2.4607884883880615,"45":-3.140199661254883,"46":-3.9345145225524902,"47":3.946000576019287,"48":-0.5157946944236755,"49":0.9026703238487244,"50":1.7396960258483887,"51":1.1831201314926147,"52":-0.26814183592796326,"53":1.812573790550232,"54":1.8635600805282593,"55":-2.9658923149108887,"56":3.333048105239868,"57":-1.8509289026260376,"58":2.4205737113952637,"59":0.09680822491645813,"60":3.801020383834839,"61":3.6497323513031006,"62":0.2856296896934509,"63":-2.2657759189605713,"64":0.6915144920349121,"65":-2.7356607913970947,"66":-1.3167306184768677,"67":-2.252763032913208,"68":2.084608316421509,"69":-3.3179728984832764,"70":-5.051414966583252,"71":3.0290186405181885,"72":3.08731746673584,"73":-4.778524875640869,"74":-2.0050179958343506,"75":-4.526946544647217,"76":5.672252178192139,"77":-1.5056201219558716,"78":-4.448302745819092,"79":1.2494513988494873,"80":3.7131152153015137,"81":-3.6078226566314697,"82":0.12854620814323425,"83":-1.23155677318573,"84":4.946189880371094,"85":-0.7299389243125916,"86":-5.208136081695557,"87":1.4313023090362549,"88":-0.36836785078048706,"89":-0.6337307095527649,"90":0.25838690996170044,"91":-0.5445662140846252,"92":2.755976915359497,"93":-1.2048670053482056,"94":-0.578652560710907,"95":0.8014695644378662,"96":4.014042377471924,"97":-0.1942853033542633,"98":-0.16213521361351013,"99":-1.2464927434921265,"100":2.7041661739349365,"101":-0.21970008313655853,"102":-2.281806707382202,"103":-0.09212097525596619,"104":-1.5162041187286377,"105":2.1578152179718018,"106":1.3619831800460815,"107":1.8927476406097412,"108":-2.327993392944336,"109":1.8461053371429443,"110":1.36012601852417,"111":-1.8053449392318726,"112":-1.3089611530303955,"113":1.6469836235046387,"114":-2.255354404449463,"115":-0.9142116904258728,"116":-1.2032392024993896,"117":-2.747235059738159,"118":-3.364091157913208,"119":3.3912198543548584,"120":0.9985507130622864,"121":-1.2629213333129883,"122":-0.07205117493867874,"123":-1.048674464225769,"124":2.8177530765533447,"125":0.8820284008979797,"126":-2.0415096282958984,"127":2.7466769218444824}},"outputHidden":{"rows":16,"columns":16,"weights":{"0":1.389465093612671,"1":0.20494236052036285,"2":0.8049283027648926,"3":-0.6773436665534973,"4":-1.2912790775299072,"5":-0.3763289749622345,"6":2.2780935764312744,"7":-2.782741069793701,"8":1.1606205701828003,"9":-0.9190925359725952,"10":-1.1434876918792725,"11":0.936435878276825,"12":-1.2367414236068726,"13":3.8694264888763428,"14":-1.0383574962615967,"15":-2.0226831436157227,"16":3.2933390140533447,"17":-0.3136872947216034,"18":2.194657564163208,"19":1.2494271993637085,"20":-2.4659059047698975,"21":-0.40910011529922485,"22":-0.5981682538986206,"23":-0.10685014724731445,"24":0.37998566031455994,"25":0.849179208278656,"26":-2.0619328022003174,"27":-1.2242510318756104,"28":1.4774580001831055,"29":-0.7511997222900391,"30":-0.053444888442754745,"31":-1.0959696769714355,"32":0.24671153724193573,"33":-1.3224611282348633,"34":1.6362508535385132,"35":-0.6170802116394043,"36":-0.6983776092529297,"37":-1.837310791015625,"38":1.4228451251983643,"39":0.1680857092142105,"40":-2.395994186401367,"41":0.5746837854385376,"42":-1.6423369646072388,"43":-1.1257261037826538,"44":-0.8269303441047668,"45":0.520671546459198,"46":2.913357973098755,"47":0.39887022972106934,"48":0.15177074074745178,"49":-1.8022030591964722,"50":3.602125644683838,"51":2.8291573524475098,"52":1.8728415966033936,"53":-2.058588743209839,"54":1.6095435619354248,"55":-0.47845378518104553,"56":0.791740894317627,"57":-1.7654520273208618,"58":3.2437360286712646,"59":1.6910089254379272,"60":-3.039425849914551,"61":1.8470722436904907,"62":-2.3815622329711914,"63":3.612922191619873,"64":0.542118489742279,"65":-1.4966964721679688,"66":-0.572874128818512,"67":-0.6943764686584473,"68":-0.4266732335090637,"69":0.24400216341018677,"70":1.5951416492462158,"71":-2.9070284366607666,"72":-0.7231009602546692,"73":-1.0359349250793457,"74":-1.5502002239227295,"75":2.216705799102783,"76":-1.616917610168457,"77":-1.4745522737503052,"78":-1.324703574180603,"79":-0.06484035402536392,"80":0.7580113410949707,"81":0.8312897682189941,"82":-1.2950336933135986,"83":-2.084317684173584,"84":0.3270329535007477,"85":-0.8860108256340027,"86":-0.1845434010028839,"87":-2.6075279712677,"88":0.17155787348747253,"89":0.45698854327201843,"90":-0.524664044380188,"91":-2.155862331390381,"92":-1.3341305255889893,"93":0.1679229885339737,"94":0.1889493763446808,"95":-0.34153398871421814,"96":0.12353496253490448,"97":-1.5611587762832642,"98":-1.0983763933181763,"99":-0.24763797223567963,"100":-0.22502151131629944,"101":1.109889268875122,"102":1.1185070276260376,"103":1.7879581451416016,"104":-0.8092021942138672,"105":1.149803638458252,"106":-0.730942964553833,"107":0.7886373400688171,"108":-1.400558352470398,"109":0.32763123512268066,"110":-0.5832589268684387,"111":-0.8822695016860962,"112":-2.1546123027801514,"113":-0.3520938456058502,"114":-0.9158297181129456,"115":1.0308499336242676,"116":-0.12271257489919662,"117":-0.9786333441734314,"118":1.4772366285324097,"119":0.5549710392951965,"120":1.9174659252166748,"121":0.3366047441959381,"122":-1.7280219793319702,"123":-3.433781385421753,"124":1.228028416633606,"125":2.1665282249450684,"126":-0.5540071129798889,"127":1.7123616933822632,"128":1.6184372901916504,"129":0.41523241996765137,"130":0.7234057784080505,"131":2.6487972736358643,"132":-1.3727506399154663,"133":1.397105097770691,"134":-0.37333109974861145,"135":-1.8629354238510132,"136":0.03144087642431259,"137":0.37007400393486023,"138":0.22038039565086365,"139":-4.746413230895996,"140":4.613826751708984,"141":0.11697782576084137,"142":3.6918654441833496,"143":-2.34182071685791,"144":0.9249560236930847,"145":-1.3986408710479736,"146":-0.0873299315571785,"147":0.5812486410140991,"148":-1.1416738033294678,"149":1.9251067638397217,"150":0.2522018551826477,"151":-1.1868529319763184,"152":-0.3683371841907501,"153":-0.03582754358649254,"154":-0.09305734932422638,"155":0.35979706048965454,"156":2.5447258949279785,"157":0.600042998790741,"158":-0.03911062330007553,"159":-2.164247751235962,"160":0.9079268574714661,"161":-0.620864748954773,"162":-3.03597092628479,"163":-1.2577632665634155,"164":-0.2267078459262848,"165":0.9122438430786133,"166":0.3470970094203949,"167":-1.630303144454956,"168":0.2241183966398239,"169":0.4361937940120697,"170":-0.17203527688980103,"171":1.1011956930160522,"172":-0.6684942245483398,"173":-1.6281886100769043,"174":-0.6585977077484131,"175":0.5052274465560913,"176":2.2192718982696533,"177":-1.1826878786087036,"178":0.6898592710494995,"179":-0.6993710994720459,"180":-1.4528346061706543,"181":-1.1524527072906494,"182":0.9083266854286194,"183":-0.588002622127533,"184":-2.831714153289795,"185":-2.318913698196411,"186":-0.5286012887954712,"187":-3.1947269439697266,"188":1.1530429124832153,"189":-0.4925052523612976,"190":-0.43739354610443115,"191":-2.320378541946411,"192":0.9309890270233154,"193":-2.3249635696411133,"194":-0.5431174039840698,"195":-3.16904354095459,"196":-1.7411231994628906,"197":2.2233235836029053,"198":4.240644931793213,"199":1.2703622579574585,"200":1.4007405042648315,"201":1.0073676109313965,"202":-1.9976829290390015,"203":0.8668034672737122,"204":0.8886488080024719,"205":-2.489518880844116,"206":-1.3826488256454468,"207":-0.6925144791603088,"208":2.0506820678710938,"209":0.3201192021369934,"210":-0.037789564579725266,"211":-0.46036073565483093,"212":-0.8783092498779297,"213":0.2907021641731262,"214":2.192548990249634,"215":-2.612657308578491,"216":0.1859666109085083,"217":0.0048782858066260815,"218":-0.30017611384391785,"219":-1.2600449323654175,"220":-2.4031410217285156,"221":-1.7079843282699585,"222":0.7166644334793091,"223":0.1274026483297348,"224":-0.8973936438560486,"225":-2.073974132537842,"226":-0.530343770980835,"227":-1.3535990715026855,"228":-1.0573896169662476,"229":0.8475449681282043,"230":2.4011545181274414,"231":0.0383283756673336,"232":0.6189736127853394,"233":-0.46391353011131287,"234":-0.8044173717498779,"235":1.0872408151626587,"236":-0.5941107273101807,"237":0.7950803637504578,"238":1.262741208076477,"239":-2.1306686401367188,"240":0.7881225943565369,"241":-2.2141478061676025,"242":-0.14623118937015533,"243":0.5020903944969177,"244":-0.27304548025131226,"245":-2.8006601333618164,"246":-0.6333319544792175,"247":0.510595440864563,"248":0.4488588273525238,"249":-0.4091443717479706,"250":0.3333200514316559,"251":-3.5091805458068848,"252":-0.6121935248374939,"253":0.16198612749576569,"254":-0.5333569645881653,"255":0.19761037826538086}},"outputBias":{"rows":16,"columns":1,"weights":{"0":-0.6863248348236084,"1":-0.24742865562438965,"2":0.28085997700691223,"3":-6.659993648529053,"4":-2.619904041290283,"5":0.18758752942085266,"6":-2.34966778755188,"7":-1.3385998010635376,"8":1.0256770849227905,"9":-0.005277710966765881,"10":-0.6640636324882507,"11":-0.16547347605228424,"12":-1.1374412775039673,"13":-1.7081483602523804,"14":-1.6596094369888306,"15":-1.9775023460388184}},"cellActivationMatrix":{"rows":16,"columns":8,"weights":{"0":1.8542139530181885,"1":-2.0235023498535156,"2":-0.5005295276641846,"3":-3.541501045227051,"4":1.5552871227264404,"5":-1.954313039779663,"6":-3.2485570907592773,"7":4.568663120269775,"8":0.9584392309188843,"9":0.7652141451835632,"10":2.3745999336242676,"11":0.6433129906654358,"12":-0.1388087123632431,"13":1.6907780170440674,"14":0.6867931485176086,"15":1.78529691696167,"16":2.2358996868133545,"17":-3.457986831665039,"18":-1.104001522064209,"19":0.025657841935753822,"20":2.9945859909057617,"21":-0.29499828815460205,"22":-4.032397747039795,"23":1.0380058288574219,"24":2.0391435623168945,"25":-3.7379658222198486,"26":-4.598261833190918,"27":-1.813441514968872,"28":3.1058621406555176,"29":-4.637339115142822,"30":-1.2334688901901245,"31":2.9393234252929688,"32":1.4019960165023804,"33":-1.8682801723480225,"34":-2.5660409927368164,"35":-1.420672059059143,"36":1.6344941854476929,"37":-2.8964664936065674,"38":-1.3801852464675903,"39":0.9652736783027649,"40":-0.9164779782295227,"41":1.0483088493347168,"42":1.7143843173980713,"43":0.8307698369026184,"44":-1.3738871812820435,"45":1.9626394510269165,"46":4.159873008728027,"47":-5.574077606201172,"48":-1.0084192752838135,"49":-0.33947646617889404,"50":-2.7215821743011475,"51":-1.5026062726974487,"52":0.16954800486564636,"53":-3.2993147373199463,"54":-4.366726875305176,"55":6.0590057373046875,"56":1.9388020038604736,"57":-2.8381717205047607,"58":-3.054647445678711,"59":-2.437122106552124,"60":2.906586170196533,"61":-1.4880506992340088,"62":-0.5910797715187073,"63":1.0436768531799316,"64":-3.8462231159210205,"65":2.6432278156280518,"66":1.5432028770446777,"67":1.8721365928649902,"68":-3.0114002227783203,"69":1.724950909614563,"70":7.3007636070251465,"71":-2.141115188598633,"72":-1.3086111545562744,"73":2.397629499435425,"74":2.961097478866577,"75":1.839048981666565,"76":-1.4745556116104126,"77":4.198816776275635,"78":2.4699387550354004,"79":-4.187609672546387,"80":1.1922719478607178,"81":-1.6584291458129883,"82":0.014196186326444149,"83":-2.7811269760131836,"84":2.9140148162841797,"85":-2.5539963245391846,"86":-5.3751983642578125,"87":2.9809625148773193,"88":-3.694793462753296,"89":1.603507399559021,"90":3.1606085300445557,"91":3.5650815963745117,"92":-4.703338146209717,"93":1.2039988040924072,"94":-1.6900618076324463,"95":-1.9068902730941772,"96":2.125126600265503,"97":-4.255493640899658,"98":-0.20985253155231476,"99":-2.1133642196655273,"100":2.867161512374878,"101":-0.6753026843070984,"102":-2.0997979640960693,"103":3.5441040992736816,"104":2.031399965286255,"105":-4.4250946044921875,"106":-2.402362823486328,"107":-1.4960423707962036,"108":3.066126585006714,"109":-3.076249361038208,"110":0.4985409080982208,"111":2.1750569343566895,"112":0.2652415633201599,"113":-2.2855653762817383,"114":1.8140525817871094,"115":-0.2781018614768982,"116":0.6357309222221375,"117":-0.18571439385414124,"118":-1.0699673891067505,"119":2.1906163692474365,"120":-1.4096003770828247,"121":2.428412675857544,"122":1.8078397512435913,"123":0.44680526852607727,"124":-3.194911241531372,"125":1.1050430536270142,"126":0.5894280076026917,"127":-3.351684808731079}},"cellActivationHidden":{"rows":16,"columns":16,"weights":{"0":-1.2624582052230835,"1":0.044423025101423264,"2":3.806807041168213,"3":-1.1996040344238281,"4":-2.4321398735046387,"5":0.608293354511261,"6":-0.006560835056006908,"7":0.3771297037601471,"8":-1.0500993728637695,"9":2.337824821472168,"10":-2.406660556793213,"11":-0.2907933294773102,"12":0.4238656461238861,"13":-0.9299582839012146,"14":3.3282973766326904,"15":3.2252964973449707,"16":-1.1345819234848022,"17":3.518252372741699,"18":0.34049299359321594,"19":-3.5358598232269287,"20":0.39950960874557495,"21":0.6782960295677185,"22":-0.4395100176334381,"23":1.1921961307525635,"24":-1.0240263938903809,"25":1.8590922355651855,"26":0.375847727060318,"27":-3.444272756576538,"28":-1.283387541770935,"29":-1.862826943397522,"30":-1.0353771448135376,"31":-1.2490191459655762,"32":1.2161530256271362,"33":2.157437562942505,"34":-3.2047340869903564,"35":4.284903049468994,"36":-0.9419593811035156,"37":0.5364874601364136,"38":-2.07840895652771,"39":1.056631326675415,"40":3.3619003295898438,"41":4.897736072540283,"42":-2.55719256401062,"43":0.5641696453094482,"44":1.672663688659668,"45":0.10935764759778976,"46":2.05639386177063,"47":-0.7207873463630676,"48":-1.7488056421279907,"49":0.028049644082784653,"50":-1.3260313272476196,"51":0.9149776697158813,"52":-1.0532561540603638,"53":1.2599595785140991,"54":1.9634344577789307,"55":-0.539571225643158,"56":1.4235423803329468,"57":1.2907190322875977,"58":-0.7110229134559631,"59":-0.2672019302845001,"60":-1.9850106239318848,"61":0.9076160192489624,"62":0.3132777512073517,"63":0.5397735238075256,"64":-0.6239963173866272,"65":-0.5509657859802246,"66":-0.20931632816791534,"67":0.2610437273979187,"68":-2.1183574199676514,"69":1.1892732381820679,"70":-0.5486891269683838,"71":-1.1905797719955444,"72":1.2081592082977295,"73":1.0792391300201416,"74":-4.589389801025391,"75":1.4856308698654175,"76":-3.141979217529297,"77":-0.06293923407793045,"78":-0.13983407616615295,"79":-0.5522064566612244,"80":-0.7517659068107605,"81":-1.2215650081634521,"82":-1.9533886909484863,"83":1.2511159181594849,"84":1.7971404790878296,"85":-3.561302900314331,"86":1.0274701118469238,"87":2.255096673965454,"88":-1.2179183959960938,"89":-1.9004827737808228,"90":1.522541880607605,"91":-0.07912375777959824,"92":-0.9757234454154968,"93":1.698025107383728,"94":-2.1794023513793945,"95":0.4942116439342499,"96":3.39410400390625,"97":0.6471492648124695,"98":1.7783747911453247,"99":0.9964585304260254,"100":1.5824859142303467,"101":-0.12796077132225037,"102":-1.3780804872512817,"103":-3.315810441970825,"104":-1.901532530784607,"105":-0.8851014971733093,"106":-0.09199914336204529,"107":-1.5385066270828247,"108":2.2566463947296143,"109":-0.417029470205307,"110":-0.474573016166687,"111":-0.6843904852867126,"112":-0.2371644675731659,"113":-3.1112194061279297,"114":-0.024882415309548378,"115":1.9370392560958862,"116":2.1734495162963867,"117":-4.889868259429932,"118":-1.2334651947021484,"119":-0.9586783051490784,"120":-0.21312588453292847,"121":-0.298231840133667,"122":1.6280200481414795,"123":0.37078309059143066,"124":-1.6747732162475586,"125":-0.7752747535705566,"126":-0.5528996586799622,"127":0.7774444222450256,"128":1.3214571475982666,"129":-2.0795977115631104,"130":-0.23132814466953278,"131":0.3229815661907196,"132":1.912974238395691,"133":-2.835671901702881,"134":3.101353406906128,"135":-2.0766758918762207,"136":-1.3493691682815552,"137":-1.34275221824646,"138":3.4087748527526855,"139":1.1770941019058228,"140":-1.00297212600708,"141":3.590388774871826,"142":0.7124666571617126,"143":-0.4179346561431885,"144":0.1519927680492401,"145":2.78905987739563,"146":0.6720123887062073,"147":2.2832562923431396,"148":2.961829662322998,"149":-0.9393125176429749,"150":-2.116842031478882,"151":-0.12412066012620926,"152":0.26792603731155396,"153":-0.36835193634033203,"154":1.8870368003845215,"155":1.151742696762085,"156":1.46748685836792,"157":-0.3898463249206543,"158":2.741379737854004,"159":-0.5709921717643738,"160":-0.585818350315094,"161":0.7346376180648804,"162":1.2008732557296753,"163":-1.9127135276794434,"164":-1.4853997230529785,"165":3.322390079498291,"166":1.1598711013793945,"167":-1.7739050388336182,"168":-0.9856680035591125,"169":2.429542303085327,"170":-2.4336459636688232,"171":1.5442235469818115,"172":-0.781374454498291,"173":-0.843883752822876,"174":-0.5602855682373047,"175":1.6271971464157104,"176":6.044009208679199,"177":-2.2577714920043945,"178":1.4667154550552368,"179":-1.4730011224746704,"180":-0.3000127971172333,"181":0.3337966203689575,"182":-0.12345296889543533,"183":-0.3534912168979645,"184":-3.999279499053955,"185":0.7899065017700195,"186":-2.1342642307281494,"187":-0.007176274433732033,"188":3.5168070793151855,"189":-0.7874887585639954,"190":-0.12287122011184692,"191":-2.5318105220794678,"192":-1.472394347190857,"193":2.099264621734619,"194":0.9994282126426697,"195":0.6163586378097534,"196":-1.5970039367675781,"197":0.7918157577514648,"198":-2.2486846446990967,"199":3.4712893962860107,"200":0.5796189904212952,"201":0.0484304279088974,"202":-0.5744156241416931,"203":-1.947064995765686,"204":0.2586562931537628,"205":-1.3604360818862915,"206":3.1654045581817627,"207":2.136448621749878,"208":0.9535844326019287,"209":-2.059666872024536,"210":0.6762822866439819,"211":2.4815773963928223,"212":1.1026732921600342,"213":0.3872431218624115,"214":-1.6189932823181152,"215":0.49108317494392395,"216":2.2201123237609863,"217":-1.3901631832122803,"218":-0.29266756772994995,"219":1.0813078880310059,"220":-1.4657275676727295,"221":-1.698493242263794,"222":-2.189206838607788,"223":-0.47039201855659485,"224":-1.205292820930481,"225":6.540133476257324,"226":-0.36126282811164856,"227":0.04004225134849548,"228":1.453508973121643,"229":-1.3246047496795654,"230":0.5011175870895386,"231":-1.52329683303833,"232":0.5395427346229553,"233":1.0090852975845337,"234":1.6762992143630981,"235":-3.973884105682373,"236":3.2290561199188232,"237":-0.9066475033760071,"238":-0.4917594790458679,"239":3.981637954711914,"240":1.3163549900054932,"241":1.304391622543335,"242":-0.6407145857810974,"243":-0.6263543367385864,"244":1.606483817100525,"245":-1.7783267498016357,"246":0.1893448531627655,"247":-2.3049747943878174,"248":1.4574285745620728,"249":0.06264659017324448,"250":-0.44490882754325867,"251":0.34971505403518677,"252":-1.8005095720291138,"253":-0.33190053701400757,"254":-1.9548463821411133,"255":-0.876295268535614}},"cellActivationBias":{"rows":16,"columns":1,"weights":{"0":1.8074785470962524,"1":-0.7471529245376587,"2":0.39265188574790955,"3":0.9055148959159851,"4":1.3230160474777222,"5":-4.105623722076416,"6":-0.23804518580436707,"7":-0.9238232374191284,"8":-2.3685085773468018,"9":-2.370396137237549,"10":3.1609537601470947,"11":2.5641591548919678,"12":-0.22087062895298004,"13":-0.22906312346458435,"14":0.2562021017074585,"15":-0.40349674224853516}}},{"inputMatrix":{"rows":12,"columns":16,"weights":{"0":3.6073403358459473,"1":-0.27874755859375,"2":3.475550413131714,"3":-2.6059436798095703,"4":0.4947417974472046,"5":2.5957415103912354,"6":-0.015873100608587265,"7":-4.363013744354248,"8":-1.835448145866394,"9":-0.13133504986763,"10":1.3138408660888672,"11":-1.765142560005188,"12":-1.3786700963974,"13":-1.0651205778121948,"14":-1.8214828968048096,"15":0.6076358556747437,"16":-1.6030157804489136,"17":1.2871452569961548,"18":0.34043073654174805,"19":5.54201602935791,"20":1.1766328811645508,"21":1.2571412324905396,"22":0.6878736019134521,"23":-0.7519224882125854,"24":3.38053560256958,"25":-3.7272138595581055,"26":1.0328723192214966,"27":-0.7541411519050598,"28":1.9285567998886108,"29":1.9633705615997314,"30":1.953336238861084,"31":-0.4808741509914398,"32":4.874876499176025,"33":1.378694772720337,"34":1.3604398965835571,"35":-0.156033456325531,"36":1.2667824029922485,"37":-3.084444046020508,"38":-1.1047734022140503,"39":-0.8237912654876709,"40":-3.384476661682129,"41":0.33900219202041626,"42":0.8874317407608032,"43":0.40064266324043274,"44":1.9303134679794312,"45":-0.9998170733451843,"46":-1.7911046743392944,"47":0.29127681255340576,"48":-0.9185504913330078,"49":-1.93936288356781,"50":0.08589622378349304,"51":0.05914732813835144,"52":-1.8137147426605225,"53":3.6340222358703613,"54":0.019962094724178314,"55":0.3829449415206909,"56":0.1038719043135643,"57":-1.3979010581970215,"58":1.8710416555404663,"59":0.157566636800766,"60":1.1059809923171997,"61":0.3720873296260834,"62":0.4283139705657959,"63":0.14301522076129913,"64":3.9857022762298584,"65":1.805531620979309,"66":1.6328492164611816,"67":-2.993757963180542,"68":-0.3878385126590729,"69":0.5328930616378784,"70":0.9785852432250977,"71":-0.08142776042222977,"72":-3.8337182998657227,"73":-0.4708842933177948,"74":1.9210765361785889,"75":0.1157904714345932,"76":1.7916929721832275,"77":0.7596699595451355,"78":0.7800917029380798,"79":-0.47649067640304565,"80":-1.0124945640563965,"81":0.277624249458313,"82":3.694241523742676,"83":-3.1797659397125244,"84":-2.5888173580169678,"85":0.4961685836315155,"86":-0.4806187152862549,"87":-3.82529878616333,"88":0.46330147981643677,"89":2.9930832386016846,"90":-0.2543480396270752,"91":0.18178273737430573,"92":1.8055599927902222,"93":1.26015043258667,"94":2.4437952041625977,"95":-0.14395223557949066,"96":-1.9141024351119995,"97":2.539510726928711,"98":-0.4973708987236023,"99":0.5897132158279419,"100":2.7160208225250244,"101":-1.427088737487793,"102":1.0763626098632812,"103":-0.20782771706581116,"104":1.2594473361968994,"105":-2.6195130348205566,"106":2.048482894897461,"107":0.042795006185770035,"108":2.6285369396209717,"109":0.47006362676620483,"110":0.8090497851371765,"111":-1.5702009201049805,"112":0.015616771765053272,"113":-0.4044521749019623,"114":0.41786301136016846,"115":0.736671507358551,"116":-1.6608970165252686,"117":-1.428498387336731,"118":-0.49250921607017517,"119":-3.593324661254883,"120":1.410757064819336,"121":0.4446801245212555,"122":-2.6342720985412598,"123":-0.4099541902542114,"124":-2.3724727630615234,"125":0.2830285131931305,"126":-1.1814213991165161,"127":0.4126240313053131,"128":-0.5412634611129761,"129":-2.597187042236328,"130":-0.47149452567100525,"131":-1.0146138668060303,"132":-2.8910305500030518,"133":2.5440433025360107,"134":-2.149096965789795,"135":-3.319877862930298,"136":0.6621419191360474,"137":-0.313003808259964,"138":-1.2642885446548462,"139":0.6327998042106628,"140":1.7090058326721191,"141":-0.8897728323936462,"142":0.8780950903892517,"143":-0.7353151440620422,"144":-0.5265858769416809,"145":0.7978490591049194,"146":3.3900232315063477,"147":-0.7258313298225403,"148":-1.827868938446045,"149":2.042004346847534,"150":1.3398839235305786,"151":0.4482855796813965,"152":-0.9685921669006348,"153":0.8178744316101074,"154":-0.03187334164977074,"155":0.1748199760913849,"156":-1.2786306142807007,"157":3.0857694149017334,"158":1.6155757904052734,"159":-0.4375467300415039,"160":-1.3848785161972046,"161":-0.47449326515197754,"162":-0.6587186455726624,"163":-1.604649305343628,"164":-4.369046688079834,"165":5.972710132598877,"166":-1.9311116933822632,"167":-2.8766849040985107,"168":2.911271572113037,"169":0.46895554661750793,"170":-1.5610768795013428,"171":0.32916903495788574,"172":1.8252149820327759,"173":0.2697353661060333,"174":2.4573729038238525,"175":-1.1068629026412964,"176":-0.805244505405426,"177":-1.577588438987732,"178":0.6156284213066101,"179":-1.2681589126586914,"180":-2.0884103775024414,"181":-1.082461953163147,"182":-2.916630506515503,"183":-1.0211827754974365,"184":0.3018760681152344,"185":2.6834263801574707,"186":-2.218700885772705,"187":1.2386401891708374,"188":-2.730172634124756,"189":-0.6130741834640503,"190":-4.1832146644592285,"191":0.8285441994667053}},"inputHidden":{"rows":12,"columns":12,"weights":{"0":0.6236011981964111,"1":-1.1045873165130615,"2":0.8725333213806152,"3":-1.0712989568710327,"4":-0.9404511451721191,"5":2.4298763275146484,"6":-1.3671983480453491,"7":1.9619208574295044,"8":0.3843447268009186,"9":-0.4017220437526703,"10":-1.7441022396087646,"11":-2.302257776260376,"12":0.23312143981456757,"13":-1.2565319538116455,"14":1.2510544061660767,"15":-0.38152503967285156,"16":-3.0004706382751465,"17":-2.936797857284546,"18":1.0602574348449707,"19":-3.252796173095703,"20":0.5441445112228394,"21":1.7084983587265015,"22":-0.9837358593940735,"23":0.802300214767456,"24":-0.5768712162971497,"25":1.709838628768921,"26":0.4664158821105957,"27":-0.6674837470054626,"28":2.8602120876312256,"29":0.7080570459365845,"30":0.5197008848190308,"31":-0.4292028844356537,"32":-1.0180017948150635,"33":-0.10769961774349213,"34":-0.8711596727371216,"35":1.9493602514266968,"36":0.49340319633483887,"37":-0.7482555508613586,"38":-2.0444929599761963,"39":0.9729576706886292,"40":1.3240407705307007,"41":-2.3230676651000977,"42":-1.8606083393096924,"43":-1.6146553754806519,"44":-1.0150799751281738,"45":0.31075599789619446,"46":-1.1065914630889893,"47":-0.7244223952293396,"48":1.6298285722732544,"49":3.033803939819336,"50":-0.10139103978872299,"51":0.04238436371088028,"52":1.9862284660339355,"53":-0.5241808295249939,"54":0.3959294259548187,"55":3.1259608268737793,"56":-0.6289966106414795,"57":-0.8069607615470886,"58":0.40356090664863586,"59":-5.514279842376709,"60":2.6538643836975098,"61":1.2139410972595215,"62":-0.5752851366996765,"63":-1.6555060148239136,"64":-0.5817302465438843,"65":-3.842352867126465,"66":-1.445581078529358,"67":1.308240532875061,"68":4.297038555145264,"69":0.7959033250808716,"70":0.6563624143600464,"71":-3.006326913833618,"72":0.5561202168464661,"73":1.2986146211624146,"74":0.4714563190937042,"75":0.257965087890625,"76":-3.0462963581085205,"77":-3.7822799682617188,"78":4.464945316314697,"79":1.177560806274414,"80":-0.32807329297065735,"81":0.5770840644836426,"82":-1.0445117950439453,"83":-2.4723708629608154,"84":0.3972350060939789,"85":0.2838786840438843,"86":-0.07282111048698425,"87":-0.41169384121894836,"88":-1.0566529035568237,"89":1.748383641242981,"90":-0.3100578486919403,"91":-2.389829158782959,"92":0.7654315233230591,"93":0.02008219063282013,"94":0.7737496495246887,"95":-1.5266201496124268,"96":0.7643831968307495,"97":2.2055535316467285,"98":0.8988432884216309,"99":0.19718436896800995,"100":-0.6140392422676086,"101":2.005596399307251,"102":-3.096668004989624,"103":-1.907409429550171,"104":-1.9030168056488037,"105":0.7998311519622803,"106":-0.542092502117157,"107":-0.6907905340194702,"108":-0.7370274066925049,"109":-0.5622228980064392,"110":1.3245831727981567,"111":-0.9083479046821594,"112":0.4360664188861847,"113":-1.0232669115066528,"114":0.2975841760635376,"115":-0.36019253730773926,"116":1.234684705734253,"117":2.5568535327911377,"118":-1.2210108041763306,"119":1.496208667755127,"120":1.7828187942504883,"121":-0.23975127935409546,"122":-1.518283724784851,"123":0.3207785487174988,"124":2.0146539211273193,"125":0.151454359292984,"126":-5.20337438583374,"127":-0.8961763381958008,"128":0.7133828401565552,"129":-0.01530591119080782,"130":-1.3531925678253174,"131":-4.228043556213379,"132":1.0490996837615967,"133":-2.0776360034942627,"134":0.15164057910442352,"135":1.3990161418914795,"136":-0.8083913326263428,"137":2.7080695629119873,"138":-4.097469806671143,"139":-0.3618970513343811,"140":-2.0389442443847656,"141":1.8007521629333496,"142":-0.20264416933059692,"143":2.1417038440704346}},"inputBias":{"rows":12,"columns":1,"weights":{"0":1.8550546169281006,"1":-2.7912440299987793,"2":-1.1141517162322998,"3":-2.623594284057617,"4":1.6899220943450928,"5":1.205176830291748,"6":-2.0529544353485107,"7":8.844620704650879,"8":-2.4342761039733887,"9":-2.8435022830963135,"10":-1.402988314628601,"11":1.6450998783111572}},"forgetMatrix":{"rows":12,"columns":16,"weights":{"0":0.5162345170974731,"1":-0.4566906690597534,"2":-0.7417267560958862,"3":-0.7219423651695251,"4":1.0272730588912964,"5":-0.5398128032684326,"6":0.20706912875175476,"7":-0.39422154426574707,"8":-0.06313329190015793,"9":-1.1794131994247437,"10":1.78765070438385,"11":1.1489194631576538,"12":0.017789222300052643,"13":-0.18695388734340668,"14":-1.8469969034194946,"15":-0.46456918120384216,"16":-0.4202895164489746,"17":-0.7377668619155884,"18":-0.15263335406780243,"19":0.5383561253547668,"20":0.028177499771118164,"21":0.18706843256950378,"22":0.580584704875946,"23":-0.1407850682735443,"24":0.006246509496122599,"25":-0.7153886556625366,"26":0.13212329149246216,"27":0.4682510495185852,"28":0.4946478307247162,"29":0.8640419840812683,"30":0.13618849217891693,"31":-0.26624923944473267,"32":1.0363245010375977,"33":-0.5532867312431335,"34":1.6655571460723877,"35":-0.28219473361968994,"36":0.09073441475629807,"37":0.09337636083364487,"38":0.29995468258857727,"39":-0.04323457553982735,"40":0.9881198406219482,"41":0.6531201601028442,"42":0.2856164574623108,"43":0.3149191439151764,"44":0.1250743716955185,"45":1.1330366134643555,"46":-0.49308842420578003,"47":0.25963708758354187,"48":0.9022801518440247,"49":0.5199284553527832,"50":-0.4177503287792206,"51":-0.4086429178714752,"52":-0.24628999829292297,"53":-0.36248451471328735,"54":0.3222314119338989,"55":-0.2515418231487274,"56":-0.9393242001533508,"57":-0.025067061185836792,"58":0.021205833181738853,"59":0.03786298632621765,"60":0.30080291628837585,"61":0.023601580411195755,"62":-0.016526784747838974,"63":-0.2069115936756134,"64":1.7204328775405884,"65":-0.7353122234344482,"66":1.0396655797958374,"67":0.6290180087089539,"68":1.0362474918365479,"69":-2.0920827388763428,"70":-0.34614989161491394,"71":0.3670280873775482,"72":0.2570877969264984,"73":-0.5428626537322998,"74":0.13829287886619568,"75":0.9162091612815857,"76":-0.3493553400039673,"77":0.2529098093509674,"78":-1.4586710929870605,"79":-0.14231181144714355,"80":5.734103202819824,"81":-0.3280610144138336,"82":0.31793302297592163,"83":1.8270705938339233,"84":2.951418399810791,"85":-3.996485948562622,"86":0.6799038648605347,"87":-1.898099660873413,"88":-2.222149610519409,"89":-4.522075653076172,"90":1.6918267011642456,"91":2.576883554458618,"92":-0.11749237030744553,"93":0.49188822507858276,"94":-2.6938395500183105,"95":0.7049963474273682,"96":0.0024974094703793526,"97":-0.281308650970459,"98":-0.08680567145347595,"99":1.4454785585403442,"100":0.7304624915122986,"101":-1.473380446434021,"102":0.45412346720695496,"103":0.14814472198486328,"104":-0.06667333841323853,"105":-1.806071162223816,"106":0.23920436203479767,"107":-0.3059210777282715,"108":0.5027199983596802,"109":0.5375573635101318,"110":-0.5699260830879211,"111":-0.7691081166267395,"112":0.14368444681167603,"113":-0.9415964484214783,"114":1.000525712966919,"115":0.6246631741523743,"116":1.7774066925048828,"117":-0.11021530628204346,"118":1.0756282806396484,"119":0.7897646427154541,"120":0.05673130229115486,"121":-1.3262730836868286,"122":-1.3745266199111938,"123":-0.22304965555667877,"124":3.059260606765747,"125":-1.0917561054229736,"126":0.15178318321704865,"127":-1.8260153532028198,"128":1.448341965675354,"129":-2.41550612449646,"130":-1.0410702228546143,"131":0.202006995677948,"132":0.1299297958612442,"133":0.49894237518310547,"134":-0.5200116634368896,"135":-2.3211112022399902,"136":-0.3746456205844879,"137":-0.9528643488883972,"138":1.4351556301116943,"139":1.9186227321624756,"140":-0.6849631667137146,"141":-1.3480350971221924,"142":-0.9003654718399048,"143":0.6562395691871643,"144":2.5346038341522217,"145":0.17943182587623596,"146":-0.2705334722995758,"147":-0.6750414371490479,"148":-0.18315359950065613,"149":-0.02934911474585533,"150":-0.14573675394058228,"151":-0.17868934571743011,"152":-0.9557262063026428,"153":-0.044917624443769455,"154":0.07584640383720398,"155":-0.2473636418581009,"156":0.5650607943534851,"157":-0.20214910805225372,"158":0.33428245782852173,"159":-0.2749713361263275,"160":1.005773901939392,"161":-0.0037949206307530403,"162":-0.5394413471221924,"163":-0.9162135720252991,"164":0.08079516142606735,"165":0.6141754388809204,"166":-0.002020803513005376,"167":-0.9260703325271606,"168":-1.2436299324035645,"169":0.9970482587814331,"170":0.13508586585521698,"171":0.5347828269004822,"172":0.2012498676776886,"173":0.020360158756375313,"174":0.452291876077652,"175":-0.13309109210968018,"176":1.3136096000671387,"177":0.8743093609809875,"178":0.5388597846031189,"179":-0.1802082359790802,"180":-1.3608016967773438,"181":2.239912748336792,"182":-0.8786023855209351,"183":-0.15545058250427246,"184":-0.09526360780000687,"185":0.48842042684555054,"186":1.6126662492752075,"187":-0.23726055026054382,"188":1.3623950481414795,"189":-0.43252915143966675,"190":2.0069665908813477,"191":-0.7148768305778503}},"forgetHidden":{"rows":12,"columns":12,"weights":{"0":0.1296939104795456,"1":0.16424500942230225,"2":0.49114978313446045,"3":0.0739654004573822,"4":-0.2836821973323822,"5":0.9709691405296326,"6":-1.9860731363296509,"7":-0.3672197163105011,"8":-0.8496451377868652,"9":-0.0785720944404602,"10":-0.7818647027015686,"11":0.5811771750450134,"12":0.019037235528230667,"13":-0.9152603149414062,"14":0.4069656729698181,"15":0.062036819756031036,"16":0.06049126014113426,"17":-0.38019514083862305,"18":-0.20924805104732513,"19":-0.7028917670249939,"20":-0.19384658336639404,"21":-0.050919752568006516,"22":-0.14856497943401337,"23":0.5059642195701599,"24":0.05622527375817299,"25":-0.3781011998653412,"26":0.9497862458229065,"27":-0.20521467924118042,"28":1.2185401916503906,"29":-0.7252779603004456,"30":-0.9403603672981262,"31":-1.3522342443466187,"32":-0.34233975410461426,"33":-0.057617075741291046,"34":-0.15780816972255707,"35":0.3055412173271179,"36":-0.03797752037644386,"37":-0.11442656069993973,"38":-0.014820942655205727,"39":0.2009374499320984,"40":-0.0916936993598938,"41":-0.20347829163074493,"42":0.03683673217892647,"43":0.054373759776353836,"44":-0.10367000102996826,"45":-0.0658961683511734,"46":0.31149500608444214,"47":-0.15450358390808105,"48":-0.5195508599281311,"49":-0.7478739619255066,"50":0.19272112846374512,"51":0.21403497457504272,"52":-1.0982701778411865,"53":0.35525619983673096,"54":0.09807579964399338,"55":-2.431466817855835,"56":-0.6032153964042664,"57":-0.16873396933078766,"58":0.6608783006668091,"59":2.8323628902435303,"60":-0.6336620450019836,"61":-0.5100550651550293,"62":-0.30741551518440247,"63":-1.0361213684082031,"64":1.328137993812561,"65":4.6451520919799805,"66":2.274808406829834,"67":0.2024962157011032,"68":-0.13698001205921173,"69":-1.3146804571151733,"70":0.1442100703716278,"71":4.198855400085449,"72":-0.7538367509841919,"73":-0.14747416973114014,"74":-0.07955159991979599,"75":-0.0003208319831173867,"76":0.1262689232826233,"77":0.010578886605799198,"78":0.5177327990531921,"79":-1.2477422952651978,"80":-0.2214803695678711,"81":-0.2678084969520569,"82":-0.2557411193847656,"83":0.217583566904068,"84":2.759671449661255,"85":1.2865017652511597,"86":1.0859017372131348,"87":-2.2907907962799072,"88":-1.972066879272461,"89":-1.9379949569702148,"90":1.3998627662658691,"91":1.7318999767303467,"92":-0.08420135825872421,"93":-1.395278811454773,"94":-1.3324581384658813,"95":-1.4940804243087769,"96":-0.10800768435001373,"97":0.5635976195335388,"98":0.6692371964454651,"99":0.09723030775785446,"100":0.4768190383911133,"101":1.7699956893920898,"102":-1.4756226539611816,"103":0.4428068697452545,"104":0.4377811551094055,"105":0.021531423553824425,"106":0.1068275198340416,"107":0.19038960337638855,"108":0.007388285361230373,"109":0.4517650604248047,"110":-0.1321084201335907,"111":-0.055350691080093384,"112":0.015167087316513062,"113":1.1314404010772705,"114":0.0051677352748811245,"115":2.203115224838257,"116":-0.11208298057317734,"117":-1.9542235136032104,"118":-0.0677478015422821,"119":-0.1088990792632103,"120":0.3096666932106018,"121":0.18734684586524963,"122":-0.05081876367330551,"123":-0.12959426641464233,"124":-0.4240635335445404,"125":0.09112099558115005,"126":-0.29264357686042786,"127":3.4799387454986572,"128":0.12505532801151276,"129":-0.06875762343406677,"130":0.8038908243179321,"131":-0.43653419613838196,"132":0.1219286397099495,"133":-1.0239083766937256,"134":-0.5144072771072388,"135":0.36081600189208984,"136":-1.9040931463241577,"137":-0.1611768752336502,"138":0.26520267128944397,"139":0.9224600195884705,"140":-0.8136805295944214,"141":0.3354162275791168,"142":-1.5953508615493774,"143":-0.7464244365692139}},"forgetBias":{"rows":12,"columns":1,"weights":{"0":0,"1":0,"2":0,"3":0,"4":0,"5":0,"6":0,"7":0,"8":0,"9":0,"10":0,"11":0}},"outputMatrix":{"rows":12,"columns":16,"weights":{"0":0.9080442786216736,"1":-1.3342691659927368,"2":5.409613609313965,"3":-0.3869466185569763,"4":0.24240541458129883,"5":1.8976764678955078,"6":1.653117060661316,"7":-1.395762324333191,"8":-1.3912140130996704,"9":-1.3670995235443115,"10":2.214108943939209,"11":-1.5826791524887085,"12":-0.46487942337989807,"13":-0.7840220332145691,"14":-1.5650495290756226,"15":-0.820979118347168,"16":1.4678106307983398,"17":-0.12931065261363983,"18":1.486108422279358,"19":-1.8797398805618286,"20":-3.9856209754943848,"21":7.713110446929932,"22":0.6453580856323242,"23":-0.4023512601852417,"24":2.3571598529815674,"25":-0.8111247420310974,"26":-1.2281349897384644,"27":1.1967744827270508,"28":1.114551067352295,"29":4.012244701385498,"30":1.5559089183807373,"31":0.6433563232421875,"32":3.6086926460266113,"33":1.429512619972229,"34":2.2213454246520996,"35":-0.3748437166213989,"36":0.04221406579017639,"37":-0.5660011768341064,"38":0.6788488030433655,"39":0.9234476089477539,"40":-1.9911105632781982,"41":0.9823916554450989,"42":0.9606344699859619,"43":1.1957517862319946,"44":2.6007192134857178,"45":0.12803314626216888,"46":-2.431598663330078,"47":-0.5199378728866577,"48":-0.7329793572425842,"49":-0.5036798715591431,"50":0.516597330570221,"51":0.16814225912094116,"52":-1.9448190927505493,"53":4.37477970123291,"54":1.1283336877822876,"55":0.9587875008583069,"56":0.3062577545642853,"57":-0.6925879716873169,"58":0.09273244440555573,"59":-0.6438749432563782,"60":1.3672131299972534,"61":0.10362508147954941,"62":2.415454864501953,"63":0.7385136485099792,"64":1.1200358867645264,"65":1.0438300371170044,"66":1.622937560081482,"67":-2.948465585708618,"68":0.17740526795387268,"69":0.04742242768406868,"70":-1.0009335279464722,"71":-1.6637173891067505,"72":0.1422819346189499,"73":2.3791918754577637,"74":-0.2932683527469635,"75":0.8498290777206421,"76":-1.8254601955413818,"77":-1.3531060218811035,"78":-2.123840570449829,"79":0.08685435354709625,"80":1.8915207386016846,"81":-2.2940378189086914,"82":2.4770689010620117,"83":4.680599212646484,"84":1.8907134532928467,"85":-3.0064332485198975,"86":1.5988024473190308,"87":0.566929042339325,"88":-0.07675853371620178,"89":-2.883587598800659,"90":-0.34312471747398376,"91":1.8644893169403076,"92":0.8400628566741943,"93":2.71293568611145,"94":-0.4371437132358551,"95":-0.42754819989204407,"96":0.27344685792922974,"97":0.2342943549156189,"98":-0.4507956802845001,"99":1.7944046258926392,"100":2.1846959590911865,"101":-1.4534450769424438,"102":0.7319334745407104,"103":-0.9901636242866516,"104":-0.47894352674484253,"105":-1.868720531463623,"106":2.341946840286255,"107":0.5580023527145386,"108":0.5447461009025574,"109":-1.0278093814849854,"110":0.5479300022125244,"111":-0.7775546312332153,"112":0.3539640009403229,"113":0.08160070329904556,"114":-0.0064328634180128574,"115":4.251596450805664,"116":3.0523171424865723,"117":-0.11678984761238098,"118":1.526307225227356,"119":0.1628417819738388,"120":0.2745243310928345,"121":-4.071865558624268,"122":0.7140066623687744,"123":-0.3092750012874603,"124":2.1358144283294678,"125":1.8395583629608154,"126":-2.975163221359253,"127":-0.6335270404815674,"128":0.6969506740570068,"129":-2.0763165950775146,"130":1.055976390838623,"131":2.981781244277954,"132":0.794465184211731,"133":2.3196303844451904,"134":-1.5446754693984985,"135":-2.0915186405181885,"136":-3.3168020248413086,"137":-2.3511033058166504,"138":-0.22367212176322937,"139":-0.751813530921936,"140":1.7124605178833008,"141":-0.2762027382850647,"142":0.28728726506233215,"143":-0.14563186466693878,"144":-0.7505794763565063,"145":0.20784880220890045,"146":3.756896734237671,"147":-1.1594393253326416,"148":-2.6344573497772217,"149":2.6386616230010986,"150":2.4011054039001465,"151":0.40522995591163635,"152":-0.5134973526000977,"153":1.2765579223632812,"154":-0.4454406201839447,"155":0.8090859055519104,"156":-2.0444483757019043,"157":2.658193826675415,"158":1.5780950784683228,"159":-0.6018401980400085,"160":-1.6812597513198853,"161":-0.11793665587902069,"162":-0.9011090993881226,"163":-1.4840675592422485,"164":-3.7952394485473633,"165":5.987203598022461,"166":-2.241126537322998,"167":-3.2215371131896973,"168":2.759965658187866,"169":0.08431724458932877,"170":-1.4001766443252563,"171":-0.17931556701660156,"172":2.0346479415893555,"173":0.49557507038116455,"174":2.381601095199585,"175":-1.3016477823257446,"176":0.23937073349952698,"177":-1.1516824960708618,"178":-0.02586185932159424,"179":-0.5781980752944946,"180":-1.21815824508667,"181":0.9876846671104431,"182":-2.0214314460754395,"183":-0.6798120141029358,"184":-0.3532443344593048,"185":2.4132437705993652,"186":1.199032187461853,"187":0.18576830625534058,"188":-0.6548604369163513,"189":-2.4374985694885254,"190":0.7876046299934387,"191":0.6515477895736694}},"outputHidden":{"rows":12,"columns":12,"weights":{"0":-1.1197787523269653,"1":-1.3086649179458618,"2":0.9692556858062744,"3":-2.0367114543914795,"4":0.6599640846252441,"5":4.275055408477783,"6":-0.9566014409065247,"7":0.24874143302440643,"8":-0.4393940567970276,"9":-0.1363922655582428,"10":-2.547332286834717,"11":-2.3173668384552,"12":-5.013688087463379,"13":-0.6165937781333923,"14":1.063875675201416,"15":-2.3167123794555664,"16":-0.6110833883285522,"17":2.350935697555542,"18":-1.3719562292099,"19":-0.8117642402648926,"20":0.27147483825683594,"21":0.866600751876831,"22":0.14026397466659546,"23":1.6886450052261353,"24":-1.1277358531951904,"25":1.3633272647857666,"26":1.0708383321762085,"27":-1.7807981967926025,"28":3.1150095462799072,"29":0.8570609092712402,"30":-1.309913992881775,"31":-1.3438353538513184,"32":-2.079650402069092,"33":1.3233518600463867,"34":-1.0788737535476685,"35":1.8925305604934692,"36":-1.14800226688385,"37":-0.9126251339912415,"38":-1.9217720031738281,"39":0.35789793729782104,"40":1.3115378618240356,"41":-1.3723658323287964,"42":-1.4151644706726074,"43":-1.060333013534546,"44":0.026578886434435844,"45":0.17469047009944916,"46":-0.5332453846931458,"47":-1.2508525848388672,"48":-2.764113664627075,"49":0.11077363789081573,"50":0.14774207770824432,"51":0.403876394033432,"52":0.19291239976882935,"53":0.9691709876060486,"54":-0.40668395161628723,"55":1.9715760946273804,"56":-0.5371620655059814,"57":-0.7361063957214355,"58":1.5937501192092896,"59":-0.4259507656097412,"60":0.43271133303642273,"61":0.5072059631347656,"62":2.878265857696533,"63":0.6681362986564636,"64":1.064149260520935,"65":-1.9835892915725708,"66":0.5984320044517517,"67":-4.033841133117676,"68":-1.1388400793075562,"69":-0.3095799684524536,"70":-0.7740432024002075,"71":-0.22568906843662262,"72":-1.2036339044570923,"73":-0.8502767086029053,"74":-0.3339313864707947,"75":0.2434745728969574,"76":0.9632819890975952,"77":1.190956473350525,"78":-0.9001142382621765,"79":0.6712808012962341,"80":0.5671574473381042,"81":-0.27484628558158875,"82":-1.0289716720581055,"83":-2.7439489364624023,"84":0.7254780530929565,"85":3.993746519088745,"86":3.7918238639831543,"87":-0.5837953090667725,"88":0.651776909828186,"89":0.7855290174484253,"90":-0.02490793913602829,"91":-0.7815431952476501,"92":2.1249265670776367,"93":3.3210580348968506,"94":1.3025257587432861,"95":-0.8417529463768005,"96":-0.6136040091514587,"97":1.525146722793579,"98":1.5888512134552002,"99":1.1610687971115112,"100":1.067836880683899,"101":-1.873650074005127,"102":0.40723752975463867,"103":-1.7795562744140625,"104":-1.3170523643493652,"105":0.3811655044555664,"106":-0.31364887952804565,"107":-1.1196187734603882,"108":-0.795708954334259,"109":-0.40906310081481934,"110":1.623599886894226,"111":-1.1190656423568726,"112":0.7565731406211853,"113":-0.6240003108978271,"114":-0.5327550172805786,"115":-0.018645599484443665,"116":1.3668166399002075,"117":1.9385976791381836,"118":-1.567901849746704,"119":1.4711703062057495,"120":2.0222485065460205,"121":-0.5510879755020142,"122":-1.8602654933929443,"123":0.3614589273929596,"124":1.2058944702148438,"125":0.3742004334926605,"126":-4.508754253387451,"127":-1.033760666847229,"128":0.7933569550514221,"129":-0.1726306974887848,"130":-1.7754713296890259,"131":-3.8149735927581787,"132":-0.5173957347869873,"133":-2.7642345428466797,"134":-0.1282602846622467,"135":1.5915045738220215,"136":-0.4856729805469513,"137":1.826271414756775,"138":-4.02423620223999,"139":0.8601335883140564,"140":-1.7412214279174805,"141":1.2794740200042725,"142":-2.0768890380859375,"143":0.4543890058994293}},"outputBias":{"rows":12,"columns":1,"weights":{"0":-1.6011862754821777,"1":-2.435565233230591,"2":-3.826594829559326,"3":-2.7238657474517822,"4":0.3684294819831848,"5":0.4444049596786499,"6":-5.475117206573486,"7":1.156522512435913,"8":-0.9283242225646973,"9":-2.926330089569092,"10":-1.4040935039520264,"11":1.9100254774093628}},"cellActivationMatrix":{"rows":12,"columns":16,"weights":{"0":2.1577792167663574,"1":2.3421802520751953,"2":-0.4959149658679962,"3":-2.095896005630493,"4":1.0116533041000366,"5":0.45210057497024536,"6":0.10696408152580261,"7":4.022090435028076,"8":-2.7580747604370117,"9":-0.9623857736587524,"10":3.084296464920044,"11":-1.6483887434005737,"12":-1.0861132144927979,"13":-1.5357531309127808,"14":2.370901346206665,"15":-2.5656352043151855,"16":-2.5587716102600098,"17":1.9329203367233276,"18":-1.485005497932434,"19":1.4494829177856445,"20":-1.841026782989502,"21":2.527745246887207,"22":0.8623040318489075,"23":1.9313985109329224,"24":-3.2970809936523438,"25":-3.3515782356262207,"26":-1.016077995300293,"27":1.5750452280044556,"28":1.719494342803955,"29":0.3444564938545227,"30":0.6887261867523193,"31":-0.007504906039685011,"32":2.4325191974639893,"33":3.258976697921753,"34":-1.1682530641555786,"35":2.8865137100219727,"36":2.174867630004883,"37":-0.8662786483764648,"38":0.261406809091568,"39":1.5619492530822754,"40":0.6169772148132324,"41":-1.2418084144592285,"42":1.2693572044372559,"43":-0.07304766774177551,"44":0.2566329538822174,"45":2.4014077186584473,"46":-2.4845948219299316,"47":-1.0740708112716675,"48":1.0408036708831787,"49":-0.5177671313285828,"50":1.0152894258499146,"51":2.2842440605163574,"52":4.74066162109375,"53":-5.310875415802002,"54":-0.4384634494781494,"55":0.09651590138673782,"56":-1.41683828830719,"57":-0.7749999761581421,"58":0.5430338382720947,"59":-1.5204273462295532,"60":0.15248723328113556,"61":0.6051977276802063,"62":-4.037510395050049,"63":-0.1601143181324005,"64":0.25227102637290955,"65":1.4806468486785889,"66":0.7845754027366638,"67":0.01205514743924141,"68":0.2657356560230255,"69":1.330908179283142,"70":-0.0950632095336914,"71":1.1278871297836304,"72":3.0706703662872314,"73":1.148084282875061,"74":-2.6741220951080322,"75":-0.5657716989517212,"76":0.0070589384995400906,"77":-0.33133023977279663,"78":-0.32997140288352966,"79":1.610611081123352,"80":-2.8918118476867676,"81":-0.5017109513282776,"82":1.2832319736480713,"83":-6.313251972198486,"84":-5.080935955047607,"85":3.096957206726074,"86":1.5074793100357056,"87":1.0319732427597046,"88":-0.6609575152397156,"89":3.648391008377075,"90":-0.8408742547035217,"91":-0.6296878457069397,"92":0.9106531143188477,"93":0.640015184879303,"94":2.7800426483154297,"95":-0.4823067784309387,"96":-0.35991427302360535,"97":-0.2209661304950714,"98":1.0095466375350952,"99":-0.6575462222099304,"100":-1.5112758874893188,"101":-2.062422275543213,"102":0.4546455144882202,"103":-4.060435771942139,"104":0.46537062525749207,"105":-0.7387573719024658,"106":-2.9433484077453613,"107":-2.201662302017212,"108":-3.2890799045562744,"109":0.7865630388259888,"110":-1.1867345571517944,"111":-0.11863551288843155,"112":3.523207187652588,"113":1.3785003423690796,"114":-0.6300438642501831,"115":-4.292281150817871,"116":-3.376452922821045,"117":6.113193511962891,"118":-2.39410400390625,"119":-0.9507976174354553,"120":-1.8376350402832031,"121":3.327817440032959,"122":-1.8494908809661865,"123":-0.26044225692749023,"124":1.051753282546997,"125":-1.8709770441055298,"126":4.185811519622803,"127":0.22436590492725372,"128":-0.19939768314361572,"129":1.2253693342208862,"130":0.20120903849601746,"131":1.6015863418579102,"132":1.090444564819336,"133":3.2430849075317383,"134":-1.3218485116958618,"135":-1.7766059637069702,"136":-0.7859110832214355,"137":0.49814608693122864,"138":0.18448445200920105,"139":0.5044251084327698,"140":1.6083143949508667,"141":-0.59125155210495,"142":0.4662468135356903,"143":0.07646568864583969,"144":1.1260396242141724,"145":-1.10246741771698,"146":-1.0342042446136475,"147":3.3211116790771484,"148":2.4064762592315674,"149":-6.234482765197754,"150":-0.3640068769454956,"151":-2.6470634937286377,"152":7.327629089355469,"153":-1.509337306022644,"154":-0.2317434549331665,"155":0.7041286826133728,"156":-0.4512893855571747,"157":2.230001449584961,"158":-3.1354458332061768,"159":1.6551916599273682,"160":-2.820671558380127,"161":1.4113819599151611,"162":0.9733551740646362,"163":-3.0846903324127197,"164":-1.3561652898788452,"165":3.6164181232452393,"166":1.3810611963272095,"167":0.000020108924218220636,"168":3.937797784805298,"169":3.9326391220092773,"170":-1.0222653150558472,"171":-0.1769651472568512,"172":-0.2146293818950653,"173":0.30690476298332214,"174":2.458127021789551,"175":2.539071798324585,"176":-1.0259188413619995,"177":-0.5478725433349609,"178":-0.5817070007324219,"179":0.30595049262046814,"180":1.0190438032150269,"181":-0.21850815415382385,"182":0.10488894581794739,"183":1.3890461921691895,"184":1.5351372957229614,"185":0.6462039947509766,"186":-1.7868201732635498,"187":1.3186734914779663,"188":-1.8574914932250977,"189":-0.15381526947021484,"190":-2.261002779006958,"191":1.4215145111083984}},"cellActivationHidden":{"rows":12,"columns":12,"weights":{"0":-1.603315830230713,"1":-2.3326618671417236,"2":-1.4580154418945312,"3":-1.0508453845977783,"4":7.545173645019531,"5":-2.793184518814087,"6":-3.5241827964782715,"7":1.635310173034668,"8":0.9813268780708313,"9":1.9912446737289429,"10":1.1778322458267212,"11":-4.149021625518799,"12":1.006765365600586,"13":1.3537973165512085,"14":0.2630631923675537,"15":-0.8908358812332153,"16":0.6710814833641052,"17":1.3481913805007935,"18":0.6804666519165039,"19":0.04599359259009361,"20":-0.7838680744171143,"21":-0.25770995020866394,"22":-1.6805672645568848,"23":-1.6772571802139282,"24":0.517670214176178,"25":-0.6800248622894287,"26":-2.408909320831299,"27":0.3439026474952698,"28":-0.6378913521766663,"29":1.4140515327453613,"30":0.1560802012681961,"31":1.6478952169418335,"32":0.36195820569992065,"33":-0.24170967936515808,"34":-0.5832598805427551,"35":0.6812869906425476,"36":1.5500737428665161,"37":-0.2833584249019623,"38":0.024154162034392357,"39":-0.4467773139476776,"40":1.4024744033813477,"41":-0.8571857213973999,"42":1.7934819459915161,"43":-0.7221377491950989,"44":0.7237010598182678,"45":0.4633782207965851,"46":-0.8020798563957214,"47":1.220597267150879,"48":0.5694757699966431,"49":1.2375651597976685,"50":1.1883502006530762,"51":0.577061653137207,"52":-0.27443191409111023,"53":-2.122296094894409,"54":-0.8704566359519958,"55":-3.097777843475342,"56":-2.22204852104187,"57":1.4153999090194702,"58":-2.9183409214019775,"59":0.818627119064331,"60":2.31195330619812,"61":0.37271884083747864,"62":-1.9064714908599854,"63":-1.61410653591156,"64":-1.5397603511810303,"65":-2.0710651874542236,"66":-2.666149139404297,"67":1.2241884469985962,"68":2.1102828979492188,"69":0.30522051453590393,"70":-0.5177267789840698,"71":-0.44046294689178467,"72":2.096031665802002,"73":0.011006318964064121,"74":-1.5361360311508179,"75":-0.17379581928253174,"76":-3.3715264797210693,"77":-0.7953066229820251,"78":0.31707072257995605,"79":0.7538777589797974,"80":1.3533934354782104,"81":-0.12259799242019653,"82":0.8712543249130249,"83":-3.0976309776306152,"84":-1.0930007696151733,"85":-1.5774965286254883,"86":-1.762030005455017,"87":0.2917245626449585,"88":-0.8284681439399719,"89":0.22348500788211823,"90":0.9783192276954651,"91":0.32863494753837585,"92":0.4911898970603943,"93":0.462370365858078,"94":-0.4741140305995941,"95":-0.19528712332248688,"96":0.7313969731330872,"97":-0.29156410694122314,"98":0.6930555105209351,"99":0.5099236965179443,"100":-0.19988670945167542,"101":0.20707610249519348,"102":1.3574843406677246,"103":2.9715793132781982,"104":2.405517578125,"105":0.30426517128944397,"106":0.888283908367157,"107":-3.848836660385132,"108":-1.736932396888733,"109":0.7821895480155945,"110":0.9949843883514404,"111":1.2646266222000122,"112":0.06014494597911835,"113":-0.5083843469619751,"114":0.3598586916923523,"115":-2.1826982498168945,"116":-0.48998787999153137,"117":-0.8604195713996887,"118":0.03249720484018326,"119":0.3633393943309784,"120":1.5934913158416748,"121":-0.24197731912136078,"122":1.5579183101654053,"123":0.9456986784934998,"124":-1.2081538438796997,"125":1.053732991218567,"126":1.182235836982727,"127":1.1575443744659424,"128":2.312206506729126,"129":-1.0132298469543457,"130":-2.967479944229126,"131":-4.170286655426025,"132":-0.24394887685775757,"133":1.237244963645935,"134":0.4551863670349121,"135":0.4068266451358795,"136":-0.7030743360519409,"137":0.03764644265174866,"138":0.7672830820083618,"139":-1.2836034297943115,"140":0.6656745076179504,"141":-1.080604910850525,"142":-0.48494771122932434,"143":1.396762728691101}},"cellActivationBias":{"rows":12,"columns":1,"weights":{"0":0.31163549423217773,"1":0.5176056623458862,"2":1.0577735900878906,"3":0.9597322940826416,"4":-1.4733227491378784,"5":1.830379605293274,"6":5.0309739112854,"7":-2.0259182453155518,"8":-0.5011308789253235,"9":-2.962930679321289,"10":2.565892219543457,"11":2.9340531826019287}}},{"inputMatrix":{"rows":8,"columns":12,"weights":{"0":0.6922378540039062,"1":-0.4090816080570221,"2":1.024717092514038,"3":-0.9193785190582275,"4":0.14223948121070862,"5":-0.26257792115211487,"6":1.5317294597625732,"7":0.41082510352134705,"8":0.8520968556404114,"9":-0.9208717942237854,"10":0.5057412385940552,"11":0.7380719780921936,"12":0.9371483325958252,"13":2.7151269912719727,"14":-4.758022308349609,"15":0.4513458013534546,"16":0.23446916043758392,"17":4.328812122344971,"18":0.6187852025032043,"19":-0.12228237092494965,"20":1.5667365789413452,"21":-2.8934197425842285,"22":0.6456060409545898,"23":-3.340749502182007,"24":0.7495905160903931,"25":1.6895570755004883,"26":-0.28341564536094666,"27":-0.8831835985183716,"28":1.7420026063919067,"29":0.9508957266807556,"30":-0.2651917040348053,"31":0.8813531398773193,"32":-0.8642666339874268,"33":1.1753106117248535,"34":-0.9769800901412964,"35":0.9753316044807434,"36":-1.3204677104949951,"37":-1.2681026458740234,"38":-0.7176589369773865,"39":2.571572780609131,"40":-0.21115358173847198,"41":-1.0983439683914185,"42":-1.6199365854263306,"43":0.1651870608329773,"44":-0.27810657024383545,"45":0.5936569571495056,"46":-0.3004875183105469,"47":1.2645796537399292,"48":2.2056562900543213,"49":0.12846900522708893,"50":-0.418623685836792,"51":0.029973477125167847,"52":0.5465583801269531,"53":0.21018032729625702,"54":-0.7387080192565918,"55":0.4152020812034607,"56":1.3318560123443604,"57":-0.0028603982646018267,"58":-1.046492338180542,"59":0.6519998908042908,"60":2.0264389514923096,"61":1.2906726598739624,"62":-0.42857638001441956,"63":-0.38713204860687256,"64":0.5256853103637695,"65":0.3185654580593109,"66":7.260863304138184,"67":-3.918088436126709,"68":-0.26711225509643555,"69":1.4062199592590332,"70":1.8482087850570679,"71":0.07523711770772934,"72":0.5142488479614258,"73":1.246295690536499,"74":-3.0014262199401855,"75":0.4601745009422302,"76":0.20510558784008026,"77":2.323604106903076,"78":-0.3088811933994293,"79":1.1861817836761475,"80":3.3929269313812256,"81":0.4012356400489807,"82":-2.789639949798584,"83":-2.7745001316070557,"84":-0.9944176077842712,"85":-0.6542741060256958,"86":-0.6870617270469666,"87":0.9479272961616516,"88":0.5692464113235474,"89":-1.0071282386779785,"90":-0.3641050457954407,"91":-0.5118144154548645,"92":-1.01417875289917,"93":1.0585395097732544,"94":-0.395637571811676,"95":-0.4440019130706787}},"inputHidden":{"rows":8,"columns":8,"weights":{"0":2.532775402069092,"1":-0.2632251977920532,"2":-0.30857348442077637,"3":0.6714781522750854,"4":1.5244746208190918,"5":-0.645868182182312,"6":-0.659071683883667,"7":0.3290155529975891,"8":-0.27024105191230774,"9":0.3712006211280823,"10":0.2046733945608139,"11":0.16040098667144775,"12":0.37384146451950073,"13":1.9964860677719116,"14":-3.424237012863159,"15":-2.0610783100128174,"16":0.4344106614589691,"17":0.3329051733016968,"18":-0.4280484616756439,"19":-0.881874680519104,"20":0.33265772461891174,"21":-0.2982959449291229,"22":0.25965678691864014,"23":0.08946307003498077,"24":0.44127964973449707,"25":0.1502160131931305,"26":-0.08984088152647018,"27":1.6487414836883545,"28":0.09533166140317917,"29":0.15687206387519836,"30":0.33458879590034485,"31":0.13011449575424194,"32":2.052633285522461,"33":-0.9562830328941345,"34":-1.6884416341781616,"35":0.7590846419334412,"36":2.0780131816864014,"37":-0.3021763861179352,"38":-0.22786855697631836,"39":0.7777190208435059,"40":0.6376857757568359,"41":-1.2263476848602295,"42":0.4052813947200775,"43":-1.4053230285644531,"44":0.2992824614048004,"45":-2.997969388961792,"46":0.2941703796386719,"47":-0.22419579327106476,"48":-0.21256957948207855,"49":-0.9632675051689148,"50":0.735616147518158,"51":-0.4495793879032135,"52":2.0520975589752197,"53":1.5869886875152588,"54":-1.5457768440246582,"55":-0.6966638565063477,"56":1.0529072284698486,"57":-0.5895826816558838,"58":0.21675696969032288,"59":0.5933835506439209,"60":0.480876624584198,"61":-0.9901811480522156,"62":1.0748858451843262,"63":-1.3827214241027832}},"inputBias":{"rows":8,"columns":1,"weights":{"0":-2.8169965744018555,"1":-1.3288604021072388,"2":-2.995985507965088,"3":-1.2645841836929321,"4":-2.3192138671875,"5":-0.20300789177417755,"6":-1.1218808889389038,"7":-3.0327694416046143}},"forgetMatrix":{"rows":8,"columns":12,"weights":{"0":0.3350412845611572,"1":0.2654988765716553,"2":-0.6262115836143494,"3":-0.12623941898345947,"4":0.26816079020500183,"5":0.6594686508178711,"6":-1.711084246635437,"7":1.7580424547195435,"8":-0.023341573774814606,"9":-0.3071019947528839,"10":-0.019074533134698868,"11":-1.6936209201812744,"12":0.7350214123725891,"13":0.02259945124387741,"14":-0.7972859144210815,"15":-0.28846821188926697,"16":0.1982993632555008,"17":1.108941912651062,"18":0.04793982207775116,"19":0.19894245266914368,"20":-0.9212216734886169,"21":-0.2501929700374603,"22":-0.18666596710681915,"23":-0.36578986048698425,"24":-0.0776929259300232,"25":-0.13302934169769287,"26":-0.8596755266189575,"27":-0.07607943564653397,"28":-0.022145625203847885,"29":-0.9508259892463684,"30":-0.16332893073558807,"31":1.434482216835022,"32":0.06327378749847412,"33":-0.7288796901702881,"34":-0.23181886970996857,"35":-1.2312498092651367,"36":0.02888309210538864,"37":-1.5339810848236084,"38":0.6047234535217285,"39":-0.12078485637903214,"40":-2.8259904384613037,"41":0.5225126147270203,"42":-0.48805373907089233,"43":1.9691171646118164,"44":-0.30465349555015564,"45":-1.339922308921814,"46":0.8402869701385498,"47":-0.964784562587738,"48":0.34810808300971985,"49":0.021334238350391388,"50":-0.34232959151268005,"51":-0.12254225462675095,"52":0.158423513174057,"53":0.18830148875713348,"54":-0.26695939898490906,"55":0.03601373732089996,"56":-0.7226651310920715,"57":0.08224806189537048,"58":-0.35100871324539185,"59":-1.2466927766799927,"60":2.065671920776367,"61":1.2018420696258545,"62":-0.9930167198181152,"63":-0.36021333932876587,"64":-0.8282879590988159,"65":8.181401252746582,"66":-1.945030927658081,"67":0.9376977682113647,"68":-3.0949501991271973,"69":-1.598994493484497,"70":-0.8724612593650818,"71":2.2788755893707275,"72":0.28884997963905334,"73":-0.06442131102085114,"74":-1.2187583446502686,"75":-0.3837604820728302,"76":-0.8465297818183899,"77":0.4931737780570984,"78":-0.9371882081031799,"79":2.83070969581604,"80":0.22359059751033783,"81":-0.22755856812000275,"82":0.6731732487678528,"83":-1.0646066665649414,"84":0.1605219542980194,"85":0.3438202440738678,"86":-0.02418268285691738,"87":-0.009844403713941574,"88":-0.19750213623046875,"89":0.09925530850887299,"90":-0.42323583364486694,"91":1.1530003547668457,"92":-0.6108090877532959,"93":0.29063549637794495,"94":0.3571910858154297,"95":1.0965969562530518}},"forgetHidden":{"rows":8,"columns":8,"weights":{"0":0.9641366004943848,"1":0.5643432140350342,"2":-0.14163640141487122,"3":0.06166188046336174,"4":0.8466000556945801,"5":1.2255127429962158,"6":-0.49246352910995483,"7":-0.44032272696495056,"8":0.5328221917152405,"9":0.9843929409980774,"10":0.02576054073870182,"11":-0.9860653877258301,"12":0.7511227130889893,"13":1.6909221410751343,"14":-0.44205325841903687,"15":-1.5858159065246582,"16":0.0961475670337677,"17":-0.02446284331381321,"18":-0.13403567671775818,"19":0.02548493631184101,"20":0.17124029994010925,"21":0.6172007918357849,"22":-0.004542423412203789,"23":-0.06683435291051865,"24":0.2612590193748474,"25":0.46290919184684753,"26":0.03634268790483475,"27":2.340759754180908,"28":-0.010575658641755581,"29":0.9994465708732605,"30":-0.010984595865011215,"31":0.12153889983892441,"32":0.8667820692062378,"33":-0.44960349798202515,"34":-0.1748729795217514,"35":0.08667277544736862,"36":1.4964189529418945,"37":-0.22171033918857574,"38":-0.10986585170030594,"39":-0.013250263407826424,"40":0.04118889942765236,"41":1.9819176197052002,"42":-0.2421228438615799,"43":-0.24112114310264587,"44":1.0067188739776611,"45":3.6546051502227783,"46":0.19739064574241638,"47":-2.9762027263641357,"48":-0.054509785026311874,"49":-0.11882379651069641,"50":0.12098264694213867,"51":0.699747622013092,"52":0.117524154484272,"53":1.4782896041870117,"54":-0.3051552474498749,"55":-0.14275524020195007,"56":0.2662428319454193,"57":1.0604808330535889,"58":0.07078620046377182,"59":-0.3423667252063751,"60":0.20916272699832916,"61":1.1599761247634888,"62":-0.13080133497714996,"63":-0.8074771761894226}},"forgetBias":{"rows":8,"columns":1,"weights":{"0":0,"1":0,"2":0,"3":0,"4":0,"5":0,"6":0,"7":0}},"outputMatrix":{"rows":8,"columns":12,"weights":{"0":0.7104233503341675,"1":-0.052995964884757996,"2":1.029539942741394,"3":-0.8390113711357117,"4":0.31931832432746887,"5":0.29986217617988586,"6":1.097249150276184,"7":0.9861767888069153,"8":0.3191593289375305,"9":-0.9463426470756531,"10":0.24068094789981842,"11":0.7771600484848022,"12":-0.3463670611381531,"13":2.3739712238311768,"14":-5.128109455108643,"15":0.8642070889472961,"16":1.2537678480148315,"17":4.67018461227417,"18":-0.5539079308509827,"19":0.09315107017755508,"20":0.5481140613555908,"21":-3.6074371337890625,"22":0.24057620763778687,"23":-3.6706504821777344,"24":0.9375907778739929,"25":1.7188198566436768,"26":-0.2763836085796356,"27":-0.8701732754707336,"28":1.5705561637878418,"29":0.9527301788330078,"30":-0.21141569316387177,"31":0.9681594967842102,"32":-1.3089147806167603,"33":1.1614000797271729,"34":-1.1248053312301636,"35":0.9117532968521118,"36":0.028714722022414207,"37":0.2157902717590332,"38":-0.004136919509619474,"39":0.7231606245040894,"40":-0.009922011755406857,"41":0.338756263256073,"42":-1.6054582595825195,"43":0.5435225963592529,"44":0.3002253770828247,"45":0.14545616507530212,"46":-0.1786700040102005,"47":-0.013470822013914585,"48":1.937869668006897,"49":-0.15201057493686676,"50":-0.23147040605545044,"51":0.03205130249261856,"52":0.718202531337738,"53":0.7098293900489807,"54":-1.3368479013442993,"55":1.8531510829925537,"56":0.8913105130195618,"57":-0.3247238099575043,"58":-1.0830556154251099,"59":0.7681540846824646,"60":0.46928995847702026,"61":1.1230196952819824,"62":0.21102727949619293,"63":-2.078578233718872,"64":0.6076398491859436,"65":0.28354883193969727,"66":0.9735004901885986,"67":-1.4528827667236328,"68":-0.02309454418718815,"69":-0.3907841145992279,"70":-0.05128611624240875,"71":-0.7081301212310791,"72":1.0289075374603271,"73":1.0446348190307617,"74":-3.2336199283599854,"75":0.5893668532371521,"76":0.012889092788100243,"77":2.6840834617614746,"78":-0.7046871781349182,"79":1.5736658573150635,"80":3.0935933589935303,"81":0.17818181216716766,"82":-2.5406548976898193,"83":-2.7440366744995117,"84":-0.7888787388801575,"85":-0.9990900754928589,"86":-0.2817632853984833,"87":0.7674956321716309,"88":0.6889998316764832,"89":-0.19249172508716583,"90":-1.5673716068267822,"91":0.5332897901535034,"92":-0.8939893245697021,"93":1.006716012954712,"94":-0.06211584433913231,"95":-0.16523690521717072}},"outputHidden":{"rows":8,"columns":8,"weights":{"0":2.85099720954895,"1":0.2807144820690155,"2":-0.7318289279937744,"3":0.6012111306190491,"4":1.931397557258606,"5":-0.013329866342246532,"6":-1.1127976179122925,"7":-0.3495737314224243,"8":-0.007335838861763477,"9":1.1533112525939941,"10":0.09265194088220596,"11":-1.0575836896896362,"12":1.2925243377685547,"13":2.561295986175537,"14":-4.022871971130371,"15":-2.3953497409820557,"16":0.5282203555107117,"17":0.5499981641769409,"18":-0.6062006950378418,"19":-0.8777750134468079,"20":0.3722456395626068,"21":-0.1658514440059662,"22":0.17474131286144257,"23":-0.08617089688777924,"24":1.4194923639297485,"25":0.7198436856269836,"26":-1.0747318267822266,"27":2.1512539386749268,"28":1.3420288562774658,"29":0.6674911975860596,"30":-0.3117488622665405,"31":-0.970087468624115,"32":2.4036335945129395,"33":0.12406313419342041,"34":-1.973732590675354,"35":0.7740523815155029,"36":2.4722540378570557,"37":1.1271871328353882,"38":-0.726654589176178,"39":-0.4177173674106598,"40":1.629192590713501,"41":0.24412497878074646,"42":0.10528695583343506,"43":-0.7983974814414978,"44":1.9112904071807861,"45":1.2069092988967896,"46":0.4200153648853302,"47":-3.8857007026672363,"48":-0.02716522477567196,"49":-0.5684014558792114,"50":0.5937809348106384,"51":-0.3772386610507965,"52":2.506718158721924,"53":2.3335931301116943,"54":-1.9647396802902222,"55":-1.208975076675415,"56":1.5169219970703125,"57":0.28867533802986145,"58":-0.14969764649868011,"59":0.5971302390098572,"60":0.6884890794754028,"61":0.38455015420913696,"62":1.0602339506149292,"63":-2.920180559158325}},"outputBias":{"rows":8,"columns":1,"weights":{"0":-2.528804063796997,"1":-1.88874089717865,"2":-2.7821085453033447,"3":-2.3278753757476807,"4":-2.51714825630188,"5":-2.297106981277466,"6":-0.8663200736045837,"7":-3.2773659229278564}},"cellActivationMatrix":{"rows":8,"columns":12,"weights":{"0":3.0726349353790283,"1":2.457632541656494,"2":2.6768605709075928,"3":-0.13892686367034912,"4":0.9012296199798584,"5":-1.8859895467758179,"6":3.8415372371673584,"7":-1.27848219871521,"8":-0.17535407841205597,"9":-1.7873919010162354,"10":-0.9899078607559204,"11":-6.155770778656006,"12":-0.7034150958061218,"13":-1.6967225074768066,"14":-0.5562706589698792,"15":-0.8911398649215698,"16":-1.5702382326126099,"17":-0.941188633441925,"18":-0.5602589845657349,"19":3.3887481689453125,"20":2.049854278564453,"21":1.2673795223236084,"22":0.37964558601379395,"23":-1.0450316667556763,"24":-0.4093424081802368,"25":-2.724644899368286,"26":-1.083112120628357,"27":0.10999709367752075,"28":-0.4942120313644409,"29":-1.8424160480499268,"30":-1.7649343013763428,"31":-0.5935129523277283,"32":-2.480060338973999,"33":-0.42437341809272766,"34":0.7505866885185242,"35":5.317837238311768,"36":-1.811777114868164,"37":-0.7554156184196472,"38":-0.6105319261550903,"39":-0.4524981677532196,"40":1.8246746063232422,"41":-0.061413515359163284,"42":-2.3520898818969727,"43":2.6884422302246094,"44":0.0004344993503764272,"45":-0.2745102345943451,"46":0.09225612133741379,"47":-3.1831796169281006,"48":2.140916347503662,"49":1.5257569551467896,"50":0.29735326766967773,"51":-1.2463173866271973,"52":0.18113796412944794,"53":4.152108669281006,"54":5.927052021026611,"55":0.5757322311401367,"56":-0.5653347969055176,"57":0.7140612006187439,"58":-3.8166966438293457,"59":-7.881906032562256,"60":-0.40740150213241577,"61":-1.234220266342163,