{"type":"LSTMTimeStep","options":{"inputSize":4,"hiddenLayers":[8,16,12,8],"outputSize":4,"decayRate":0.999,"smoothEps":1e-8,"regc":0.000001,"clipval":5},"hiddenLayers":[{"inputMatrix":{"rows":8,"columns":4,"weights":{"0":0.7452135682106018,"1":0.7262924909591675,"2":0.8495060801506042,"3":0.8976246118545532,"4":0.6189420223236084,"5":0.7551319599151611,"6":0.7002593874931335,"7":0.8879444599151611,"8":0.2003074288368225,"9":0.44658946990966797,"10":0.5073662996292114,"11":0.9705456495285034,"12":0.8471404910087585,"13":1.0577986240386963,"14":0.9612331986427307,"15":1.1638678312301636,"16":-0.16013333201408386,"17":-0.12163612246513367,"18":-0.17415475845336914,"19":-0.16249708831310272,"20":-0.6913502812385559,"21":-0.7344921231269836,"22":-0.7410821318626404,"23":-0.7633563876152039,"24":-0.46101200580596924,"25":-0.4818936288356781,"26":-0.5099309086799622,"27":-0.4527358114719391,"28":-0.4503888785839081,"29":-0.3950732946395874,"30":-0.5463646650314331,"31":-0.48760318756103516}},"inputHidden":{"rows":8,"columns":8,"weights":{"0":-0.21093323826789856,"1":0.3936823010444641,"2":0.039938267320394516,"3":-0.06304605305194855,"4":0.18626393377780914,"5":-0.5365960001945496,"6":0.22406737506389618,"7":0.2021438628435135,"8":-0.2283048778772354,"9":0.45253366231918335,"10":0.2117762267589569,"11":-0.07910280674695969,"12":0.3234131336212158,"13":-0.22689472138881683,"14":0.1741216480731964,"15":-0.09671320021152496,"16":-0.5803105235099792,"17":0.3746725916862488,"18":0.12261387705802917,"19":0.24719835817813873,"20":-0.0015538653824478388,"21":0.13491030037403107,"22":0.08833877742290497,"23":-0.1686774343252182,"24":-0.9596139192581177,"25":1.0654783248901367,"26":0.5412775874137878,"27":0.13757869601249695,"28":0.10694438219070435,"29":-0.03761708736419678,"30":0.04519856348633766,"31":-0.14422084391117096,"32":0.48671960830688477,"33":-0.22857189178466797,"34":-0.018950438126921654,"35":-0.27386876940727234,"36":-0.016110645607113838,"37":0.17949359118938446,"38":-0.07802381366491318,"39":0.14365753531455994,"40":-0.06368602067232132,"41":-0.6384301781654358,"42":-0.2935873568058014,"43":-0.027166372165083885,"44":-0.33704105019569397,"45":0.13545739650726318,"46":-0.33638066053390503,"47":-0.09220636636018753,"48":-0.26108473539352417,"49":-0.3017103672027588,"50":-0.26620689034461975,"51":-0.029389331117272377,"52":0.013003413565456867,"53":0.29324960708618164,"54":0.021047627553343773,"55":-0.32267647981643677,"56":-0.11649923771619797,"57":-0.3286969065666199,"58":-0.14466673135757446,"59":-0.14709964394569397,"60":-0.037296541035175323,"61":0.12170708924531937,"62":-0.23500928282737732,"63":0.1436152160167694}},"inputBias":{"rows":8,"columns":1,"weights":{"0":-0.422826886177063,"1":-1.5475445985794067,"2":-0.6229990720748901,"3":-0.3791692852973938,"4":-0.41270875930786133,"5":0.5738227367401123,"6":-0.013275866396725178,"7":-0.6132506728172302}},"forgetMatrix":{"rows":8,"columns":4,"weights":{"0":0.3522878587245941,"1":0.33924469351768494,"2":0.4262847602367401,"3":0.5642197132110596,"4":0.5642646551132202,"5":0.7167865633964539,"6":0.7613765597343445,"7":0.8841159343719482,"8":-0.06287883222103119,"9":0.19597066938877106,"10":0.1651429980993271,"11":0.6880166530609131,"12":0.11969167739152908,"13":0.19763480126857758,"14":0.16955871880054474,"15":0.5995408296585083,"16":0.09656939655542374,"17":0.12572485208511353,"18":0.14810438454151154,"19":0.2299363762140274,"20":-0.34418588876724243,"21":-0.33007052540779114,"22":-0.2644360363483429,"23":-0.3473927974700928,"24":-0.2729761004447937,"25":-0.3416285812854767,"26":-0.2746244966983795,"27":-0.20198500156402588,"28":0.06991443037986755,"29":0.03782348334789276,"30":-0.030943991616368294,"31":0.05696750059723854}},"forgetHidden":{"rows":8,"columns":8,"weights":{"0":-0.5387474894523621,"1":-0.02359672822058201,"2":-0.5388495922088623,"3":-0.3474379777908325,"4":-0.6034963130950928,"5":0.5425778031349182,"6":-0.12244060635566711,"7":0.04867183044552803,"8":-0.14500512182712555,"9":0.05277705937623978,"10":0.011110812425613403,"11":-0.1772337108850479,"12":0.06142783537507057,"13":-0.04722323268651962,"14":0.13125333189964294,"15":0.0328478068113327,"16":-0.0807916522026062,"17":-0.2703793942928314,"18":-0.25375765562057495,"19":0.16840454936027527,"20":0.017499126493930817,"21":0.06268960237503052,"22":0.05015468969941139,"23":-0.05837170034646988,"24":0.4072727859020233,"25":-0.8527131080627441,"26":0.18752679228782654,"27":0.16528387367725372,"28":0.14450694620609283,"29":-0.07517580687999725,"30":-0.016206389293074608,"31":-0.07510789483785629,"32":0.09431096166372299,"33":-0.007647309452295303,"34":0.0748576745390892,"35":-0.08934539556503296,"36":-0.08583436161279678,"37":-0.005638963542878628,"38":-0.10814233124256134,"39":0.04116543009877205,"40":-0.1744745522737503,"41":-0.28614336252212524,"42":-0.03517143428325653,"43":-0.11735519021749496,"44":0.04573817551136017,"45":0.041514184325933456,"46":-0.12102891504764557,"47":-0.09488947689533234,"48":-0.1379576176404953,"49":-0.10574326664209366,"50":-0.08200473338365555,"51":-0.06525606662034988,"52":-0.049670808017253876,"53":0.06053001433610916,"54":0.10131368786096573,"55":-0.0379309356212616,"56":-0.08429387956857681,"57":-0.1163398027420044,"58":0.04091474041342735,"59":0.0506371408700943,"60":-0.07895836234092712,"61":-0.0387345552444458,"62":-0.03375689312815666,"63":0.06073898822069168}},"forgetBias":{"rows":8,"columns":1,"weights":{"0":0,"1":0,"2":0,"3":0,"4":0,"5":0,"6":0,"7":0}},"outputMatrix":{"rows":8,"columns":4,"weights":{"0":0.6840373873710632,"1":0.6944642066955566,"2":0.7730665802955627,"3":0.8567243814468384,"4":0.7406055331230164,"5":0.7459251284599304,"6":0.8473721742630005,"7":0.9660999178886414,"8":0.09153933078050613,"9":0.34832993149757385,"10":0.3406151235103607,"11":0.9721082448959351,"12":0.8124937415122986,"13":0.9830045700073242,"14":0.9519907236099243,"15":1.2672092914581299,"16":0.02566821314394474,"17":0.027657752856612206,"18":-0.05296192318201065,"19":0.12398649752140045,"20":-0.7024050354957581,"21":-0.7578127980232239,"22":-0.6559596061706543,"23":-0.8336341977119446,"24":-0.4759371876716614,"25":-0.46259286999702454,"26":-0.4596917927265167,"27":-0.3692196011543274,"28":-0.3182445466518402,"29":-0.19981995224952698,"30":-0.27025458216667175,"31":-0.24520736932754517}},"outputHidden":{"rows":8,"columns":8,"weights":{"0":-0.49120625853538513,"1":0.2773630917072296,"2":0.04624379426240921,"3":-0.10605177283287048,"4":-0.14889675378799438,"5":-0.2179242968559265,"6":0.2917913794517517,"7":0.2682059109210968,"8":-0.3545382618904114,"9":0.4508771002292633,"10":0.15665486454963684,"11":0.07163466513156891,"12":0.2399059236049652,"13":-0.25307270884513855,"14":0.2159099131822586,"15":0.1483192890882492,"16":-0.4578717350959778,"17":0.1453677862882614,"18":0.020574675872921944,"19":0.48304590582847595,"20":-0.05699240043759346,"21":0.02835937775671482,"22":0.07212230563163757,"23":-0.2201167494058609,"24":-0.7256848216056824,"25":0.7548602223396301,"26":0.7209587693214417,"27":0.19674235582351685,"28":0.14653363823890686,"29":-0.16129054129123688,"30":0.0610206164419651,"31":-0.17518945038318634,"32":0.5812247395515442,"33":-0.22320900857448578,"34":-0.0065839411690831184,"35":-0.413431853055954,"36":-0.0008263588533736765,"37":0.03677742928266525,"38":-0.16894564032554626,"39":0.0630103349685669,"40":0.04818478599190712,"41":-0.6231008172035217,"42":-0.46406909823417664,"43":-0.10898648202419281,"44":-0.26461708545684814,"45":0.2312065064907074,"46":-0.36221277713775635,"47":-0.11459220200777054,"48":-0.24409808218479156,"49":-0.26944416761398315,"50":-0.24728398025035858,"51":0.026053892448544502,"52":-0.045476317405700684,"53":0.3727339804172516,"54":0.08226844668388367,"55":-0.3306097984313965,"56":-0.1160440742969513,"57":-0.21582888066768646,"58":-0.12727168202400208,"59":-0.1296633780002594,"60":-0.06329797208309174,"61":0.18268027901649475,"62":-0.1647065132856369,"63":0.12097379565238953}},"outputBias":{"rows":8,"columns":1,"weights":{"0":-0.6159842014312744,"1":-1.5870383977890015,"2":-0.6746324300765991,"3":-0.40947604179382324,"4":-0.38519763946533203,"5":0.5798322558403015,"6":-0.012531932443380356,"7":-0.5483821034431458}},"cellActivationMatrix":{"rows":8,"columns":4,"weights":{"0":-0.4321224093437195,"1":-0.5403832197189331,"2":-0.6623858213424683,"3":-0.7194365859031677,"4":0.5806849598884583,"5":0.5966714024543762,"6":0.7679629325866699,"7":0.7884487509727478,"8":-0.13268959522247314,"9":0.13129501044750214,"10":0.2469119131565094,"11":0.8421947360038757,"12":-0.8288725018501282,"13":-0.2508147060871124,"14":-0.1317862719297409,"15":0.9936081171035767,"16":0.3169160485267639,"17":0.20308026671409607,"18":0.2717511057853699,"19":-0.1556687355041504,"20":-0.26974159479141235,"21":-0.19791649281978607,"22":-0.19301199913024902,"23":-0.2802826464176178,"24":-0.1260300576686859,"25":-0.11675867438316345,"26":-0.12523671984672546,"27":0.023881984874606133,"28":-0.2468845248222351,"29":-0.2767438292503357,"30":-0.30183079838752747,"31":-0.3614679276943207}},"cellActivationHidden":{"rows":8,"columns":8,"weights":{"0":-0.3214055895805359,"1":0.23175562918186188,"2":0.47394412755966187,"3":0.4534495770931244,"4":-0.021764127537608147,"5":-0.4777480661869049,"6":0.25829726457595825,"7":-0.03496596962213516,"8":0.07560259103775024,"9":0.08285071700811386,"10":-0.09821069985628128,"11":-0.36247673630714417,"12":0.39139676094055176,"13":0.404869943857193,"14":-0.22414402663707733,"15":-0.3053256571292877,"16":0.15450915694236755,"17":-0.6106609106063843,"18":-0.410709023475647,"19":0.3144761323928833,"20":-0.015020891092717648,"21":0.7072190046310425,"22":-0.17097048461437225,"23":-0.6661064624786377,"24":-0.5777211785316467,"25":-0.25045374035835266,"26":-0.28577736020088196,"27":-0.14220304787158966,"28":-0.10913784801959991,"29":1.7167692184448242,"30":-0.24737951159477234,"31":-0.9154322147369385,"32":0.44613218307495117,"33":-0.5502429604530334,"34":0.030778655782341957,"35":-0.2725526988506317,"36":0.4825782775878906,"37":-0.133512482047081,"38":-0.29526403546333313,"39":-0.23095440864562988,"40":-0.2989303469657898,"41":0.24301855266094208,"42":0.04953356459736824,"43":0.13861650228500366,"44":0.1911875456571579,"45":-0.13611333072185516,"46":0.15380167961120605,"47":-0.0769161805510521,"48":0.04730372875928879,"49":-0.3244020938873291,"50":-0.47251594066619873,"51":0.19620396196842194,"52":-0.1616819053888321,"53":0.4856341779232025,"54":-0.2394065409898758,"55":-0.37241336703300476,"56":-0.04446033388376236,"57":0.19888095557689667,"58":0.1947646141052246,"59":0.3809681832790375,"60":-0.18732193112373352,"61":-0.31043741106987,"62":0.1343557983636856,"63":0.13114167749881744}},"cellActivationBias":{"rows":8,"columns":1,"weights":{"0":1.3165884017944336,"1":-1.6566190719604492,"2":-0.5760674476623535,"3":0.168171226978302,"4":-0.12584443390369415,"5":-0.8042908310890198,"6":0.4494858980178833,"7":0.7280421853065491}}},{"inputMatrix":{"rows":16,"columns":8,"weights":{"0":-0.5817205905914307,"1":0.724854052066803,"2":0.2244616150856018,"3":0.18521292507648468,"4":-0.03332293778657913,"5":-0.2086140364408493,"6":0.25986239314079285,"7":0.12682262063026428,"8":-0.5735113024711609,"9":0.5545686483383179,"10":0.18438735604286194,"11":0.2900855541229248,"12":-0.07871408760547638,"13":-0.15309615433216095,"14":0.15851575136184692,"15":0.200903058052063,"16":-0.7995188236236572,"17":1.0494033098220825,"18":0.356873482465744,"19":0.2604805827140808,"20":-0.08279166370630264,"21":-0.2877791225910187,"22":0.15326263010501862,"23":0.11508675664663315,"24":-0.6534062623977661,"25":1.0553390979766846,"26":0.041586827486753464,"27":0.046905506402254105,"28":-0.06501442193984985,"29":-0.14486561715602875,"30":0.06518297642469406,"31":0.22437594830989838,"32":-0.4324239194393158,"33":0.25694531202316284,"34":0.17264948785305023,"35":0.1965891569852829,"36":-0.026505272835493088,"37":-0.23866242170333862,"38":0.1272258758544922,"39":0.14813315868377686,"40":0.5654363632202148,"41":0.2956417202949524,"42":0.11614830791950226,"43":-0.057678110897541046,"44":0.14458736777305603,"45":-0.535877525806427,"46":0.23677267134189606,"47":0.159986674785614,"48":-0.5659717321395874,"49":0.5378535985946655,"50":0.6878061890602112,"51":-0.06353229284286499,"52":0.042471155524253845,"53":-0.3212934136390686,"54":0.07953792810440063,"55":0.16690842807292938,"56":-1.136968731880188,"57":1.3703628778457642,"58":0.5962600111961365,"59":0.19149182736873627,"60":-0.12696513533592224,"61":-0.291777640581131,"62":0.16325321793556213,"63":0.15051479637622833,"64":-0.0021597198210656643,"65":0.057714346796274185,"66":0.18862095475196838,"67":0.10143569111824036,"68":-0.08237338811159134,"69":-0.11755558848381042,"70":0.18683135509490967,"71":0.17245621979236603,"72":-0.6416774988174438,"73":0.7974368929862976,"74":0.4139651954174042,"75":0.3694058060646057,"76":-0.015747549012303352,"77":-0.2257910966873169,"78":0.21704912185668945,"79":0.1599014550447464,"80":-0.12514454126358032,"81":0.3889023959636688,"82":0.3321321904659271,"83":-0.11335258930921555,"84":-0.1749713271856308,"85":-0.2607862055301666,"86":-0.027466652914881706,"87":-0.0527699738740921,"88":-0.7883143424987793,"89":0.8371601104736328,"90":0.4212651252746582,"91":0.4070100486278534,"92":-0.13406001031398773,"93":-0.2815152406692505,"94":0.23200446367263794,"95":0.12412857264280319,"96":-0.7328211665153503,"97":0.28965121507644653,"98":0.10297966003417969,"99":0.23508010804653168,"100":-0.028480786830186844,"101":0.06463479995727539,"102":0.07968702912330627,"103":0.0799650177359581,"104":-1.1167995929718018,"105":1.4441487789154053,"106":0.6879279017448425,"107":0.2172469049692154,"108":-0.11647039651870728,"109":-0.3560235798358917,"110":0.22167058289051056,"111":0.21217797696590424,"112":0.47377821803092957,"113":0.6381629705429077,"114":-0.056423369795084,"115":0.044078655540943146,"116":0.10797113180160522,"117":-0.34635841846466064,"118":0.1509455293416977,"119":0.24717611074447632,"120":-0.6735798120498657,"121":0.749854326248169,"122":0.26196134090423584,"123":0.23035909235477448,"124":-0.11416789889335632,"125":-0.15911321341991425,"126":0.13546502590179443,"127":0.22184938192367554}},"inputHidden":{"rows":16,"columns":16,"weights":{"0":-0.05342638120055199,"1":0.17864395678043365,"2":-0.15714113414287567,"3":-0.10556167364120483,"4":0.07039635628461838,"5":-0.15013429522514343,"6":-0.16969755291938782,"7":-0.056012578308582306,"8":0.08914268016815186,"9":-0.07845908403396606,"10":-0.05932966247200966,"11":0.21158312261104584,"12":0.14406463503837585,"13":-0.021952982991933823,"14":-0.005962669383734465,"15":-0.0032242590095847845,"16":0.16131681203842163,"17":0.4002290666103363,"18":0.37305930256843567,"19":-0.40927717089653015,"20":-0.12252113223075867,"21":0.12487022578716278,"22":-0.06403752416372299,"23":0.36684760451316833,"24":-0.047606974840164185,"25":-0.13093893229961395,"26":0.23255778849124908,"27":0.2607448399066925,"28":0.4444900453090668,"29":-0.45439577102661133,"30":-0.24912738800048828,"31":0.2973865270614624,"32":0.054653141647577286,"33":0.18222717940807343,"34":0.08725246042013168,"35":-0.052606914192438126,"36":0.02409372478723526,"37":-0.19897982478141785,"38":-0.18644005060195923,"39":0.05288318172097206,"40":0.037782132625579834,"41":-0.07164695858955383,"42":-0.0904618501663208,"43":0.18912748992443085,"44":0.227953240275383,"45":-0.1192513108253479,"46":0.05884344130754471,"47":0.17813189327716827,"48":0.07951763272285461,"49":0.42221567034721375,"50":0.12757296860218048,"51":-0.21105670928955078,"52":0.006045827176421881,"53":-0.0058692446909844875,"54":-0.05067368969321251,"55":0.19451338052749634,"56":-0.010578961111605167,"57":-0.21630926430225372,"58":-0.05813142657279968,"59":0.2940543591976166,"60":0.40895402431488037,"61":-0.2861773371696472,"62":-0.07624193280935287,"63":0.30210810899734497,"64":-0.13642390072345734,"65":0.015378765761852264,"66":-0.18881458044052124,"67":0.02290351688861847,"68":0.19804157316684723,"69":-0.13665540516376495,"70":-0.20841068029403687,"71":-0.09511261433362961,"72":0.1251262128353119,"73":0.031083757057785988,"74":-0.03717833012342453,"75":-0.0807700976729393,"76":-0.01567087136209011,"77":0.13969409465789795,"78":0.046031903475522995,"79":-0.019288867712020874,"80":-0.2090047150850296,"81":-0.2614087164402008,"82":-0.28879109025001526,"83":0.18912748992443085,"84":0.06674928963184357,"85":-0.6100276708602905,"86":-0.692847728729248,"87":-0.21706360578536987,"88":0.24797862768173218,"89":0.18981121480464935,"90":0.3324526846408844,"91":-0.1769660860300064,"92":-0.30310991406440735,"93":0.21060088276863098,"94":0.4723133146762848,"95":-0.343879371881485,"96":0.19256919622421265,"97":0.37545478343963623,"98":0.47530490159988403,"99":-0.3594995439052582,"100":-0.1875758320093155,"101":-0.11642938107252121,"102":-0.1212942898273468,"103":0.2659642994403839,"104":-0.05637051910161972,"105":-0.30717769265174866,"106":-0.17025019228458405,"107":0.4370565712451935,"108":0.6405834555625916,"109":-0.3691963255405426,"110":-0.14507471024990082,"111":0.548448920249939,"112":0.19491450488567352,"113":0.4079260528087616,"114":0.13474416732788086,"115":-0.07559657841920853,"116":-0.09610484540462494,"117":-0.11570324748754501,"118":-0.27162376046180725,"119":0.11117037385702133,"120":-0.019013896584510803,"121":-0.18752768635749817,"122":-0.07111744582653046,"123":0.32035571336746216,"124":0.41495391726493835,"125":-0.059345073997974396,"126":0.02413947694003582,"127":0.26668134331703186,"128":-0.11060617119073868,"129":-0.07676538825035095,"130":-0.17596380412578583,"131":0.1330973356962204,"132":0.17114055156707764,"133":-0.23752200603485107,"134":-0.11986669898033142,"135":-0.008433404378592968,"136":0.16260109841823578,"137":0.18076130747795105,"138":0.13786835968494415,"139":-0.019102955237030983,"140":-0.10815982520580292,"141":0.17277508974075317,"142":0.20799031853675842,"143":-0.07089933007955551,"144":-0.06166332960128784,"145":0.05169688165187836,"146":-0.025944925844669342,"147":-0.019202152267098427,"148":-0.01611502468585968,"149":-0.16310042142868042,"150":-0.2294037938117981,"151":-0.007281384896486998,"152":0.012845520861446857,"153":-0.03758653625845909,"154":-0.15390560030937195,"155":0.18078988790512085,"156":0.04474120959639549,"157":-0.04012294486165047,"158":0.019175102934241295,"159":0.06428930908441544,"160":-0.11405955255031586,"161":-0.5822859406471252,"162":0.1759057492017746,"163":0.5216619968414307,"164":0.14266079664230347,"165":0.39669370651245117,"166":-0.23578909039497375,"167":-0.4604414999485016,"168":0.039504215121269226,"169":0.45733925700187683,"170":-1.1757631301879883,"171":-0.63184654712677,"172":-0.3453727960586548,"173":0.5876815319061279,"174":-0.07586146891117096,"175":-0.2818082273006439,"176":0.12745286524295807,"177":0.3287014365196228,"178":-0.022245699539780617,"179":-0.295680433511734,"180":-0.10643207281827927,"181":-0.052218176424503326,"182":-0.0927748829126358,"183":0.07818549126386642,"184":0.018508192151784897,"185":-0.21339960396289825,"186":-0.1689014583826065,"187":0.28510767221450806,"188":0.28641027212142944,"189":-0.19204400479793549,"190":-0.050997015088796616,"191":0.16264088451862335,"192":0.04463448002934456,"193":0.11167998611927032,"194":0.45029282569885254,"195":-0.21850912272930145,"196":-0.16812148690223694,"197":0.23209045827388763,"198":0.07949292659759521,"199":0.35529831051826477,"200":0.004834434483200312,"201":-0.07403157651424408,"202":0.5949243903160095,"203":0.158987358212471,"204":0.15712232887744904,"205":-0.3281818926334381,"206":-0.0882861465215683,"207":0.17878754436969757,"208":0.22810707986354828,"209":0.3150653541088104,"210":0.07809331268072128,"211":-0.1005636528134346,"212":-0.1450219601392746,"213":-0.07413184642791748,"214":-0.1650390625,"215":-0.036750856786966324,"216":-0.0853448361158371,"217":-0.20174624025821686,"218":-0.16255278885364532,"219":0.31048518419265747,"220":0.5674336552619934,"221":-0.034276243299245834,"222":-0.01248005498200655,"223":0.32196569442749023,"224":-0.21469563245773315,"225":-0.07375790178775787,"226":-0.26416611671447754,"227":0.1164463609457016,"228":0.07054956257343292,"229":-0.3518576920032501,"230":-0.697941780090332,"231":-0.1629904955625534,"232":0.21396474540233612,"233":0.14944137632846832,"234":0.19302180409431458,"235":-0.0662786066532135,"236":-0.17162999510765076,"237":0.22803142666816711,"238":0.3053598403930664,"239":-0.27567756175994873,"240":0.125854954123497,"241":0.23852340877056122,"242":0.11689028143882751,"243":-0.13648691773414612,"244":-0.058934781700372696,"245":-0.10989460349082947,"246":-0.1384943574666977,"247":0.1912647783756256,"248":0.007984772324562073,"249":-0.21624769270420074,"250":-0.042524755001068115,"251":0.30829349160194397,"252":0.20896929502487183,"253":-0.1849321871995926,"254":-0.03425697609782219,"255":0.14671063423156738}},"inputBias":{"rows":16,"columns":1,"weights":{"0":-0.3089692294597626,"1":-0.2850925326347351,"2":-0.19906887412071228,"3":-0.4105598032474518,"4":-0.10308507829904556,"5":0.590168297290802,"6":-0.31427326798439026,"7":-0.6694304943084717,"8":-0.17898915708065033,"9":-0.5272630453109741,"10":-0.3186677396297455,"11":-0.5182934999465942,"12":-0.10884511470794678,"13":-0.580740213394165,"14":0.9608795642852783,"15":-0.2921783924102783}},"forgetMatrix":{"rows":16,"columns":8,"weights":{"0":-0.1495482325553894,"1":0.13476702570915222,"2":0.07830238342285156,"3":0.05345284193754196,"4":-0.02007031813263893,"5":0.04518105834722519,"6":0.1570364236831665,"7":0.053730737417936325,"8":-0.6605886220932007,"9":0.3893752694129944,"10":0.21416811645030975,"11":0.21976423263549805,"12":-0.20956234633922577,"13":0.050165172666311264,"14":-0.04705897346138954,"15":0.11478883773088455,"16":-0.6402252316474915,"17":0.22813422977924347,"18":0.22503504157066345,"19":0.28608617186546326,"20":-0.16121432185173035,"21":0.033636581152677536,"22":-0.028392789885401726,"23":-0.005225507076829672,"24":-0.23932139575481415,"25":0.11405371874570847,"26":0.08593261241912842,"27":0.114492267370224,"28":-0.13636082410812378,"29":-0.025429315865039825,"30":-0.007785364985466003,"31":0.07331497222185135,"32":-0.1960407793521881,"33":0.12290138751268387,"34":0.15434324741363525,"35":0.10139165073633194,"36":-0.010945886373519897,"37":0.037959709763526917,"38":0.12189877033233643,"39":-0.028350530192255974,"40":0.7378129363059998,"41":-0.6216160655021667,"42":-0.1589527428150177,"43":-0.21982233226299286,"44":0.16212411224842072,"45":-0.25790300965309143,"46":0.04431219771504402,"47":-0.0009891670197248459,"48":0.24706010520458221,"49":-0.6952890753746033,"50":-0.32027894258499146,"51":-0.24379344284534454,"52":-0.06976506114006042,"53":0.07878264039754868,"54":-0.17820659279823303,"55":0.003140377812087536,"56":-0.3212399184703827,"57":0.08267036825418472,"58":0.08709308505058289,"59":0.11005707085132599,"60":-0.057860180735588074,"61":0.08731026202440262,"62":0.0785924419760704,"63":0.024873236194252968,"64":-0.03088212013244629,"65":0.02430815063416958,"66":0.04884492978453636,"67":0.15452754497528076,"68":-0.09532783180475235,"69":-0.10198380053043365,"70":0.08952637761831284,"71":0.043477416038513184,"72":-0.3617415428161621,"73":0.2923780083656311,"74":0.12093301862478256,"75":0.2301882803440094,"76":-0.09908149391412735,"77":0.011315534822642803,"78":0.16444210708141327,"79":0.06104995682835579,"80":-0.6273433566093445,"81":1.0648729801177979,"82":0.921268880367279,"83":0.17326320707798004,"84":0.03965049982070923,"85":-0.21377338469028473,"86":-0.004110347013920546,"87":-0.023510858416557312,"88":-0.6429669260978699,"89":0.39238056540489197,"90":0.20798225700855255,"91":0.3688960671424866,"92":-0.06948529183864594,"93":-0.04661845043301582,"94":0.03231530264019966,"95":0.04121653363108635,"96":-0.9317823648452759,"97":0.14924447238445282,"98":0.12053252011537552,"99":0.3419608473777771,"100":-0.23795370757579803,"101":0.05839301273226738,"102":0.016387956216931343,"103":0.06266278773546219,"104":-0.43044722080230713,"105":0.16871313750743866,"106":0.11579375714063644,"107":0.13934524357318878,"108":-0.10458532720804214,"109":0.007862668484449387,"110":0.03313170373439789,"111":0.03422399237751961,"112":0.9099072813987732,"113":-0.6793956756591797,"114":-0.43301206827163696,"115":-0.129738911986351,"116":-0.0683223083615303,"117":-0.05706397444009781,"118":-0.024334533140063286,"119":0.023176413029432297,"120":-0.4732961654663086,"121":0.11975627392530441,"122":0.09598906338214874,"123":0.23145084083080292,"124":-0.19161087274551392,"125":0.0484454445540905,"126":0.08173848688602448,"127":0.06455349922180176}},"forgetHidden":{"rows":16,"columns":16,"weights":{"0":-0.0697527751326561,"1":0.023620257154107094,"2":-0.06101308763027191,"3":0.03243564814329147,"4":0.03149566426873207,"5":-0.13267871737480164,"6":-0.015570677816867828,"7":0.004492606036365032,"8":0.04297595098614693,"9":-0.01641363464295864,"10":-0.13187836110591888,"11":-0.023698262870311737,"12":0.010406741872429848,"13":0.004440319258719683,"14":0.12466883659362793,"15":0.053202711045742035,"16":0.05917994678020477,"17":0.4773338735103607,"18":0.23600785434246063,"19":-0.42983949184417725,"20":-0.08878281712532043,"21":0.0852542370557785,"22":0.06524161994457245,"23":0.2519332766532898,"24":-0.01495994534343481,"25":-0.1485559046268463,"26":0.00899715255945921,"27":0.39274582266807556,"28":0.46447843313217163,"29":-0.18014374375343323,"30":0.021328294649720192,"31":0.2656260132789612,"32":0.01914559118449688,"33":0.14458134770393372,"34":0.15017297863960266,"35":-0.1509237140417099,"36":-0.057223785668611526,"37":-0.04646836221218109,"38":0.08356395363807678,"39":0.1683318018913269,"40":0.03713804855942726,"41":-0.08475562185049057,"42":0.013103562407195568,"43":0.09553731232881546,"44":0.20713651180267334,"45":-0.18882609903812408,"46":-0.07972635328769684,"47":0.13000747561454773,"48":0.1063634604215622,"49":0.20266440510749817,"50":0.08216672390699387,"51":-0.2573474049568176,"52":-0.04650725796818733,"53":0.002439549658447504,"54":0.10725835710763931,"55":0.18762780725955963,"56":0.04942690581083298,"57":-0.0933900773525238,"58":-0.13217034935951233,"59":0.07875202596187592,"60":0.2092905044555664,"61":-0.2321719378232956,"62":-0.030457600951194763,"63":0.08649846166372299,"64":-0.12002155929803848,"65":0.009720401838421822,"66":0.009399513714015484,"67":0.0015344815328717232,"68":0.035415537655353546,"69":0.00216326373629272,"70":0.06392327696084976,"71":0.007598894648253918,"72":0.050337642431259155,"73":0.14198459684848785,"74":0.000250998797127977,"75":0.01244459580630064,"76":-0.10526489466428757,"77":0.04961586743593216,"78":0.09097056835889816,"79":0.025693075731396675,"80":-0.1402255743741989,"81":-0.13560070097446442,"82":-0.33323317766189575,"83":0.1305720955133438,"84":0.024604910984635353,"85":-0.6923964023590088,"86":-0.26563674211502075,"87":-0.15961870551109314,"88":0.19914986193180084,"89":0.23873597383499146,"90":0.38162001967430115,"91":-0.29541802406311035,"92":-0.3142569363117218,"93":0.197124645113945,"94":0.36694276332855225,"95":-0.18339447677135468,"96":-0.18246792256832123,"97":0.43396130204200745,"98":0.11578596383333206,"99":-0.30625489354133606,"100":0.16010035574436188,"101":-0.3920905888080597,"102":-0.11884429305791855,"103":0.15449638664722443,"104":0.0420231930911541,"105":0.04910048469901085,"106":-0.40579572319984436,"107":0.20370127260684967,"108":0.4130007326602936,"109":-0.15901678800582886,"110":0.39198872447013855,"111":0.28365933895111084,"112":0.007962499745190144,"113":0.21849261224269867,"114":0.0885545015335083,"115":-0.0629790648818016,"116":-0.050788942724466324,"117":0.05926395580172539,"118":0.06133954972028732,"119":0.033477772027254105,"120":0.030139509588479996,"121":0.023621398955583572,"122":-0.14110682904720306,"123":0.007053500972688198,"124":0.19119688868522644,"125":-0.13006463646888733,"126":-0.013549698516726494,"127":0.14410406351089478,"128":-0.09336438775062561,"129":-0.10308382660150528,"130":-0.08241870999336243,"131":0.08485601097345352,"132":0.03462536633014679,"133":-0.16080401837825775,"134":0.03941204026341438,"135":-0.039300039410591125,"136":0.19520211219787598,"137":0.011203466914594173,"138":0.009539912454783916,"139":-0.139560729265213,"140":-0.03337261080741882,"141":0.03355904296040535,"142":0.007341565098613501,"143":0.014867257326841354,"144":-0.006021704990416765,"145":-0.1297633796930313,"146":-0.08981245756149292,"147":0.032242096960544586,"148":-0.02058352530002594,"149":-0.08553744107484818,"150":-0.038610029965639114,"151":0.029751459136605263,"152":0.011365638114511967,"153":0.07751193642616272,"154":-0.1413981020450592,"155":-0.136158287525177,"156":-0.16594143211841583,"157":-0.0637359544634819,"158":0.09541874378919601,"159":0.0031029321253299713,"160":0.04345477744936943,"161":0.0897447019815445,"162":0.2834780514240265,"163":-0.018486620858311653,"164":-0.009709621779620647,"165":0.014873352833092213,"166":-0.13302555680274963,"167":0.10831071436405182,"168":-0.09511031955480576,"169":-0.098096564412117,"170":-0.48330363631248474,"171":0.001620953786186874,"172":0.3026353716850281,"173":0.05177643895149231,"174":0.010303440503776073,"175":0.18956515192985535,"176":-0.013200541958212852,"177":0.004596120677888393,"178":-0.030987638980150223,"179":-0.1601509302854538,"180":0.0745089054107666,"181":-0.0901273638010025,"182":0.14876097440719604,"183":0.0916498526930809,"184":-0.11836449801921844,"185":0.046345166862010956,"186":-0.08410293608903885,"187":-0.04241793975234032,"188":-0.04682624712586403,"189":-0.04280797392129898,"190":0.007160842418670654,"191":-0.056558191776275635,"192":0.12058769911527634,"193":0.5978683233261108,"194":0.3209458589553833,"195":-0.5160126090049744,"196":-0.03607656806707382,"197":-0.04532346501946449,"198":0.08275341987609863,"199":0.2599729597568512,"200":-0.1380193531513214,"201":-0.2621990144252777,"202":0.1351996511220932,"203":0.5537075400352478,"204":0.6551739573478699,"205":-0.29389873147010803,"206":0.09763772785663605,"207":0.5004130005836487,"208":-0.020647870376706123,"209":0.2596234679222107,"210":-0.05829189717769623,"211":-0.2531583905220032,"212":0.008861091919243336,"213":-0.09480227530002594,"214":0.03134722262620926,"215":0.06428030133247375,"216":-0.08429818600416183,"217":-0.03100336715579033,"218":-0.13743767142295837,"219":0.16756539046764374,"220":0.19612309336662292,"221":-0.07006554305553436,"222":-0.018966929987072945,"223":0.05942893773317337,"224":-0.16393041610717773,"225":-0.09988516569137573,"226":-0.145786851644516,"227":0.05735751613974571,"228":0.14217859506607056,"229":-0.43378621339797974,"230":-0.2613828778266907,"231":-0.03577776253223419,"232":0.1619749665260315,"233":0.22227369248867035,"234":0.22317750751972198,"235":-0.1638190597295761,"236":-0.3178136646747589,"237":0.19301392138004303,"238":0.3607466220855713,"239":-0.09683394432067871,"240":0.10027765482664108,"241":0.12005110830068588,"242":0.18277360498905182,"243":-0.2395600974559784,"244":-0.014335266314446926,"245":0.05405857414007187,"246":0.17612186074256897,"247":0.09826051443815231,"248":-0.09500867128372192,"249":-0.06265953928232193,"250":-0.13019613921642303,"251":0.09108809381723404,"252":0.12697724997997284,"253":-0.16296692192554474,"254":-0.043883685022592545,"255":0.17568360269069672}},"forgetBias":{"rows":16,"columns":1,"weights":{"0":0,"1":0,"2":0,"3":0,"4":0,"5":0,"6":0,"7":0,"8":0,"9":0,"10":0,"11":0,"12":0,"13":0,"14":0,"15":0}},"outputMatrix":{"rows":16,"columns":8,"weights":{"0":-0.6529538631439209,"1":0.5904293060302734,"2":0.2536799907684326,"3":0.24029183387756348,"4":-0.11398623883724213,"5":-0.29499107599258423,"6":0.16963635385036469,"7":0.15652813017368317,"8":-0.6734968423843384,"9":0.6002936959266663,"10":0.32464003562927246,"11":0.4041372537612915,"12":-0.2296546846628189,"13":-0.19106654822826385,"14":0.08887079358100891,"15":0.24524544179439545,"16":-0.9623644948005676,"17":0.8771573305130005,"18":0.4425371289253235,"19":0.31183934211730957,"20":-0.07820297032594681,"21":-0.21760918200016022,"22":0.15643666684627533,"23":0.2091488391160965,"24":-0.7117086052894592,"25":0.9800821542739868,"26":0.10183506458997726,"27":0.2378527969121933,"28":-0.13091664016246796,"29":-0.02786802127957344,"30":0.03468777611851692,"31":0.21370656788349152,"32":-0.3587375283241272,"33":0.21508514881134033,"34":0.21195678412914276,"35":0.15710389614105225,"36":-0.04496586322784424,"37":-0.2654567360877991,"38":0.1833968311548233,"39":0.13440650701522827,"40":0.8368988037109375,"41":-0.0027036392129957676,"42":0.07284648716449738,"43":-0.15778587758541107,"44":0.2892148494720459,"45":-0.6493425965309143,"46":0.3646961748600006,"47":0.11232347786426544,"48":-0.2878107726573944,"49":0.1589776873588562,"50":0.41996198892593384,"51":-0.15481853485107422,"52":0.05094534158706665,"53":-0.3230302929878235,"54":-0.006217500194907188,"55":0.10787223279476166,"56":-1.1438689231872559,"57":1.1315722465515137,"58":0.5189686417579651,"59":0.20343348383903503,"60":-0.13583549857139587,"61":-0.18633846938610077,"62":0.0832095816731453,"63":0.24453921616077423,"64":0.13805916905403137,"65":-0.009559365920722485,"66":0.1065136194229126,"67":0.07286938279867172,"68":-0.013288316316902637,"69":-0.16199712455272675,"70":0.1911575049161911,"71":0.21855364739894867,"72":-0.751754105091095,"73":0.6710662841796875,"74":0.437183141708374,"75":0.4522007405757904,"76":-0.09231758117675781,"77":-0.2980729937553406,"78":0.1815083771944046,"79":0.09322504699230194,"80":-0.23214788734912872,"81":0.6291270852088928,"82":0.6776343584060669,"83":-0.04576720669865608,"84":0.036412887275218964,"85":-0.5253889560699463,"86":0.09035256505012512,"87":0.0810682401061058,"88":-0.8313146233558655,"89":0.8065139651298523,"90":0.46493926644325256,"91":0.5345077514648438,"92":-0.1803922951221466,"93":-0.24232910573482513,"94":0.20941662788391113,"95":0.18743307888507843,"96":-0.795760452747345,"97":0.354480504989624,"98":0.2845773994922638,"99":0.4379686415195465,"100":-0.12892191112041473,"101":0.02942448854446411,"102":0.08794200420379639,"103":0.16761787235736847,"104":-1.1550872325897217,"105":1.2042776346206665,"106":0.6581305861473083,"107":0.2703316807746887,"108":-0.1777687817811966,"109":-0.2289738804101944,"110":0.24192743003368378,"111":0.20456348359584808,"112":0.845806360244751,"113":0.24454468488693237,"114":-0.11767402291297913,"115":-0.14838728308677673,"116":0.04581938311457634,"117":-0.44355490803718567,"118":0.10325182974338531,"119":0.2697259485721588,"120":-0.7641850709915161,"121":0.6223742961883545,"122":0.21004018187522888,"123":0.3045002520084381,"124":-0.12277599424123764,"125":-0.22643525898456573,"126":0.1165490448474884,"127":0.20706894993782043}},"outputHidden":{"rows":16,"columns":16,"weights":{"0":-0.13531431555747986,"1":0.13833990693092346,"2":-0.18548999726772308,"3":-0.16297736763954163,"4":0.03710401803255081,"5":-0.1150379329919815,"6":-0.2555411159992218,"7":0.052427418529987335,"8":0.1360020786523819,"9":0.00034687842708081007,"10":-0.006612534634768963,"11":0.2279714047908783,"12":0.1903168112039566,"13":0.007867342792451382,"14":0.20190715789794922,"15":0.02092774584889412,"16":0.19836121797561646,"17":0.640716552734375,"18":0.6215804219245911,"19":-0.4913758337497711,"20":-0.16384141147136688,"21":0.24375130236148834,"22":-0.05118425935506821,"23":0.4995977282524109,"24":-0.10015460103750229,"25":-0.3252895772457123,"26":0.14179886877536774,"27":0.5483375787734985,"28":0.7494807839393616,"29":-0.4758093059062958,"30":-0.23181045055389404,"31":0.4489341080188751,"32":0.13500571250915527,"33":0.3116490840911865,"34":0.2871640920639038,"35":-0.2362833023071289,"36":-0.07882153987884521,"37":-0.20365117490291595,"38":-0.22145581245422363,"39":0.11261073499917984,"40":-0.043034475296735764,"41":-0.12997420132160187,"42":0.011172869242727757,"43":0.2242368906736374,"44":0.2648458182811737,"45":-0.2846705913543701,"46":-0.03156336024403572,"47":0.19896849989891052,"48":0.18260851502418518,"49":0.4395238161087036,"50":0.34160053730010986,"51":-0.31967103481292725,"52":-0.09549731761217117,"53":0.0389043465256691,"54":0.013258535414934158,"55":0.3084113299846649,"56":0.09213633090257645,"57":-0.2050189971923828,"58":-0.11091603338718414,"59":0.3220365345478058,"60":0.392877459526062,"61":-0.3520045876502991,"62":-0.12341059744358063,"63":0.26426953077316284,"64":-0.15157362818717957,"65":-0.012242189608514309,"66":-0.11422484368085861,"67":0.10713634639978409,"68":0.12870025634765625,"69":-0.2264123260974884,"70":-0.1856563538312912,"71":-0.12928028404712677,"72":0.23529377579689026,"73":0.029009006917476654,"74":-0.06341789662837982,"75":0.037215691059827805,"76":0.005444019567221403,"77":0.1389908492565155,"78":0.10018260031938553,"79":-0.10654880851507187,"80":-0.2108602225780487,"81":-0.37374016642570496,"82":-0.4546873867511749,"83":0.3324616551399231,"84":0.2332874983549118,"85":-0.9188641905784607,"86":-0.7789995074272156,"87":-0.2634676992893219,"88":0.40208137035369873,"89":0.22269563376903534,"90":0.49286383390426636,"91":-0.3365025520324707,"92":-0.44905656576156616,"93":0.2866061329841614,"94":0.66997891664505,"95":-0.3458503782749176,"96":0.15134704113006592,"97":0.604202389717102,"98":0.40752941370010376,"99":-0.5398380160331726,"100":-0.13605442643165588,"101":-0.23871566355228424,"102":-0.09722571074962616,"103":0.31751421093940735,"104":0.03492417186498642,"105":-0.2752389907836914,"106":-0.33693087100982666,"107":0.3664871156215668,"108":0.7618589997291565,"109":-0.38852787017822266,"110":-0.09413272142410278,"111":0.5057453513145447,"112":0.10498694330453873,"113":0.41928181052207947,"114":0.18904276192188263,"115":-0.25821277499198914,"116":-0.14742448925971985,"117":-0.20046643912792206,"118":-0.19395922124385834,"119":0.08212348073720932,"120":0.0839230939745903,"121":-0.20387597382068634,"122":-0.08402878791093826,"123":0.29170361161231995,"124":0.6182547807693481,"125":-0.1005348488688469,"126":0.02244025468826294,"127":0.2831430435180664,"128":-0.20960423350334167,"129":-0.17186956107616425,"130":-0.24758706986904144,"131":0.08091367036104202,"132":0.13193194568157196,"133":-0.3819236755371094,"134":-0.2582838535308838,"135":-0.1210702434182167,"136":0.2690426707267761,"137":0.13474202156066895,"138":0.18104563653469086,"139":-0.07203647494316101,"140":-0.07532581686973572,"141":0.12412739545106888,"142":0.1802559643983841,"143":-0.056624941527843475,"144":-0.06248786300420761,"145":0.0005643902695737779,"146":-0.10828962177038193,"147":0.016765834763646126,"148":0.11128454655408859,"149":-0.259127140045166,"150":-0.2600398361682892,"151":-0.02476510964334011,"152":0.1547335982322693,"153":-0.07630444318056107,"154":-0.19037459790706635,"155":0.04787203669548035,"156":0.049497224390506744,"157":0.018531199544668198,"158":0.1803504228591919,"159":0.002312200842425227,"160":-0.13681863248348236,"161":-0.5478962659835815,"162":0.36212828755378723,"163":0.4525505602359772,"164":0.0661606714129448,"165":0.6356464624404907,"166":-0.24664273858070374,"167":-0.36115583777427673,"168":-0.047210078686475754,"169":0.26624247431755066,"170":-1.2943190336227417,"171":-0.638225793838501,"172":-0.2696242034435272,"173":0.4607572555541992,"174":-0.3246505558490753,"175":-0.1429200917482376,"176":0.11824031174182892,"177":0.3514724671840668,"178":-0.0037149011623114347,"179":-0.34735745191574097,"180":-0.08255302906036377,"181":-0.0953584536910057,"182":-0.07720433175563812,"183":0.17845118045806885,"184":-0.043718062341213226,"185":-0.1588917225599289,"186":-0.2662278413772583,"187":0.26435428857803345,"188":0.3347308337688446,"189":-0.2673306465148926,"190":0.0311119481921196,"191":0.14315368235111237,"192":0.17094022035598755,"193":0.6273934245109558,"194":0.5858417749404907,"195":-0.4948406517505646,"196":-0.1958499550819397,"197":0.09495867043733597,"198":-0.05853097513318062,"199":0.5149582028388977,"200":-0.05295763909816742,"201":-0.3192848861217499,"202":0.6760827898979187,"203":0.5403392910957336,"204":0.6771693229675293,"205":-0.5814463496208191,"206":0.00040320222615264356,"207":0.40421298146247864,"208":0.19718913733959198,"209":0.5670332312583923,"210":0.11143063753843307,"211":-0.32896843552589417,"212":-0.14624182879924774,"213":-0.18074080348014832,"214":-0.23533086478710175,"215":0.08140861243009567,"216":-0.05508514866232872,"217":-0.24789030849933624,"218":-0.19851258397102356,"219":0.37029320001602173,"220":0.571967601776123,"221":-0.034963902086019516,"222":-0.0724601000547409,"223":0.3072081208229065,"224":-0.22289510071277618,"225":-0.2190483957529068,"226":-0.3638806641101837,"227":0.19731831550598145,"228":0.22496682405471802,"229":-0.5019997358322144,"230":-0.8053777813911438,"231":-0.26324692368507385,"232":0.3013699948787689,"233":0.2602749764919281,"234":0.20922616124153137,"235":-0.2464488297700882,"236":-0.376682311296463,"237":0.2550376057624817,"238":0.43924885988235474,"239":-0.3456815183162689,"240":0.10197142511606216,"241":0.36964619159698486,"242":0.2532852292060852,"243":-0.24919678270816803,"244":-0.1190994530916214,"245":0.02740737609565258,"246":0.06671223044395447,"247":0.28137895464897156,"248":0.056871574372053146,"249":-0.20679070055484772,"250":-0.04182308167219162,"251":0.25876644253730774,"252":0.284374475479126,"253":-0.2520807683467865,"254":0.03426448255777359,"255":0.2884928286075592}},"outputBias":{"rows":16,"columns":1,"weights":{"0":-0.3005639314651489,"1":-0.2654156982898712,"2":-0.1229807659983635,"3":-0.3792191743850708,"4":-0.10014057904481888,"5":0.6646633744239807,"6":0.04449429735541344,"7":-0.566292405128479,"8":-0.17928574979305267,"9":-0.5219272375106812,"10":-0.3269360661506653,"11":-0.4967118203639984,"12":-0.06369727104902267,"13":-0.47338876128196716,"14":1.082050085067749,"15":-0.24139045178890228}},"cellActivationMatrix":{"rows":16,"columns":8,"weights":{"0":-0.8742849826812744,"1":0.5327607989311218,"2":0.38605713844299316,"3":0.4784145653247833,"4":-0.3737260401248932,"5":0.064815953373909,"6":0.06946011632680893,"7":-0.012717100791633129,"8":-0.7493643760681152,"9":0.36001041531562805,"10":0.3362200856208801,"11":0.6070080399513245,"12":-0.1576906144618988,"13":0.49512165784835815,"14":0.044662922620773315,"15":-0.22086431086063385,"16":-0.9128620624542236,"17":0.4252917766571045,"18":0.34008973836898804,"19":0.7554619312286377,"20":-0.18879322707653046,"21":0.38915544748306274,"22":0.031127557158470154,"23":-0.1653555929660797,"24":0.8857623934745789,"25":-0.6383247375488281,"26":-0.2608089745044708,"27":-0.8333421349525452,"28":0.3025367558002472,"29":-0.5667054653167725,"30":-0.10590198636054993,"31":-0.01573709398508072,"32":0.7645432353019714,"33":-0.23879532516002655,"34":-0.25934362411499023,"35":-0.18762807548046112,"36":0.27497589588165283,"37":-0.014527646824717522,"38":-0.000017112204659497365,"39":-0.029568422585725784,"40":-1.15870201587677,"41":0.6764892339706421,"42":0.5101784467697144,"43":0.526507556438446,"44":-0.4586930274963379,"45":0.1855686902999878,"46":0.07248914241790771,"47":-0.2998145818710327,"48":-1.0710973739624023,"49":1.0273572206497192,"50":0.7504608035087585,"51":0.8630019426345825,"52":-0.3829171359539032,"53":-0.20289896428585052,"54":0.4407171607017517,"55":0.10434456169605255,"56":-0.9622200131416321,"57":0.6967365145683289,"58":0.34698179364204407,"59":0.787213146686554,"60":-0.4099730849266052,"61":0.2728291451931,"62":0.10352008789777756,"63":-0.026378929615020752,"64":0.6271843314170837,"65":-0.22678953409194946,"66":-0.06398411095142365,"67":-0.20600669085979462,"68":0.3926658034324646,"69":-0.23678959906101227,"70":0.042599644511938095,"71":-0.017099013552069664,"72":0.8163008093833923,"73":-0.5645501613616943,"74":-0.40541812777519226,"75":-0.5761429071426392,"76":0.2619079053401947,"77":-0.15792560577392578,"78":-0.10877063870429993,"79":0.15559121966362,"80":0.2885163128376007,"81":0.2163027673959732,"82":0.7108703851699829,"83":-0.6905052661895752,"84":0.8056303262710571,"85":-1.142232060432434,"86":0.33369675278663635,"87":0.3869142234325409,"88":-0.875824511051178,"89":0.6276988983154297,"90":0.3616827726364136,"91":0.6201959848403931,"92":-0.27004703879356384,"93":0.16113600134849548,"94":0.16481220722198486,"95":-0.1252545267343521,"96":-0.7815715670585632,"97":-0.04764591529965401,"98":0.21228380501270294,"99":0.5339204668998718,"100":-0.10546722263097763,"101":0.7124125361442566,"102":-0.052139583975076675,"103":-0.30014753341674805,"104":1.0013457536697388,"105":-0.7222956418991089,"106":-0.48699161410331726,"107":-0.738900363445282,"108":0.43561533093452454,"109":-0.2500547170639038,"110":-0.11385464668273926,"111":-0.0270172618329525,"112":1.2977721691131592,"113":-0.6627275943756104,"114":-0.6931055784225464,"115":-0.597609281539917,"116":0.3391062021255493,"117":-0.029348401352763176,"118":-0.22714169323444366,"119":0.30038967728614807,"120":-0.8367083072662354,"121":0.35642680525779724,"122":0.3037164807319641,"123":0.6829090714454651,"124":-0.30604732036590576,"125":0.570214033126831,"126":0.06650085747241974,"127":-0.12881141901016235}},"cellActivationHidden":{"rows":16,"columns":16,"weights":{"0":-0.2132197916507721,"1":-0.37105298042297363,"2":-0.39794284105300903,"3":0.3875425457954407,"4":0.29372817277908325,"5":-0.575700581073761,"6":-0.3100564181804657,"7":-0.35483551025390625,"8":0.2801097333431244,"9":0.10555005073547363,"10":0.11584670841693878,"11":-0.19479788839817047,"12":-0.38990071415901184,"13":0.4017319977283478,"14":0.7134544253349304,"15":-0.3440991938114166,"16":-0.4900466799736023,"17":-0.21481338143348694,"18":0.2695794105529785,"19":-0.0058471630327403545,"20":0.3387589156627655,"21":0.1773434430360794,"22":-0.17690782248973846,"23":0.3697492182254791,"24":0.09484317898750305,"25":0.29618266224861145,"26":0.7089350819587708,"27":-0.1574435532093048,"28":-0.025469476357102394,"29":-0.27322492003440857,"30":0.07973700016736984,"31":-0.11204449087381363,"32":-0.3637993335723877,"33":-0.5895264148712158,"34":0.1130225881934166,"35":0.34683215618133545,"36":0.1420673131942749,"37":0.2000589519739151,"38":0.12244611233472824,"39":-0.031219376251101494,"40":0.02291763946413994,"41":0.40454232692718506,"42":0.824762225151062,"43":-0.34027400612831116,"44":-0.5050673484802246,"45":-0.28456974029541016,"46":0.12327607721090317,"47":-0.34767457842826843,"48":0.5129547715187073,"49":0.33905038237571716,"50":-0.06189490854740143,"51":-0.19345968961715698,"52":-0.38205796480178833,"53":-0.25213733315467834,"54":0.14713534712791443,"55":-0.27126461267471313,"56":-0.24367694556713104,"57":-0.38228413462638855,"58":-0.42809411883354187,"59":0.2427634745836258,"60":0.41806939244270325,"61":0.27525022625923157,"62":-0.09433887898921967,"63":0.3306010365486145,"64":0.18661364912986755,"65":0.20108149945735931,"66":0.31208890676498413,"67":-0.3156526982784271,"68":-0.18406641483306885,"69":0.3729659914970398,"70":0.07439015060663223,"71":0.22847752273082733,"72":-0.14827901124954224,"73":-0.14282159507274628,"74":-0.5011398196220398,"75":0.1962694674730301,"76":0.19447265565395355,"77":-0.19537022709846497,"78":-0.46752244234085083,"79":0.28888264298439026,"80":-0.18097639083862305,"81":-0.32559308409690857,"82":-0.43825432658195496,"83":0.35961857438087463,"84":0.1472523957490921,"85":-0.14243172109127045,"86":-0.3257158100605011,"87":-0.4770064651966095,"88":-0.0777503103017807,"89":0.14972567558288574,"90":0.7113161087036133,"91":-0.27775949239730835,"92":-0.3010323643684387,"93":0.40342170000076294,"94":0.18972349166870117,"95":-0.23266328871250153,"96":-0.18722966313362122,"97":-0.5438446998596191,"98":-0.6344373822212219,"99":0.46117648482322693,"100":0.18769845366477966,"101":-0.45401230454444885,"102":-0.49596548080444336,"103":-0.5942842364311218,"104":0.10878288745880127,"105":0.18925593793392181,"106":-0.03915262967348099,"107":-0.33763521909713745,"108":-0.5775132179260254,"109":0.5774114727973938,"110":0.7285593152046204,"111":-0.5164904594421387,"112":-0.3686792552471161,"113":-0.36060819029808044,"114":-0.12223164737224579,"115":0.26552337408065796,"116":0.3221941888332367,"117":0.3444892168045044,"118":-0.06263184547424316,"119":-0.11957693845033646,"120":0.07962128520011902,"121":0.3138221204280853,"122":0.1955460011959076,"123":-0.2942369282245636,"124":-0.5379481315612793,"125":-0.1431705802679062,"126":0.06314658373594284,"127":-0.3142652213573456,"128":0.19065427780151367,"129":0.13069342076778412,"130":0.18042919039726257,"131":-0.11760243773460388,"132":-0.25568684935569763,"133":-0.10167352855205536,"134":-0.432542622089386,"135":0.06537625938653946,"136":-0.1916801482439041,"137":-0.1727626919746399,"138":-0.41683927178382874,"139":0.10061410069465637,"140":0.2584398686885834,"141":-0.1087513118982315,"142":0.21831583976745605,"143":0.2789161205291748,"144":0.19281646609306335,"145":0.2256487011909485,"146":0.3573014736175537,"147":-0.4377234876155853,"148":-0.3775736093521118,"149":0.31763890385627747,"150":0.2350396364927292,"151":0.28866493701934814,"152":-0.3037857413291931,"153":-0.24300852417945862,"154":0.031106125563383102,"155":0.2038477510213852,"156":0.34839603304862976,"157":-0.22072437405586243,"158":-0.6534765958786011,"159":0.44047051668167114,"160":-0.8897285461425781,"161":-1.5639564990997314,"162":-0.8269392251968384,"163":1.8099063634872437,"164":0.13527005910873413,"165":-0.5731253623962402,"166":-2.060673713684082,"167":-2.0807509422302246,"168":0.49062079191207886,"169":1.212407112121582,"170":2.818885326385498,"171":-1.825425624847412,"172":-1.0420122146606445,"173":2.0065383911132812,"174":0.34504035115242004,"175":-1.3349050283432007,"176":-0.34641388058662415,"177":-0.20554636418819427,"178":-0.2344745248556137,"179":0.2839212417602539,"180":0.2261108011007309,"181":0.007188182324171066,"182":0.01822119764983654,"183":0.085337795317173,"184":0.19765715301036835,"185":0.17728789150714874,"186":0.04045747220516205,"187":-0.10534735023975372,"188":-0.26230138540267944,"189":-0.04888045787811279,"190":0.2908930480480194,"191":-0.345533162355423,"192":-0.23489141464233398,"193":-0.052836816757917404,"194":0.19546259939670563,"195":-0.05206884816288948,"196":0.2366853952407837,"197":0.18414562940597534,"198":0.04029865935444832,"199":0.32140016555786133,"200":0.04614342004060745,"201":0.2310311645269394,"202":1.6019179821014404,"203":-0.20666104555130005,"204":-0.00963441003113985,"205":-0.4184795320034027,"206":-0.002627377398312092,"207":-0.0672837421298027,"208":0.26400327682495117,"209":0.5054356455802917,"210":0.3964557349681854,"211":-0.4456884264945984,"212":-0.1939183473587036,"213":-0.4095847010612488,"214":-0.053818169981241226,"215":0.12969990074634552,"216":-0.0037586975377053022,"217":-0.2618004381656647,"218":-0.16723772883415222,"219":0.213038831949234,"220":0.6071649789810181,"221":-0.062011100351810455,"222":0.01549458596855402,"223":0.37107667326927185,"224":0.21907030045986176,"225":0.28418007493019104,"226":0.5693086981773376,"227":-0.38569918274879456,"228":-0.27184146642684937,"229":0.4325716495513916,"230":0.5677736401557922,"231":0.6424930691719055,"232":-0.08092065155506134,"233":-0.274311363697052,"234":-0.8109097480773926,"235":0.2887314558029175,"236":0.2198660969734192,"237":-0.663796067237854,"238":-0.6583565473556519,"239":0.3825162351131439,"240":-0.3011750280857086,"241":-0.4009477198123932,"242":-0.012211037799715996,"243":0.13918669521808624,"244":0.2906763553619385,"245":0.016077401116490364,"246":0.22222758829593658,"247":0.14478690922260284,"248":0.2736881375312805,"249":0.38882267475128174,"250":0.6680695414543152,"251":-0.3331155776977539,"252":-0.40170472860336304,"253":-0.2728694975376129,"254":0.23752114176750183,"255":-0.2539904713630676}},"cellActivationBias":{"rows":16,"columns":1,"weights":{"0":-0.15620441734790802,"1":0.010569419711828232,"2":-0.056523483246564865,"3":0.012648692354559898,"4":0.04850255325436592,"5":-0.2415507584810257,"6":-0.29215869307518005,"7":-0.10490112751722336,"8":0.0055241710506379604,"9":0.08755116164684296,"10":0.1939714103937149,"11":-0.08385069668292999,"12":0.1795351803302765,"13":0.05828174203634262,"14":0.21544238924980164,"15":0.02217334695160389}}},{"inputMatrix":{"rows":12,"columns":16,"weights":{"0":-0.29215937852859497,"1":-0.39253467321395874,"2":-0.20360226929187775,"3":0.3488409221172333,"4":0.24104942381381989,"5":-0.23301145434379578,"6":0.02558412030339241,"7":-0.30605074763298035,"8":0.1085892841219902,"9":0.3130703568458557,"10":0.035375259816646576,"11":-0.337576687335968,"12":-0.42468926310539246,"13":0.26145127415657043,"14":0.15199854969978333,"15":-0.4012182354927063,"16":-0.10869744420051575,"17":-0.2101430743932724,"18":0.0864284560084343,"19":0.16377092897891998,"20":0.029869966208934784,"21":-0.22780480980873108,"22":0.21736770868301392,"23":0.0009874695679172873,"24":0.09006250649690628,"25":0.16266733407974243,"26":-0.5940643548965454,"27":-0.19258974492549896,"28":-0.2437245100736618,"29":-0.0013973192544654012,"30":0.1290581077337265,"31":-0.12164384871721268,"32":-0.14319731295108795,"33":-0.18561942875385284,"34":-0.13953492045402527,"35":0.28605976700782776,"36":0.2407422959804535,"37":-0.3932701647281647,"38":0.08461007475852966,"39":-0.13478301465511322,"40":0.2287699580192566,"41":0.14350208640098572,"42":-0.4098478853702545,"43":-0.28633734583854675,"44":-0.3354946970939636,"45":0.1281585842370987,"46":0.4414617121219635,"47":-0.21285638213157654,"48":-0.2294689565896988,"49":-0.4278704822063446,"50":-0.17195162177085876,"51":0.4281034767627716,"52":0.20943604409694672,"53":-0.3165401220321655,"54":0.10920866578817368,"55":-0.254226952791214,"56":0.2236849069595337,"57":0.32858598232269287,"58":0.034495700150728226,"59":-0.3977252244949341,"60":-0.5017700791358948,"61":0.29722413420677185,"62":0.2735850512981415,"63":-0.30782440304756165,"64":-0.23675672709941864,"65":-0.48090311884880066,"66":-0.1980593055486679,"67":0.3769563138484955,"68":0.20625253021717072,"69":-0.1821724772453308,"70":-0.016230836510658264,"71":-0.3160184621810913,"72":0.1270458847284317,"73":0.31463027000427246,"74":0.19745250046253204,"75":-0.44410258531570435,"76":-0.5647553205490112,"77":0.22454044222831726,"78":0.2637540102005005,"79":-0.3307962417602539,"80":-0.25535792112350464,"81":-0.3117574155330658,"82":-0.2037689983844757,"83":0.28763672709465027,"84":0.19925056397914886,"85":-0.5860710144042969,"86":0.08256121724843979,"87":-0.37190303206443787,"88":0.284606009721756,"89":0.24883604049682617,"90":-0.21626223623752594,"91":-0.2515149712562561,"92":-0.42395326495170593,"93":0.25978177785873413,"94":0.5127793550491333,"95":-0.38233286142349243,"96":-0.24961939454078674,"97":-0.5199434161186218,"98":-0.28809574246406555,"99":0.40238070487976074,"100":0.23491749167442322,"101":-0.1302359253168106,"102":0.03731260076165199,"103":-0.3252163827419281,"104":0.13417430222034454,"105":0.3471277356147766,"106":0.11491920799016953,"107":-0.3252696394920349,"108":-0.4796786308288574,"109":0.2334452122449875,"110":0.20179705321788788,"111":-0.32849156856536865,"112":-0.1888049691915512,"113":-0.28600695729255676,"114":-0.15821929275989532,"115":0.0961335152387619,"116":0.18449966609477997,"117":-0.14603838324546814,"118":0.0621713288128376,"119":-0.2342541515827179,"120":0.0977240800857544,"121":0.25530147552490234,"122":0.5179533362388611,"123":-0.224030539393425,"124":-0.14967970550060272,"125":0.12004022300243378,"126":-0.09324954450130463,"127":-0.1230330541729927,"128":-0.21506452560424805,"129":-0.29291102290153503,"130":-0.15680789947509766,"131":0.19046612083911896,"132":0.10621771216392517,"133":-0.1056046262383461,"134":0.09716211259365082,"135":-0.2050081044435501,"136":0.22045059502124786,"137":0.1753934621810913,"138":0.4062148928642273,"139":-0.37136808037757874,"140":-0.25650742650032043,"141":0.14632005989551544,"142":0.10837790369987488,"143":-0.23245742917060852,"144":-0.148646742105484,"145":-0.3379668891429901,"146":-0.17768168449401855,"147":0.22905486822128296,"148":0.1733793467283249,"149":-0.378654420375824,"150":0.33500292897224426,"151":-0.28611281514167786,"152":0.23495209217071533,"153":0.1710841953754425,"154":-0.17990007996559143,"155":-0.2433362603187561,"156":-0.38679149746894836,"157":0.11832527816295624,"158":0.22299735248088837,"159":-0.19970744848251343,"160":-0.23670051991939545,"161":-0.2562655806541443,"162":-0.10534652322530746,"163":0.23142200708389282,"164":0.10143962502479553,"165":-0.5820521712303162,"166":-0.05256787687540054,"167":-0.12764400243759155,"168":0.2981327772140503,"169":0.20823517441749573,"170":-0.4287676215171814,"171":-0.27763161063194275,"172":-0.18590253591537476,"173":0.14388512074947357,"174":0.4390612244606018,"175":-0.2228645235300064,"176":-0.24646180868148804,"177":-0.433113694190979,"178":-0.2854357361793518,"179":0.38762110471725464,"180":0.14085695147514343,"181":-0.198964923620224,"182":0.037897296249866486,"183":-0.24969539046287537,"184":0.20823660492897034,"185":0.18394920229911804,"186":0.3416388928890228,"187":-0.39307183027267456,"188":-0.5352213978767395,"189":0.2869991064071655,"190":0.10170932114124298,"191":-0.3103666305541992}},"inputHidden":{"rows":12,"columns":12,"weights":{"0":0.08547556400299072,"1":-0.019463559612631798,"2":0.08224322646856308,"3":-0.08287269622087479,"4":-0.16534437239170074,"5":-0.059137698262929916,"6":0.17520247399806976,"7":-0.10440609604120255,"8":0.09931356459856033,"9":0.11901886761188507,"10":-0.15956276655197144,"11":0.13138464093208313,"12":0.07889950275421143,"13":0.019499920308589935,"14":0.06536924839019775,"15":-0.09743503481149673,"16":-0.042907677590847015,"17":0.004082311410456896,"18":0.19581694900989532,"19":-0.38839760422706604,"20":0.27982616424560547,"21":0.10839690268039703,"22":-0.038712840527296066,"23":0.17451003193855286,"24":0.07517804205417633,"25":-0.018224453553557396,"26":0.07890371233224869,"27":-0.08788048475980759,"28":-0.02466432750225067,"29":0.00207653921097517,"30":0.12219704687595367,"31":-0.2636016011238098,"32":0.2641761302947998,"33":0.10897339880466461,"34":-0.04849313572049141,"35":0.18562553822994232,"36":0.15991637110710144,"37":-0.114397332072258,"38":0.11299601942300797,"39":-0.062307994812726974,"40":-0.18298901617527008,"41":-0.13151617348194122,"42":0.16000114381313324,"43":-0.16478385031223297,"44":0.15365304052829742,"45":0.1540709137916565,"46":-0.046524181962013245,"47":0.1034560427069664,"48":0.1429346203804016,"49":-0.1417548507452011,"50":0.1126871183514595,"51":-0.18456755578517914,"52":-0.0892859473824501,"53":-0.17848947644233704,"54":0.06652786582708359,"55":-0.20813484489917755,"56":0.12415314465761185,"57":0.18436872959136963,"58":-0.07367251068353653,"59":0.1677703857421875,"60":0.05393102765083313,"61":-0.07194618880748749,"62":-0.004577896557748318,"63":-0.021405596286058426,"64":-0.0567251592874527,"65":-0.002730695530772209,"66":0.12741120159626007,"67":-0.23461304605007172,"68":0.24351519346237183,"69":0.0586140938103199,"70":-0.09274755418300629,"71":0.10875250399112701,"72":0.1844729632139206,"73":-0.09763527661561966,"74":0.048463862389326096,"75":-0.14322885870933533,"76":-0.16182543337345123,"77":-0.08093010634183884,"78":0.06971607357263565,"79":-0.1310865432024002,"80":0.1549820750951767,"81":0.038644835352897644,"82":-0.1403454840183258,"83":0.06407036632299423,"84":0.16428044438362122,"85":-0.1136573851108551,"86":0.09008978307247162,"87":-0.1834196299314499,"88":-0.09210038185119629,"89":-0.20133644342422485,"90":-0.0010172463953495026,"91":-0.07632356137037277,"92":0.09025713801383972,"93":0.08523723483085632,"94":-0.09098456799983978,"95":-0.008073032833635807,"96":0.1086106225848198,"97":-0.19552381336688995,"98":0.07969380170106888,"99":-0.08093077689409256,"100":-0.14230497181415558,"101":-0.20123083889484406,"102":0.16918304562568665,"103":-0.016340255737304688,"104":0.13497240841388702,"105":0.16531315445899963,"106":-0.14723867177963257,"107":0.08010298013687134,"108":0.17084738612174988,"109":-0.005763811059296131,"110":0.026265040040016174,"111":-0.038450054824352264,"112":-0.14899088442325592,"113":-0.07188156992197037,"114":0.17588850855827332,"115":-0.16912563145160675,"116":0.17160670459270477,"117":0.09051477164030075,"118":-0.03833391144871712,"119":0.12585599720478058,"120":0.07079674303531647,"121":0.046414509415626526,"122":-0.022733403369784355,"123":-0.013344517908990383,"124":-0.05300773307681084,"125":-0.07501263916492462,"126":0.10187716782093048,"127":-0.22643537819385529,"128":0.27273544669151306,"129":0.11692999303340912,"130":0.027336956933140755,"131":0.19736868143081665,"132":0.04780803993344307,"133":-0.09231594949960709,"134":0.08662819862365723,"135":-0.06651456654071808,"136":-0.1539493054151535,"137":-0.15177641808986664,"138":0.10996381938457489,"139":-0.13598908483982086,"140":0.004904427099972963,"141":0.17885632812976837,"142":-0.0743463858962059,"143":0.05039114132523537}},"inputBias":{"rows":12,"columns":1,"weights":{"0":-0.20259873569011688,"1":-0.26992422342300415,"2":-0.23040033876895905,"3":-0.20688596367835999,"4":-0.18984636664390564,"5":-0.1769823133945465,"6":-0.17584286630153656,"7":-0.0031736919190734625,"8":-0.08633767813444138,"9":-0.2996688187122345,"10":-0.32621750235557556,"11":-0.12061940133571625}},"forgetMatrix":{"rows":12,"columns":16,"weights":{"0":-0.20580291748046875,"1":-0.33472466468811035,"2":-0.16358162462711334,"3":0.1948387771844864,"4":0.1279592514038086,"5":-0.15462762117385864,"6":-0.0062426612712442875,"7":-0.12088002264499664,"8":0.19267655909061432,"9":0.19363924860954285,"10":0.21189527213573456,"11":-0.35791486501693726,"12":-0.5201827883720398,"13":0.21091218292713165,"14":0.12244110554456711,"15":-0.2602866291999817,"16":-0.38954785466194153,"17":-0.5113816261291504,"18":-0.5085975527763367,"19":0.42715123295783997,"20":0.2725892663002014,"21":-0.4996277987957001,"22":0.33944734930992126,"23":-0.33091655373573303,"24":0.2563980221748352,"25":0.4244820773601532,"26":0.08939305692911148,"27":-0.4958844780921936,"28":-0.5282464623451233,"29":0.2924571633338928,"30":0.3729783892631531,"31":-0.43809735774993896,"32":-0.3812606930732727,"33":-0.49545350670814514,"34":-0.412005752325058,"35":0.3078159689903259,"36":0.21779000759124756,"37":-0.5701373815536499,"38":0.10680440068244934,"39":-0.33508023619651794,"40":0.33797958493232727,"41":0.44180336594581604,"42":0.14027009904384613,"43":-0.43971607089042664,"44":-0.6364632248878479,"45":0.18648676574230194,"46":0.3952028751373291,"47":-0.5212461948394775,"48":-0.2331455647945404,"49":-0.38108158111572266,"50":-0.26192283630371094,"51":0.22205446660518646,"52":0.22384394705295563,"53":-0.19409292936325073,"54":0.025498460978269577,"55":-0.16796068847179413,"56":0.21140532195568085,"57":0.23958469927310944,"58":0.19251662492752075,"59":-0.3374575972557068,"60":-0.5282219052314758,"61":0.15004833042621613,"62":0.21582147479057312,"63":-0.3212966322898865,"64":-0.18795499205589294,"65":-0.40780699253082275,"66":-0.2955518960952759,"67":0.22066932916641235,"68":0.15489915013313293,"69":-0.2592383623123169,"70":0.07030782848596573,"71":-0.16973719000816345,"72":0.12733271718025208,"73":0.2743082642555237,"74":0.15082786977291107,"75":-0.3627058267593384,"76":-0.421337753534317,"77":0.13172221183776855,"78":0.041730865836143494,"79":-0.35943058133125305,"80":-0.3572216331958771,"81":-0.6398345828056335,"82":-0.44979217648506165,"83":0.348579466342926,"84":0.3119065463542938,"85":-0.4647337794303894,"86":0.1885608583688736,"87":-0.313328355550766,"88":0.21616782248020172,"89":0.38522785902023315,"90":0.31748342514038086,"91":-0.49738752841949463,"92":-0.6362993717193604,"93":0.33093196153640747,"94":0.25436869263648987,"95":-0.5220144987106323,"96":-0.26562830805778503,"97":-0.3662751317024231,"98":-0.19371427595615387,"99":0.24588483572006226,"100":0.22980405390262604,"101":-0.1906273514032364,"102":0.14375178515911102,"103":-0.25114789605140686,"104":0.185247004032135,"105":0.23929058015346527,"106":0.21924151480197906,"107":-0.3336108922958374,"108":-0.31273025274276733,"109":0.10697473585605621,"110":0.08483576029539108,"111":-0.23673537373542786,"112":-0.2116166055202484,"113":-0.2589006721973419,"114":-0.11578856408596039,"115":0.06708548218011856,"116":0.1389680802822113,"117":-0.17361941933631897,"118":0.07147093862295151,"119":-0.16690783202648163,"120":0.17305171489715576,"121":0.25600090622901917,"122":0.2826608717441559,"123":-0.18053539097309113,"124":-0.13026770949363708,"125":0.13871896266937256,"126":0.09868326783180237,"127":-0.16563573479652405,"128":-0.16703753173351288,"129":-0.26870083808898926,"130":-0.12479561567306519,"131":0.16450782120227814,"132":0.15007415413856506,"133":-0.09041174501180649,"134":0.10714458674192429,"135":-0.1074758842587471,"136":0.11134060472249985,"137":0.17431822419166565,"138":0.21009574830532074,"139":-0.2785244882106781,"140":-0.15443740785121918,"141":0.12229322642087936,"142":0.08257117122411728,"143":-0.1795453429222107,"144":-0.3200450837612152,"145":-0.4378756880760193,"146":-0.33096542954444885,"147":0.2904758155345917,"148":0.18824134767055511,"149":-0.38561204075813293,"150":0.14576774835586548,"151":-0.23398399353027344,"152":0.14078287780284882,"153":0.32723259925842285,"154":0.14652372896671295,"155":-0.4162229895591736,"156":-0.4645788371562958,"157":0.14454886317253113,"158":0.14612078666687012,"159":-0.39444199204444885,"160":-0.38158488273620605,"161":-0.6694697737693787,"162":-0.511374294757843,"163":0.3969078063964844,"164":0.35841965675354004,"165":-0.5162832140922546,"166":0.07456466555595398,"167":-0.35426563024520874,"168":0.3239790201187134,"169":0.38019537925720215,"170":0.36837923526763916,"171":-0.6405197978019714,"172":-0.6362104415893555,"173":0.29643744230270386,"174":0.42114347219467163,"175":-0.5517933964729309,"176":-0.11190818250179291,"177":-0.286812424659729,"178":-0.19495739042758942,"179":0.11267821490764618,"180":0.17684803903102875,"181":-0.08561187982559204,"182":0.07502398639917374,"183":-0.10624103993177414,"184":0.21225933730602264,"185":0.2181107997894287,"186":0.13419844210147858,"187":-0.23709698021411896,"188":-0.3458104431629181,"189":0.09871424734592438,"190":0.006090683396905661,"191":-0.22231478989124298}},"forgetHidden":{"rows":12,"columns":12,"weights":{"0":0.14344584941864014,"1":-0.1807742416858673,"2":0.16472941637039185,"3":-0.1893756240606308,"4":-0.21434442698955536,"5":-0.06672460585832596,"6":0.17009639739990234,"7":-0.09586744010448456,"8":0.21255318820476532,"9":0.06890188902616501,"10":-0.1521187722682953,"11":0.10270410776138306,"12":0.141376793384552,"13":-0.01452565100044012,"14":0.030052756890654564,"15":0.03018489107489586,"16":-0.048577699810266495,"17":0.0029730480164289474,"18":0.13126550614833832,"19":-0.34690409898757935,"20":0.20854069292545319,"21":-0.025494134053587914,"22":0.1232188418507576,"23":0.12378130108118057,"24":0.02249429188668728,"25":0.01502477191388607,"26":-0.023147324100136757,"27":-0.044716402888298035,"28":-0.09834686666727066,"29":-0.0972679927945137,"30":0.05574478581547737,"31":-0.14309640228748322,"32":0.14557424187660217,"33":0.11017083376646042,"34":0.04294062778353691,"35":0.12070327997207642,"36":0.057386599481105804,"37":-0.08792834728956223,"38":0.06654543429613113,"39":-0.05862553417682648,"40":-0.18743158876895905,"41":-0.11105336993932724,"42":0.1594763845205307,"43":-0.1252504289150238,"44":0.08222009986639023,"45":0.0793800801038742,"46":-0.035113777965307236,"47":0.1654580682516098,"48":0.14333434402942657,"49":-0.1537146419286728,"50":0.15952841937541962,"51":-0.15301711857318878,"52":-0.18865936994552612,"53":-0.09361912310123444,"54":0.1365193873643875,"55":-0.10702887922525406,"56":0.1520574986934662,"57":0.13162055611610413,"58":-0.16268770396709442,"59":0.10933767259120941,"60":0.10679545998573303,"61":-0.1040630042552948,"62":0.09846773743629456,"63":-0.07506918162107468,"64":-0.15822601318359375,"65":-0.031838558614254,"66":0.04510882496833801,"67":-0.12977491319179535,"68":0.10718268901109695,"69":0.1475890427827835,"70":-0.05478551238775253,"71":0.1597045660018921,"72":0.14103630185127258,"73":-0.15141378343105316,"74":0.2007170021533966,"75":-0.13272084295749664,"76":-0.12710276246070862,"77":-0.13610534369945526,"78":0.11697728931903839,"79":-0.08006266504526138,"80":0.08751595765352249,"81":0.21630573272705078,"82":-0.07899226248264313,"83":0.159000426530838,"84":0.11021370440721512,"85":-0.0656072273850441,"86":0.15106843411922455,"87":-0.21678754687309265,"88":-0.056750837713479996,"89":-0.17295417189598083,"90":0.12963204085826874,"91":-0.02699144184589386,"92":0.14353638887405396,"93":0.16027650237083435,"94":-0.06274909526109695,"95":0.1443205177783966,"96":0.1643800437450409,"97":-0.22388538718223572,"98":0.09089141339063644,"99":-0.07628891617059708,"100":-0.11361861228942871,"101":-0.1249101310968399,"102":0.1649957001209259,"103":-0.17464345693588257,"104":0.05857233330607414,"105":0.22201061248779297,"106":-0.17125819623470306,"107":0.12466976046562195,"108":0.12507228553295135,"109":0.0032942069228738546,"110":0.08966868370771408,"111":-0.09253357350826263,"112":-0.07149754464626312,"113":-0.15012118220329285,"114":0.10508223623037338,"115":-0.256293386220932,"116":0.16997097432613373,"117":0.1068972647190094,"118":-0.049852773547172546,"119":0.09404018521308899,"120":0.10296512395143509,"121":0.010508691892027855,"122":-0.05785197764635086,"123":-0.025622379034757614,"124":-0.06642375886440277,"125":0.06341078132390976,"126":0.15559208393096924,"127":-0.18971194326877594,"128":0.09171628952026367,"129":0.05219095200300217,"130":0.010668777860701084,"131":0.15468455851078033,"132":0.09487177431583405,"133":-0.08192458003759384,"134":0.11535052210092545,"135":-0.1200973242521286,"136":-0.15698324143886566,"137":-0.07366009801626205,"138":0.12745098769664764,"139":-0.1663369983434677,"140":0.15979334712028503,"141":0.18173035979270935,"142":-0.09399153292179108,"143":0.13398434221744537}},"forgetBias":{"rows":12,"columns":1,"weights":{"0":0,"1":0,"2":0,"3":0,"4":0,"5":0,"6":0,"7":0,"8":0,"9":0,"10":0,"11":0}},"outputMatrix":{"rows":12,"columns":16,"weights":{"0":-0.18223245441913605,"1":-0.4757916033267975,"2":-0.21400542557239532,"3":0.3654952645301819,"4":0.11162462085485458,"5":-0.17220178246498108,"6":0.1059875562787056,"7":-0.3461782932281494,"8":0.19877098500728607,"9":0.2920069396495819,"10":0.14897586405277252,"11":-0.35580959916114807,"12":-0.5113869309425354,"13":0.20148536562919617,"14":0.1543377935886383,"15":-0.4347066879272461,"16":-0.22888708114624023,"17":-0.2790622115135193,"18":-0.20640651881694794,"19":0.24695363640785217,"20":0.07263153046369553,"21":-0.312301367521286,"22":0.34401100873947144,"23":-0.2572977840900421,"24":0.244966059923172,"25":0.21659263968467712,"26":-0.2547886371612549,"27":-0.3535167872905731,"28":-0.3748241364955902,"29":0.10832470655441284,"30":0.1413695067167282,"31":-0.2575303912162781,"32":-0.3410033881664276,"33":-0.4260285198688507,"34":-0.32396164536476135,"35":0.31082192063331604,"36":0.1928224414587021,"37":-0.4798303246498108,"38":0.14599786698818207,"39":-0.34896335005760193,"40":0.3089797794818878,"41":0.25569015741348267,"42":-0.10440913587808609,"43":-0.32919633388519287,"44":-0.49159228801727295,"45":0.21780361235141754,"46":0.5040984749794006,"47":-0.37868982553482056,"48":-0.2202681303024292,"49":-0.4030984342098236,"50":-0.2883053123950958,"51":0.4136464297771454,"52":0.15030430257320404,"53":-0.37165480852127075,"54":0.16610999405384064,"55":-0.36124294996261597,"56":0.21518513560295105,"57":0.28744441270828247,"58":0.0982426181435585,"59":-0.2920984923839569,"60":-0.5177818536758423,"61":0.1978553682565689,"62":0.2126639187335968,"63":-0.29100361466407776,"64":-0.277434378862381,"65":-0.45598846673965454,"66":-0.3380802869796753,"67":0.45418238639831543,"68":0.19830287992954254,"69":-0.2832351624965668,"70":0.07007621228694916,"71":-0.2917366921901703,"72":0.1424199342727661,"73":0.29697883129119873,"74":0.21163678169250488,"75":-0.34555384516716003,"76":-0.48217085003852844,"77":0.23779477179050446,"78":0.23276837170124054,"79":-0.3980966806411743,"80":-0.3411136269569397,"81":-0.3648844361305237,"82":-0.29880112409591675,"83":0.45953959226608276,"84":0.15712720155715942,"85":-0.6793031096458435,"86":0.03841645270586014,"87":-0.30821481347084045,"88":0.19284206628799438,"89":0.31122326850891113,"90":0.0035846768878400326,"91":-0.43706926703453064,"92":-0.5559322237968445,"93":0.33447617292404175,"94":0.5761387348175049,"95":-0.38194575905799866,"96":-0.20860041677951813,"97":-0.41059988737106323,"98":-0.2340526431798935,"99":0.4078998863697052,"100":0.20574691891670227,"101":-0.2582857608795166,"102":0.14026108384132385,"103":-0.32299381494522095,"104":0.20318593084812164,"105":0.342469185590744,"106":0.22361493110656738,"107":-0.46129247546195984,"108":-0.4877851903438568,"109":0.3381475508213043,"110":0.12345190346240997,"111":-0.43510550260543823,"112":-0.16145171225070953,"113":-0.23766563832759857,"114":-0.1811283975839615,"115":0.17449606955051422,"116":0.17152979969978333,"117":-0.15492117404937744,"118":-0.12706002593040466,"119":-0.16549140214920044,"120":0.1984516680240631,"121":0.2559816539287567,"122":0.5611410737037659,"123":-0.26922711730003357,"124":-0.22320398688316345,"125":0.20628401637077332,"126":0.026201197877526283,"127":-0.23208127915859222,"128":-0.19139449298381805,"129":-0.3425416648387909,"130":-0.15007372200489044,"131":0.19923272728919983,"132":0.22372210025787354,"133":-0.14707550406455994,"134":0.037006914615631104,"135":-0.21976251900196075,"136":0.1334429234266281,"137":0.18768782913684845,"138":0.3877982497215271,"139":-0.23182600736618042,"140":-0.32538437843322754,"141":0.1644359976053238,"142":0.06300955265760422,"143":-0.2570456862449646,"144":-0.328031063079834,"145":-0.3664308488368988,"146":-0.19024623930454254,"147":0.40719640254974365,"148":0.14880815148353577,"149":-0.34634092450141907,"150":0.2636113166809082,"151":-0.27792495489120483,"152":0.2929672300815582,"153":0.2360847443342209,"154":-0.09981923550367355,"155":-0.33999764919281006,"156":-0.5013987421989441,"157":0.2376357465982437,"158":0.28667446970939636,"159":-0.41572853922843933,"160":-0.2870877981185913,"161":-0.3500153422355652,"162":-0.33674192428588867,"163":0.29841625690460205,"164":0.23074285686016083,"165":-0.6869927644729614,"166":-0.08159885555505753,"167":-0.3436940610408783,"168":0.30381038784980774,"169":0.3080568015575409,"170":-0.16461493074893951,"171":-0.28587445616722107,"172":-0.4193931221961975,"173":0.22896668314933777,"174":0.5657896995544434,"175":-0.352692186832428,"176":-0.18345047533512115,"177":-0.5259883403778076,"178":-0.1668613702058792,"179":0.3874809741973877,"180":0.15960462391376495,"181":-0.1334952712059021,"182":0.09755545109510422,"183":-0.2297898679971695,"184":0.22291743755340576,"185":0.22474226355552673,"186":0.3174811601638794,"187":-0.3117018938064575,"188":-0.4692748785018921,"189":0.26735496520996094,"190":0.01871076226234436,"191":-0.29651257395744324}},"outputHidden":{"rows":12,"columns":12,"weights":{"0":0.04953644797205925,"1":-0.023225804790854454,"2":0.1301567405462265,"3":-0.12135004252195358,"4":-0.17900928854942322,"5":-0.08717697858810425,"6":0.17276348173618317,"7":-0.08679243177175522,"8":0.11276964098215103,"9":0.1811131238937378,"10":-0.14299024641513824,"11":0.04574265331029892,"12":0.023653993383049965,"13":0.01517434511333704,"14":-0.04500003904104233,"15":0.00013799920270685107,"16":-0.03475765883922577,"17":0.08375334739685059,"18":0.049867577850818634,"19":-0.31216537952423096,"20":0.20569391548633575,"21":0.05136803910136223,"22":0.13692228496074677,"23":0.14894098043441772,"24":0.048189595341682434,"25":0.03274516016244888,"26":-0.02188037894666195,"27":-0.06363289058208466,"28":-0.02929295413196087,"29":-0.09294715523719788,"30":0.04903841018676758,"31":-0.27474015951156616,"32":0.12576960027217865,"33":0.11889609694480896,"34":0.038762133568525314,"35":0.20622077584266663,"36":0.18468648195266724,"37":-0.030359327793121338,"38":0.15629780292510986,"39":-0.16436217725276947,"40":-0.1275612711906433,"41":-0.13119348883628845,"42":0.097548708319664,"43":-0.09643811732530594,"44":0.20767460763454437,"45":0.04142940416932106,"46":-0.06463918089866638,"47":0.20330506563186646,"48":0.11674509197473526,"49":-0.12236768007278442,"50":0.13020792603492737,"51":-0.06871654838323593,"52":-0.1414383053779602,"53":-0.11208121478557587,"54":0.09290755540132523,"55":-0.10036884248256683,"56":0.1635551005601883,"57":0.05209099128842354,"58":-0.09033017605543137,"59":0.12492440640926361,"60":0.06995948404073715,"61":-0.056065455079078674,"62":-0.029870353639125824,"63":-0.10474395006895065,"64":-0.14359228312969208,"65":-0.03877035155892372,"66":0.0909898430109024,"67":-0.28382328152656555,"68":0.1024259477853775,"69":0.006145933642983437,"70":-0.03367806226015091,"71":0.20312459766864777,"72":0.16103778779506683,"73":-0.06764539331197739,"74":0.14485323429107666,"75":-0.11157847940921783,"76":-0.140920490026474,"77":-0.08121959865093231,"78":0.06080818921327591,"79":-0.029044397175312042,"80":0.06371629983186722,"81":0.11772655695676804,"82":-0.15303322672843933,"83":0.0847843661904335,"84":0.14797142148017883,"85":-0.08725512772798538,"86":0.19428786635398865,"87":-0.026633048430085182,"88":-0.07672248035669327,"89":-0.07858610153198242,"90":-0.014334360137581825,"91":-0.07939621806144714,"92":0.029975520446896553,"93":0.12370974570512772,"94":-0.11273057758808136,"95":0.0650598481297493,"96":0.15486180782318115,"97":-0.18633675575256348,"98":0.18156009912490845,"99":-0.13412430882453918,"100":-0.13712970912456512,"101":-0.11969894170761108,"102":0.032358113676309586,"103":-0.11118210107088089,"104":0.017119182273745537,"105":0.11539149284362793,"106":-0.15714122354984283,"107":0.14325673878192902,"108":0.16535384953022003,"109":-0.08248887956142426,"110":0.12330655008554459,"111":-0.0980793833732605,"112":-0.12146425992250443,"113":-0.03599366918206215,"114":0.11940312385559082,"115":-0.22697052359580994,"116":0.08214063197374344,"117":0.007739237044006586,"118":0.010808486491441727,"119":0.09399013966321945,"120":0.03744741901755333,"121":0.09231209009885788,"122":0.018705274909734726,"123":0.006353945005685091,"124":-0.0817326009273529,"125":-0.0026880463119596243,"126":0.07401904463768005,"127":-0.24739550054073334,"128":0.1940011978149414,"129":0.07718586176633835,"130":0.11156067252159119,"131":0.09401114284992218,"132":0.11722566932439804,"133":-0.056018438190221786,"134":0.09663941711187363,"135":-0.08406204730272293,"136":-0.1449824869632721,"137":-0.18941202759742737,"138":0.15245826542377472,"139":-0.12573982775211334,"140":0.10945331305265427,"141":0.18533049523830414,"142":-0.13875289261341095,"143":0.12379102408885956}},"outputBias":{"rows":12,"columns":1,"weights":{"0":-0.20042046904563904,"1":-0.10050936788320541,"2":-0.162287175655365,"3":-0.20094680786132812,"4":-0.18787100911140442,"5":-0.14075154066085815,"6":-0.17420810461044312,"7":-0.001270693028345704,"8":-0.08596937358379364,"9":-0.2703196704387665,"10":-0.2421392798423767,"11":-0.12023699283599854}},"cellActivationMatrix":{"rows":12,"columns":16,"weights":{"0":0.17632219195365906,"1":0.3530423939228058,"2":0.2946871519088745,"3":-0.14459656178951263,"4":-0.07396512478590012,"5":0.36627545952796936,"6":0.4317943751811981,"7":0.19105465710163116,"8":-0.05956793576478958,"9":-0.23787689208984375,"10":-0.3715619146823883,"11":0.37881213426589966,"12":0.18500341475009918,"13":-0.25237447023391724,"14":-0.3467804789543152,"15":0.2586367130279541,"16":-0.5901157259941101,"17":-0.6930692791938782,"18":-0.6652743220329285,"19":0.8337326049804688,"20":0.3871632218360901,"21":-0.7247231602668762,"22":-1.0759457349777222,"23":-0.9819107055664062,"24":0.2839546501636505,"25":0.5166923403739929,"26":0.023116257041692734,"27":-0.55669766664505,"28":-0.7353038191795349,"29":0.8753460049629211,"30":0.8250288963317871,"31":-0.7704918384552002,"32":0.39271020889282227,"33":0.5007250308990479,"34":0.5919581055641174,"35":-0.5577404499053955,"36":-0.24520161747932434,"37":0.5834010243415833,"38":1.027080774307251,"39":0.6391454935073853,"40":-0.22192107141017914,"41":-0.4224202036857605,"42":-0.1496066004037857,"43":0.543731153011322,"44":0.488008052110672,"45":-0.6791058778762817,"46":-0.7234014272689819,"47":0.5421046614646912,"48":-0.23361966013908386,"49":-0.3182375133037567,"50":-0.3109261989593506,"51":0.30287426710128784,"52":0.059383325278759,"53":-0.4431113600730896,"54":-0.6582350134849548,"55":-0.4093823730945587,"56":0.04375080391764641,"57":0.3033362925052643,"58":0.38992640376091003,"59":-0.2672215700149536,"60":-0.23254111409187317,"61":0.4272526502609253,"62":0.44212889671325684,"63":-0.2723864018917084,"64":-0.18281668424606323,"65":-0.19914144277572632,"66":-0.22312898933887482,"67":0.06845439970493317,"68":0.053971078246831894,"69":-0.30670860409736633,"70":-0.5985466837882996,"71":-0.25639665126800537,"72":0.023195765912532806,"73":0.13337013125419617,"74":0.3532143235206604,"75":-0.2028331160545349,"76":-0.20199105143547058,"77":0.1943908929824829,"78":0.38095012307167053,"79":-0.280598521232605,"80":-0.36688393354415894,"81":-0.4839819371700287,"82":-0.4774586260318756,"83":0.5621971487998962,"84":0.19176241755485535,"85":-0.5821467041969299,"86":-0.886020839214325,"87":-0.642521321773529,"88":0.11276637017726898,"89":0.3414326012134552,"90":0.09904361516237259,"91":-0.4092310667037964,"92":-0.4168184995651245,"93":0.6117361187934875,"94":0.7004973888397217,"95":-0.4901447296142578,"96":0.1931374967098236,"97":0.22278688848018646,"98":0.20585308969020844,"99":-0.09328920394182205,"100":-0.16423699259757996,"101":0.254749059677124,"102":0.43796494603157043,"103":0.2455945611000061,"104":-0.011185632087290287,"105":-0.30692294239997864,"106":-0.4683215320110321,"107":0.35109230875968933,"108":0.1592426300048828,"109":-0.29800909757614136,"110":-0.24155472218990326,"111":0.2208399623632431,"112":-0.009138394147157669,"113":0.1664276123046875,"114":0.05275539681315422,"115":-0.3086753487586975,"116":-0.040730588138103485,"117":0.2539946138858795,"118":-0.025493863970041275,"119":0.1935391128063202,"120":-0.04195709526538849,"121":0.0273110494017601,"122":1.2504180669784546,"123":0.0665227547287941,"124":0.21949155628681183,"125":-0.038464102894067764,"126":-0.3764605224132538,"127":0.12162266671657562,"128":0.02835952304303646,"129":-0.07916120439767838,"130":0.20863735675811768,"131":0.18372176587581635,"132":-0.06761988252401352,"133":0.0610196590423584,"134":0.14462466537952423,"135":-0.017328517511487007,"136":0.0018232319271191955,"137":-0.06402160227298737,"138":-0.8087756633758545,"139":0.13252440094947815,"140":-0.17621976137161255,"141":-0.16980773210525513,"142":0.08815320581197739,"143":-0.004079464823007584,"144":0.3926525115966797,"145":0.5464053750038147,"146":0.5207944512367249,"147":-0.4934399127960205,"148":-0.1525457501411438,"149":0.45742863416671753,"150":0.5756158232688904,"151":0.5491054058074951,"152":-0.1691611111164093,"153":-0.3208402395248413,"154":-0.2745252251625061,"155":0.5064393877983093,"156":0.4783611595630646,"157":-0.46564555168151855,"158":-0.5458666086196899,"159":0.4448035955429077,"160":-0.4029957056045532,"161":-0.5110077261924744,"162":-0.5610299110412598,"163":0.6201189756393433,"164":0.21004006266593933,"165":-0.7133161425590515,"166":-1.0299084186553955,"167":-0.740605354309082,"168":0.20795580744743347,"169":0.39008501172065735,"170":0.07545043528079987,"171":-0.45642557740211487,"172":-0.4964684247970581,"173":0.766600489616394,"174":0.9704922437667847,"175":-0.5210702419281006,"176":0.04299212992191315,"177":0.14430707693099976,"178":0.2385345995426178,"179":0.04336705431342125,"180":-0.0054406700655817986,"181":0.14770811796188354,"182":0.33004748821258545,"183":-0.023982929065823555,"184":-0.06002773344516754,"185":-0.17618601024150848,"186":-0.6867280006408691,"187":0.13231989741325378,"188":0.08200104534626007,"189":-0.23249875009059906,"190":-0.04619233310222626,"191":0.11417117714881897}},"cellActivationHidden":{"rows":12,"columns":12,"weights":{"0":-0.009661671705543995,"1":0.18523283302783966,"2":-0.11932645738124847,"3":0.019647296518087387,"4":0.034984271973371506,"5":0.08647912740707397,"6":-0.0560980923473835,"7":-0.061980653554201126,"8":-0.018891170620918274,"9":-0.15992124378681183,"10":0.1147342324256897,"11":-0.037810344249010086,"12":0.1989513635635376,"13":-0.35192012786865234,"14":0.31813791394233704,"15":-0.15989120304584503,"16":-0.14752312004566193,"17":-0.21063220500946045,"18":0.20257724821567535,"19":0.010486649349331856,"20":0.030697988346219063,"21":0.20109006762504578,"22":-0.24238917231559753,"23":0.05625613406300545,"24":-0.15711872279644012,"25":0.2541472613811493,"26":-0.1848292052745819,"27":0.15791280567646027,"28":0.17522688210010529,"29":0.19813133776187897,"30":-0.1398225575685501,"31":0.06746415793895721,"32":-0.08535178005695343,"33":-0.21882010996341705,"34":0.2535785436630249,"35":-0.08767636120319366,"36":0.08118581026792526,"37":-0.23077595233917236,"38":0.18957027792930603,"39":-0.13764764368534088,"40":0.02149740420281887,"41":-0.11183716356754303,"42":0.054198604077100754,"43":0.0339011512696743,"44":0.08561350405216217,"45":0.04500513896346092,"46":-0.16090582311153412,"47":0.09620419144630432,"48":0.07980494946241379,"49":-0.13406072556972504,"50":0.052015602588653564,"51":-0.0214249137789011,"52":-0.009144242852926254,"53":-0.022598853334784508,"54":-0.002480132272467017,"55":-0.013015219010412693,"56":0.01839047484099865,"57":0.04441303387284279,"58":-0.17424610257148743,"59":0.10198098421096802,"60":0.14367066323757172,"61":-0.36794722080230713,"62":0.23008035123348236,"63":-0.20699743926525116,"64":-0.13653314113616943,"65":-0.1341453194618225,"66":0.1304328888654709,"67":-0.06660584360361099,"68":0.0004977436037734151,"69":0.139612078666687,"70":-0.2324841171503067,"71":0.008830931968986988,"72":0.011156916618347168,"73":0.09693650156259537,"74":-0.05314144864678383,"75":0.10205478966236115,"76":-0.031023574993014336,"77":0.06936032325029373,"78":-0.04657968506217003,"79":0.051881659775972366,"80":0.03484761714935303,"81":-0.04952569678425789,"82":0.08787331730127335,"83":-0.001299266703426838,"84":0.028174664825201035,"85":0.011297653429210186,"86":0.02348802611231804,"87":0.047082964330911636,"88":-0.016162430867552757,"89":0.034018076956272125,"90":-0.03318512439727783,"91":0.12977997958660126,"92":-0.06306630373001099,"93":-0.060676898807287216,"94":0.05229811742901802,"95":-0.10395780950784683,"96":0.031367938965559006,"97":0.03381804749369621,"98":-0.06769444793462753,"99":0.01357956137508154,"100":0.07062486559152603,"101":-0.008231854997575283,"102":0.07066913694143295,"103":-0.1001523807644844,"104":-0.06087622791528702,"105":-0.0023382771760225296,"106":0.11243385076522827,"107":0.07308371365070343,"108":-0.14239610731601715,"109":0.2914178967475891,"110":-0.1739765703678131,"111":0.06381548196077347,"112":0.025928454473614693,"113":0.15912090241909027,"114":0.009645477868616581,"115":-0.00907986145466566,"116":-0.010868407785892487,"117":-0.11888239532709122,"118":0.26874569058418274,"119":-0.11753019690513611,"120":0.15455392003059387,"121":-0.42235463857650757,"122":0.3867954909801483,"123":-0.2480456531047821,"124":-0.20106127858161926,"125":-0.22366546094417572,"126":0.2030676305294037,"127":0.038126833736896515,"128":0.024477532133460045,"129":0.2704619765281677,"130":-0.32995885610580444,"131":0.02989022247493267,"132":-0.03827571123838425,"133":0.13446374237537384,"134":-0.04532017931342125,"135":-0.04503529518842697,"136":0.04167002812027931,"137":0.00636953953653574,"138":0.02328314259648323,"139":0.04272104799747467,"140":-0.010070114396512508,"141":-0.06786007434129715,"142":0.07850002497434616,"143":0.0118714589625597}},"cellActivationBias":{"rows":12,"columns":1,"weights":{"0":-0.14425428211688995,"1":0.40885624289512634,"2":-0.26885786652565,"3":0.15223199129104614,"4":0.12552236020565033,"5":0.22253505885601044,"6":-0.14023230969905853,"7":0.10430209338665009,"8":-0.132569819688797,"9":-0.2265085130929947,"10":0.2518579661846161,"11":-0.13853785395622253}}},{"inputMatrix":{"rows":8,"columns":12,"weights":{"0":0.0037939525209367275,"1":-0.10393819957971573,"2":0.010618174448609352,"3":-0.0774550586938858,"4":0.0004930428112857044,"5":0.01888502761721611,"6":0.027553563937544823,"7":-0.0541754886507988,"8":0.051715850830078125,"9":0.0744902491569519,"10":-0.0038628680631518364,"11":0.06018729507923126,"12":-0.031176749616861343,"13":-0.0028278392273932695,"14":0.07268637418746948,"15":0.020356208086013794,"16":-0.009062908589839935,"17":-0.04582222178578377,"18":-0.03787362203001976,"19":-0.015659544616937637,"20":-0.027687467634677887,"21":-0.051957692950963974,"22":-0.01824217475950718,"23":0.03545280545949936,"24":-0.05281180143356323,"25":-0.015098516829311848,"26":0.05667152255773544,"27":0.07252925634384155,"28":0.0704396590590477,"29":-0.06310658901929855,"30":-0.0714545026421547,"31":0.03884844854474068,"32":0.004100683610886335,"33":-0.09098020195960999,"34":0.00833801832050085,"35":-0.06439230591058731,"36":-0.06957515329122543,"37":-0.12296844273805618,"38":0.01417997945100069,"39":0.007949336431920528,"40":-0.009934657253324986,"41":-0.00942416675388813,"42":0.016946041956543922,"43":-0.04286140576004982,"44":0.04137468710541725,"45":-0.004080653190612793,"46":-0.05354294180870056,"47":-0.07204589247703552,"48":-0.008029045537114143,"49":-0.06836196035146713,"50":0.14761953055858612,"51":0.019070429727435112,"52":-0.07764224708080292,"53":-0.013973839581012726,"54":0.019955825060606003,"55":-0.068179190158844,"56":0.06216227263212204,"57":0.10158868879079819,"58":-0.0025914658326655626,"59":-0.004067501053214073,"60":-0.0015253355959430337,"61":-0.12107203155755997,"62":0.017693141475319862,"63":-0.01424653921276331,"64":-0.06547635793685913,"65":-0.010027212090790272,"66":0.03220123052597046,"67":-0.07323329895734787,"68":-0.020416727289557457,"69":-0.01994575932621956,"70":-0.11533640325069427,"71":-0.020343158394098282,"72":0.01247736718505621,"73":-0.14131467044353485,"74":0.04685280844569206,"75":-0.008527358062565327,"76":-0.006979716010391712,"77":0.014100641012191772,"78":0.08475349843502045,"79":-0.07552555203437805,"80":-0.002401067642495036,"81":0.02251409739255905,"82":-0.006204537581652403,"83":-0.04197364300489426,"84":-0.007629085332155228,"85":-0.13001900911331177,"86":-0.03188200294971466,"87":0.03670036792755127,"88":-0.00341008766554296,"89":0.03147943690419197,"90":-0.09575602412223816,"91":-0.019820192828774452,"92":-0.03732027858495712,"93":0.06010708957910538,"94":-0.08096430450677872,"95":0.017765184864401817}},"inputHidden":{"rows":8,"columns":8,"weights":{"0":0.08443914353847504,"1":0.012088535353541374,"2":-0.04591800272464752,"3":0.06557149440050125,"4":0.05564650148153305,"5":0.03034193627536297,"6":0.04407758265733719,"7":0.04237040504813194,"8":-0.05491328239440918,"9":-0.01116066612303257,"10":-0.02430606819689274,"11":-0.0653601586818695,"12":0.02520156279206276,"13":-0.007698304019868374,"14":0.030316371470689774,"15":-0.08586384356021881,"16":-0.02923334389925003,"17":-0.09681738168001175,"18":-0.05093569681048393,"19":-0.021540099754929543,"20":0.0064944070763885975,"21":-0.09559746086597443,"22":-0.06523095071315765,"23":-0.049789413809776306,"24":0.005402627866715193,"25":-0.005000847391784191,"26":-0.04151483625173569,"27":0.03333095461130142,"28":0.004652085714042187,"29":-0.09763401001691818,"30":0.07830297946929932,"31":0.04400121420621872,"32":0.0013649555621668696,"33":-0.058450546115636826,"34":-0.030732057988643646,"35":0.0972164124250412,"36":-0.014316635206341743,"37":-0.08139771223068237,"38":0.0002954886294901371,"39":-0.05270850285887718,"40":0.01905771903693676,"41":0.06842470169067383,"42":0.022470152005553246,"43":0.0036605908535420895,"44":0.03413952514529228,"45":-0.02675565890967846,"46":0.05738053470849991,"47":-0.0730423554778099,"48":0.0028511148411780596,"49":-0.024168895557522774,"50":0.03260708600282669,"51":0.0733647421002388,"52":0.03390975669026375,"53":0.031931936740875244,"54":-0.003545231418684125,"55":0.038659773766994476,"56":-0.04547901824116707,"57":0.03962353244423866,"58":0.0017965597799047828,"59":-0.02272508479654789,"60":0.0058502149768173695,"61":0.012733298353850842,"62":0.04543229565024376,"63":-0.09382186084985733}},"inputBias":{"rows":8,"columns":1,"weights":{"0":-0.11651413142681122,"1":-0.1217438280582428,"2":-0.09639532119035721,"3":0.006823269184678793,"4":0.004611050710082054,"5":-0.06026137247681618,"6":-0.035158466547727585,"7":0.1357736587524414}},"forgetMatrix":{"rows":8,"columns":12,"weights":{"0":0.06177080050110817,"1":-0.1204102635383606,"2":0.15719984471797943,"3":-0.08334965258836746,"4":-0.03816328942775726,"5":-0.15549369156360626,"6":0.02971363626420498,"7":0.012976515106856823,"8":-0.019540011882781982,"9":0.08380468934774399,"10":-0.042991120368242264,"11":-0.016851680353283882,"12":0.09497480094432831,"13":-0.16398879885673523,"14":0.0566219761967659,"15":-0.07372421026229858,"16":-0.050162479281425476,"17":-0.05996972322463989,"18":0.012768073938786983,"19":-0.025608258321881294,"20":0.055615413933992386,"21":0.04985920712351799,"22":-0.01473461277782917,"23":0.09021817892789841,"24":-0.03987915441393852,"25":-0.01390791218727827,"26":0.0335506908595562,"27":-0.07777788490056992,"28":-0.06437992304563522,"29":-0.10437466949224472,"30":-0.05430668219923973,"31":-0.0742124617099762,"32":0.0658741146326065,"33":-0.03715811297297478,"34":-0.1240336000919342,"35":0.03538880869746208,"36":0.08308377861976624,"37":-0.16915102303028107,"38":0.1635752022266388,"39":0.015903031453490257,"40":-0.0576896071434021,"41":-0.09126365929841995,"42":0.07659916579723358,"43":-0.08771904557943344,"44":0.08175123482942581,"45":0.049531131982803345,"46":-0.10167331248521805,"47":-0.038552019745111465,"48":0.03918685391545296,"49":-0.11605405807495117,"50":0.12075401097536087,"51":-0.13067471981048584,"52":-0.025441976264119148,"53":-0.168513223528862,"54":0.10284793376922607,"55":0.008051003329455853,"56":0.011823241598904133,"57":0.11662676185369492,"58":-0.1397697776556015,"59":0.060314781963825226,"60":0.13702093064785004,"61":-0.19228750467300415,"62":0.16909058392047882,"63":-0.07454336434602737,"64":-0.09528438746929169,"65":-0.12123747915029526,"66":0.004370460752397776,"67":-0.04261477664113045,"68":0.13100914657115936,"69":0.15099389851093292,"70":-0.1234741061925888,"71":0.11571096628904343,"72":0.01867685280740261,"73":-0.1349048614501953,"74":0.11562307924032211,"75":-0.13826461136341095,"76":-0.06665031611919403,"77":-0.16135342419147491,"78":0.09105873852968216,"79":-0.03611055761575699,"80":0.05091747269034386,"81":0.12143789976835251,"82":-0.190686896443367,"83":0.11718901246786118,"84":0.01956969127058983,"85":-0.1589357554912567,"86":0.11424185335636139,"87":-0.02123480848968029,"88":0.04743707925081253,"89":-0.07779490947723389,"90":-0.05041186138987541,"91":-0.011649521999061108,"92":0.07699978351593018,"93":-0.04768553748726845,"94":-0.10377576947212219,"95":0.04592933505773544}},"forgetHidden":{"rows":8,"columns":8,"weights":{"0":0.008898363448679447,"1":-0.04731497913599014,"2":-0.05595647171139717,"3":0.030399197712540627,"4":-0.008939669467508793,"5":-0.047665394842624664,"6":0.07474401593208313,"7":-0.011239890940487385,"8":-0.04493695870041847,"9":-0.05877366289496422,"10":0.010604084469377995,"11":0.05476398766040802,"12":0.03126917779445648,"13":0.04310193285346031,"14":-0.0238815788179636,"15":-0.05534501373767853,"16":-0.013244761154055595,"17":0.007675942033529282,"18":-0.03390270099043846,"19":0.05307167395949364,"20":-0.06362316012382507,"21":-0.08580392599105835,"22":-0.005837898701429367,"23":-0.07336997240781784,"24":-0.02966306358575821,"25":-0.039460498839616776,"26":-0.0019952303264290094,"27":-0.04580038785934448,"28":0.08771113306283951,"29":-0.08099409937858582,"30":0.054574284702539444,"31":0.04641992971301079,"32":0.017748335376381874,"33":-0.04617864266037941,"34":0.030198175460100174,"35":-0.0025185714475810528,"36":-0.03466181084513664,"37":-0.06317489594221115,"38":-0.048870500177145004,"39":0.0038677307311445475,"40":0.06231362372636795,"41":0.020229578018188477,"42":0.051067087799310684,"43":-0.045954372733831406,"44":0.1112876608967781,"45":0.03262438625097275,"46":0.039397161453962326,"47":-0.048747528344392776,"48":0.023726729676127434,"49":0.03786610811948776,"50":-0.04608377069234848,"51":-0.01941976323723793,"52":-0.0031384967733174562,"53":-0.02765348181128502,"54":0.08495959639549255,"55":-0.043454572558403015,"56":0.05193691328167915,"57":0.04966680333018303,"58":-0.044979747384786606,"59":0.07740064710378647,"60":-0.06275925785303116,"61":0.023000286892056465,"62":0.036866430193185806,"63":0.011704478412866592}},"forgetBias":{"rows":8,"columns":1,"weights":{"0":0,"1":0,"2":0,"3":0,"4":0,"5":0,"6":0,"7":0}},"outputMatrix":{"rows":8,"columns":12,"weights":{"0":0.036176301538944244,"1":-0.05333346500992775,"2":-0.027306700125336647,"3":0.05906682461500168,"4":0.0005735091981478035,"5":-0.09621486812829971,"6":0.05576232820749283,"7":-0.07177837193012238,"8":-0.019577229395508766,"9":0.06895992159843445,"10":-0.08480720967054367,"11":0.054300252348184586,"12":0.006293443031609058,"13":-0.08010544627904892,"14":0.010635911487042904,"15":-0.07340265810489655,"16":0.07205304503440857,"17":-0.08459321409463882,"18":-0.012315492145717144,"19":-0.04049903154373169,"20":0.025042729452252388,"21":0.026933077722787857,"22":-0.09807382524013519,"23":-0.011047642678022385,"24":-0.010359182022511959,"25":-0.07161485403776169,"26":0.049873027950525284,"27":0.09039047360420227,"28":0.06514982134103775,"29":-0.026175538077950478,"30":0.017168721184134483,"31":0.06716733425855637,"32":-0.033798735588788986,"33":0.041807759553194046,"34":0.06680216640233994,"35":-0.10918254405260086,"36":-0.0777440071105957,"37":-0.07467075437307358,"38":0.08751365542411804,"39":0.05452614277601242,"40":0.06539364159107208,"41":0.05503440648317337,"42":0.045680299401283264,"43":-0.029068920761346817,"44":-0.072301484644413,"45":-0.023902758955955505,"46":-0.07019110023975372,"47":0.03674844279885292,"48":-0.05167152360081673,"49":-0.11600569635629654,"50":0.015811862424016,"51":-0.05847863480448723,"52":-0.04043838754296303,"53":-0.09769245982170105,"54":-0.01860450580716133,"55":0.07182381302118301,"56":0.06894109398126602,"57":-0.0076383608393371105,"58":-0.08408985286951065,"59":-0.05898532643914223,"60":0.07976940274238586,"61":-0.07333248108625412,"62":0.0030899755656719208,"63":0.04335465654730797,"64":0.006387725472450256,"65":-0.05403921380639076,"66":-0.004682309925556183,"67":-0.09809696674346924,"68":-0.0619804821908474,"69":-0.023414472118020058,"70":0.02026190049946308,"71":-0.020360838621854782,"72":0.027536889538168907,"73":-0.060502734035253525,"74":-0.038534291088581085,"75":-0.02868468686938286,"76":-0.06412357091903687,"77":-0.0849796012043953,"78":0.024872679263353348,"79":-0.07212068140506744,"80":0.073341503739357,"81":0.00515932310372591,"82":-0.1162572056055069,"83":0.029357966035604477,"84":-0.06835324317216873,"85":-0.03903268277645111,"86":0.06307361274957657,"87":0.05827735364437103,"88":0.08108288794755936,"89":-0.004226331133395433,"90":-0.0564347542822361,"91":-0.019369084388017654,"92":-0.005442475434392691,"93":-0.09988650679588318,"94":0.020291535183787346,"95":-0.07185102999210358}},"outputHidden":{"rows":8,"columns":8,"weights":{"0":-0.0007885423256084323,"1":-0.03467918932437897,"2":0.10552112013101578,"3":-0.0254533514380455,"4":-0.10131716728210449,"5":-0.004792800638824701,"6":-0.12696804106235504,"7":0.066056989133358,"8":-0.040274813771247864,"9":-0.11627814173698425,"10":0.0821806937456131,"11":-0.14654454588890076,"12":-0.07094939798116684,"13":0.10095035284757614,"14":0.009393757209181786,"15":0.12078727036714554,"16":-0.15710294246673584,