{
	"type": "LSTMTimeStep",
	"options": { "inputSize": 4, "hiddenLayers": [5, 5, 5], "outputSize": 4, "decayRate": 0.999, "smoothEps": 1e-8, "regc": 0.000001, "clipval": 5 },
	"hiddenLayers": [
		{
			"inputMatrix": {
				"rows": 5,
				"columns": 4,
				"weights": {
					"0": 0.6910027861595154,
					"1": 0.7123991847038269,
					"2": 0.6681064367294312,
					"3": 0.6956577301025391,
					"4": 0.5673009157180786,
					"5": 0.5377933382987976,
					"6": 0.6492130160331726,
					"7": 0.6947562098503113,
					"8": -0.4635702073574066,
					"9": -0.4385685324668884,
					"10": -0.44006219506263733,
					"11": -0.4388402998447418,
					"12": -0.7210547924041748,
					"13": -0.7431257963180542,
					"14": -0.6675336360931396,
					"15": -0.6423624753952026,
					"16": 0.45560750365257263,
					"17": 0.4329970180988312,
					"18": 0.5314802527427673,
					"19": 0.617820680141449
				}
			},
			"inputHidden": {
				"rows": 5,
				"columns": 5,
				"weights": {
					"0": 0.27889981865882874,
					"1": -0.4896741509437561,
					"2": -0.1866483837366104,
					"3": 0.4331957995891571,
					"4": -0.1767842322587967,
					"5": 0.4686729907989502,
					"6": -0.0960567370057106,
					"7": -0.1859811544418335,
					"8": 0.20240075886249542,
					"9": -0.2888677418231964,
					"10": -0.4929615557193756,
					"11": 0.17525462806224823,
					"12": -0.2846396267414093,
					"13": 0.3481007516384125,
					"14": 0.08254978060722351,
					"15": -0.8564856052398682,
					"16": 0.28146594762802124,
					"17": -0.2576063871383667,
					"18": 0.6782658100128174,
					"19": -0.1987282633781433,
					"20": -0.14234590530395508,
					"21": 0.0483698695898056,
					"22": -0.22974859178066254,
					"23": 0.2560909390449524,
					"24": -0.11685805022716522
				}
			},
			"inputBias": { "rows": 5, "columns": 1, "weights": { "0": 0.8286993503570557, "1": 0.12037361413240433, "2": 0.07660304009914398, "3": 0.23194219172000885, "4": 0.775144100189209 } },
			"forgetMatrix": {
				"rows": 5,
				"columns": 4,
				"weights": {
					"0": 0.4185231924057007,
					"1": 0.4024725556373596,
					"2": 0.47466975450515747,
					"3": 0.47448673844337463,
					"4": -0.0783885270357132,
					"5": -0.03235223516821861,
					"6": 0.10293525457382202,
					"7": 0.14775554835796356,
					"8": -0.08313197642564774,
					"9": -0.0463782474398613,
					"10": -0.06549288332462311,
					"11": -0.11848985403776169,
					"12": 0.2757434844970703,
					"13": 0.25594091415405273,
					"14": 0.25374269485473633,
					"15": 0.2295221984386444,
					"16": -0.04810241609811783,
					"17": -0.011716344393789768,
					"18": 0.14600960910320282,
					"19": 0.5058897137641907
				}
			},
			"forgetHidden": {
				"rows": 5,
				"columns": 5,
				"weights": {
					"0": -0.12704570591449738,
					"1": 0.059557050466537476,
					"2": 0.03798844665288925,
					"3": -0.3548271358013153,
					"4": 0.32706016302108765,
					"5": 0.24921582639217377,
					"6": -0.0025064521469175816,
					"7": 0.06073364242911339,
					"8": -0.031973887234926224,
					"9": 0.2671958804130554,
					"10": -0.3774738907814026,
					"11": 0.10657034069299698,
					"12": -0.3296126425266266,
					"13": 0.42755743861198425,
					"14": -0.27210506796836853,
					"15": -0.4569035470485687,
					"16": 0.09007664769887924,
					"17": -0.38099193572998047,
					"18": 0.5462867617607117,
					"19": -0.6890835762023926,
					"20": -0.6981996297836304,
					"21": 0.012103618122637272,
					"22": -0.27509552240371704,
					"23": 0.4717579185962677,
					"24": -0.04192954674363136
				}
			},
			"forgetBias": { "rows": 5, "columns": 1, "weights": { "0": 0, "1": 0, "2": 0, "3": 0, "4": 0 } },
			"outputMatrix": {
				"rows": 5,
				"columns": 4,
				"weights": {
					"0": 0.5687838196754456,
					"1": 0.5605473518371582,
					"2": 0.765028715133667,
					"3": 0.6351256370544434,
					"4": 0.38984414935112,
					"5": 0.44420957565307617,
					"6": 0.5459574460983276,
					"7": 0.5995147824287415,
					"8": -0.2557152807712555,
					"9": -0.36601006984710693,
					"10": -0.30356383323669434,
					"11": -0.34713679552078247,
					"12": -0.35669589042663574,
					"13": -0.41199633479118347,
					"14": -0.32503703236579895,
					"15": -0.43687984347343445,
					"16": 0.2688456177711487,
					"17": 0.34997478127479553,
					"18": 0.37416714429855347,
					"19": 0.4605768322944641
				}
			},
			"outputHidden": {
				"rows": 5,
				"columns": 5,
				"weights": {
					"0": 0.19985564053058624,
					"1": -0.4048841595649719,
					"2": -0.2439686357975006,
					"3": 0.46232619881629944,
					"4": -0.2730768620967865,
					"5": 0.3509429395198822,
					"6": -0.15134671330451965,
					"7": -0.08663943409919739,
					"8": 0.21942466497421265,
					"9": -0.07985381036996841,
					"10": -0.6973739862442017,
					"11": 0.15348586440086365,
					"12": -0.31421956419944763,
					"13": 0.47968465089797974,
					"14": -0.1383344978094101,
					"15": -1.1330903768539429,
					"16": 0.18043020367622375,
					"17": -0.5635678768157959,
					"18": 0.9148925542831421,
					"19": -0.5394779443740845,
					"20": -0.19566349685192108,
					"21": -0.016968799754977226,
					"22": -0.21057264506816864,
					"23": 0.23909349739551544,
					"24": -0.01922120712697506
				}
			},
			"outputBias": { "rows": 5, "columns": 1, "weights": { "0": 0.9357648491859436, "1": -0.05112914741039276, "2": 0.057716187089681625, "3": 0.2007322460412979, "4": 0.7872107028961182 } },
			"cellActivationMatrix": {
				"rows": 5,
				"columns": 4,
				"weights": {
					"0": 0.8038675785064697,
					"1": 0.7253286838531494,
					"2": 0.9442674517631531,
					"3": 0.9645435214042664,
					"4": -0.41287651658058167,
					"5": -0.5379124283790588,
					"6": -0.6556137800216675,
					"7": -0.8145436644554138,
					"8": 0.2652202546596527,
					"9": 0.42015761137008667,
					"10": 0.41428083181381226,
					"11": 0.5477800369262695,
					"12": -0.5619704127311707,
					"13": -0.5667225122451782,
					"14": -0.6049390435218811,
					"15": -0.7426237463951111,
					"16": 0.1510571390390396,
					"17": -0.03028862178325653,
					"18": -0.29783910512924194,
					"19": -0.5725558996200562
				}
			},
			"cellActivationHidden": {
				"rows": 5,
				"columns": 5,
				"weights": {
					"0": -0.10002553462982178,
					"1": 0.2842333912849426,
					"2": 0.11522376537322998,
					"3": -0.16160577535629272,
					"4": 0.35752519965171814,
					"5": 0.20019732415676117,
					"6": -0.35178452730178833,
					"7": 0.07419747859239578,
					"8": -0.08923434466123581,
					"9": -0.27844107151031494,
					"10": 0.9677965641021729,
					"11": -0.06621001660823822,
					"12": -0.04538651183247566,
					"13": -0.23276086151599884,
					"14": -0.07639829814434052,
					"15": -1.6023166179656982,
					"16": 0.12598708271980286,
					"17": 0.04642091318964958,
					"18": 0.25299954414367676,
					"19": 0.005358324386179447,
					"20": 0.7010242342948914,
					"21": -0.36030033230781555,
					"22": 0.3965572416782379,
					"23": -0.7357346415519714,
					"24": -0.1869029402732849
				}
			},
			"cellActivationBias": { "rows": 5, "columns": 1, "weights": { "0": -1.9737008810043335, "1": 1.3449108600616455, "2": -1.2643892765045166, "3": 1.852394461631775, "4": 0.0735839456319809 } }
		},
		{
			"inputMatrix": {
				"rows": 5,
				"columns": 5,
				"weights": {
					"0": 0.4898674786090851,
					"1": 0.014715614728629589,
					"2": -0.10734740644693375,
					"3": 0.13884493708610535,
					"4": 0.03901629522442818,
					"5": 0.4454622268676758,
					"6": -0.9309508800506592,
					"7": -0.4642582833766937,
					"8": 0.8649460077285767,
					"9": -0.8374313712120056,
					"10": 0.4422518312931061,
					"11": -0.20602543652057648,
					"12": 0.02104273997247219,
					"13": -0.11601733416318893,
					"14": 0.10457781702280045,
					"15": 0.4904843866825104,
					"16": -0.2808443605899811,
					"17": -0.01924070715904236,
					"18": 0.1521759331226349,
					"19": -0.07799762487411499,
					"20": 0.736574113368988,
					"21": -0.25124073028564453,
					"22": -0.10877042263746262,
					"23": 0.09846722334623337,
					"24": -0.019938956946134567
				}
			},
			"inputHidden": {
				"rows": 5,
				"columns": 5,
				"weights": {
					"0": -0.09742091596126556,
					"1": 0.17853781580924988,
					"2": -0.030359597876667976,
					"3": -0.10781214386224747,
					"4": -0.00256530474871397,
					"5": 0.8327153325080872,
					"6": 0.039686419069767,
					"7": 0.8260914087295532,
					"8": 1.6904155015945435,
					"9": -0.8762849569320679,
					"10": -0.07392406463623047,
					"11": -0.8611533045768738,
					"12": 0.1002027615904808,
					"13": -0.5071419477462769,
					"14": -0.02545851282775402,
					"15": 0.05280664563179016,
					"16": 0.8037225604057312,
					"17": -0.012470744550228119,
					"18": 0.4962816536426544,
					"19": 0.004211315419524908,
					"20": -0.0824398398399353,
					"21": -0.5341802835464478,
					"22": 0.20640845596790314,
					"23": -0.2954036593437195,
					"24": -0.17773523926734924
				}
			},
			"inputBias": { "rows": 5, "columns": 1, "weights": { "0": -0.41557103395462036, "1": -0.5934410095214844, "2": 0.6197965741157532, "3": 0.29833102226257324, "4": 0.0289305467158556 } },
			"forgetMatrix": {
				"rows": 5,
				"columns": 5,
				"weights": {
					"0": 0.30386433005332947,
					"1": 0.041250377893447876,
					"2": -0.2080865353345871,
					"3": 0.19680581986904144,
					"4": 0.14961108565330505,
					"5": -0.05753311887383461,
					"6": -0.4004244804382324,
					"7": 0.1589907705783844,
					"8": -0.17347078025341034,
					"9": -0.34872958064079285,
					"10": 0.6026800274848938,
					"11": -0.09586552530527115,
					"12": 0.050457779318094254,
					"13": -0.23606885969638824,
					"14": 0.20890513062477112,
					"15": -1.7965773344039917,
					"16": 0.10650501400232315,
					"17": -0.26181507110595703,
					"18": 0.4448848068714142,
					"19": -0.07195677608251572,
					"20": 0.8725356459617615,
					"21": -0.04456719756126404,
					"22": 0.05656794086098671,
					"23": -0.16991771757602692,
					"24": 0.16955488920211792
				}
			},
			"forgetHidden": {
				"rows": 5,
				"columns": 5,
				"weights": {
					"0": -0.13350948691368103,
					"1": 0.27923306822776794,
					"2": -0.09243055433034897,
					"3": -0.21097883582115173,
					"4": 0.21918924152851105,
					"5": 0.22895893454551697,
					"6": -0.2773731052875519,
					"7": 0.8693967461585999,
					"8": 0.8279032111167908,
					"9": -0.78586345911026,
					"10": -0.2160048931837082,
					"11": -0.9518400430679321,
					"12": -0.10449513047933578,
					"13": -0.6700128316879272,
					"14": 0.1109638661146164,
					"15": -0.24204502999782562,
					"16": 1.8786851167678833,
					"17": -0.7387927174568176,
					"18": 0.5084141492843628,
					"19": 0.5943344831466675,
					"20": -0.20231682062149048,
					"21": -0.6852864027023315,
					"22": -0.08856948465108871,
					"23": -0.48968544602394104,
					"24": 0.0654691681265831
				}
			},
			"forgetBias": { "rows": 5, "columns": 1, "weights": { "0": 0, "1": 0, "2": 0, "3": 0, "4": 0 } },
			"outputMatrix": {
				"rows": 5,
				"columns": 5,
				"weights": {
					"0": 0.5139521956443787,
					"1": -0.05577119067311287,
					"2": -0.05733652040362358,
					"3": 0.10392254590988159,
					"4": -0.018833165988326073,
					"5": 0.2954293489456177,
					"6": -0.8089443445205688,
					"7": -0.5038959383964539,
					"8": 0.9867128133773804,
					"9": -0.8632814288139343,
					"10": 0.4729551374912262,
					"11": -0.17477688193321228,
					"12": 0.10488610714673996,
					"13": -0.01544962078332901,
					"14": 0.04924512654542923,
					"15": -0.4258025586605072,
					"16": -0.2798997163772583,
					"17": -0.28560516238212585,
					"18": 0.457726389169693,
					"19": -0.24228879809379578,
					"20": 0.8271926641464233,
					"21": -0.17510126531124115,
					"22": 0.07781858742237091,
					"23": -0.04189864918589592,
					"24": 0.02265852689743042
				}
			},
			"outputHidden": {
				"rows": 5,
				"columns": 5,
				"weights": {
					"0": -0.09015113860368729,
					"1": 0.2777063250541687,
					"2": -0.03314773738384247,
					"3": -0.0526343509554863,
					"4": 0.12392190843820572,
					"5": 0.8894356489181519,
					"6": -0.15456224977970123,
					"7": 0.8795088529586792,
					"8": 1.9412413835525513,
					"9": -0.963516354560852,
					"10": -0.0552431084215641,
					"11": -0.6934099793434143,
					"12": 0.04186754301190376,
					"13": -0.4431248903274536,
					"14": 0.02354988269507885,
					"15": 0.11046696454286575,
					"16": 1.438223123550415,
					"17": -0.10628244280815125,
					"18": 0.7325339913368225,
					"19": -0.01935373619198799,
					"20": -0.11161409318447113,
					"21": -0.5566437244415283,
					"22": 0.06859613955020905,
					"23": -0.2865028381347656,
					"24": -0.03953985497355461
				}
			},
			"outputBias": { "rows": 5, "columns": 1, "weights": { "0": -0.4070819020271301, "1": -0.674354076385498, "2": 0.5990790724754333, "3": 0.2362843155860901, "4": 0.004658584017306566 } },
			"cellActivationMatrix": {
				"rows": 5,
				"columns": 5,
				"weights": {
					"0": 0.6767913699150085,
					"1": -0.4571998417377472,
					"2": -0.03174995630979538,
					"3": 0.14086215198040009,
					"4": -0.4799274504184723,
					"5": -0.9656318426132202,
					"6": 0.7312380075454712,
					"7": -0.4845942258834839,
					"8": 0.4611004590988159,
					"9": 0.7996618747711182,
					"10": 0.8216522336006165,
					"11": -0.7291437983512878,
					"12": 0.19539403915405273,
					"13": -0.06820756196975708,
					"14": -0.7041417956352234,
					"15": 1.0974531173706055,
					"16": -0.831838846206665,
					"17": -0.2940562069416046,
					"18": 0.24747729301452637,
					"19": -0.8585041761398315,
					"20": -1.0184664726257324,
					"21": 0.6463282108306885,
					"22": -0.04872898757457733,
					"23": 0.05381864309310913,
					"24": 0.615864634513855
				}
			},
			"cellActivationHidden": {
				"rows": 5,
				"columns": 5,
				"weights": {
					"0": 0.05710941180586815,
					"1": 0.7390744090080261,
					"2": -0.04896489530801773,
					"3": 0.10941991209983826,
					"4": -0.024714568629860878,
					"5": 0.2101895660161972,
					"6": -0.6291168332099915,
					"7": -0.22859147191047668,
					"8": 0.532801628112793,
					"9": -0.12789663672447205,
					"10": -0.3773186504840851,
					"11": 0.6350717544555664,
					"12": -0.3171718120574951,
					"13": -0.7139750719070435,
					"14": 0.3861777186393738,
					"15": 0.006885024718940258,
					"16": 1.7220814228057861,
					"17": -0.31618523597717285,
					"18": -0.016621964052319527,
					"19": 0.2843115031719208,
					"20": 0.2276487797498703,
					"21": -0.853455126285553,
					"22": 0.1452934443950653,
					"23": 0.37888389825820923,
					"24": -0.2858668267726898
				}
			},
			"cellActivationBias": { "rows": 5, "columns": 1, "weights": { "0": -0.10129864513874054, "1": 0.2742904722690582, "2": 0.27787235379219055, "3": 0.030020443722605705, "4": -0.0419936440885067 } }
		},
		{
			"inputMatrix": {
				"rows": 5,
				"columns": 5,
				"weights": {
					"0": 0.08929655700922012,
					"1": -0.35997116565704346,
					"2": 0.14772957563400269,
					"3": -0.2180902659893036,
					"4": -0.11312820017337799,
					"5": -0.06283733993768692,
					"6": 0.2699919044971466,
					"7": 0.09442305564880371,
					"8": 0.10878945142030716,
					"9": -0.013412341475486755,
					"10": 0.05726929381489754,
					"11": 0.08213208615779877,
					"12": 0.12734736502170563,
					"13": -0.44677507877349854,
					"14": -0.14044778048992157,
					"15": -0.009095788933336735,
					"16": -0.023232704028487206,
					"17": 0.11759936064481735,
					"18": 0.003180940169841051,
					"19": -0.19417014718055725,
					"20": 0.02120852656662464,
					"21": -0.11297445744276047,
					"22": 0.14189693331718445,
					"23": -0.2077850103378296,
					"24": -0.08366751670837402
				}
			},
			"inputHidden": {
				"rows": 5,
				"columns": 5,
				"weights": {
					"0": -0.040957119315862656,
					"1": -0.03391648828983307,
					"2": 0.2245076596736908,
					"3": -0.035754092037677765,
					"4": 0.05637599527835846,
					"5": 0.04158422350883484,
					"6": 0.06559597700834274,
					"7": 0.1302093118429184,
					"8": -0.004885922651737928,
					"9": -0.06065855920314789,
					"10": 0.18318292498588562,
					"11": -0.007894602604210377,
					"12": -0.3550034761428833,
					"13": 0.22603635489940643,
					"14": -0.48351165652275085,
					"15": -0.08136613667011261,
					"16": -0.07517936825752258,
					"17": 0.10495474189519882,
					"18": -0.07110162824392319,
					"19": -0.041522905230522156,
					"20": -0.08473671972751617,
					"21": -0.07316074520349503,
					"22": 0.1663089245557785,
					"23": 0.04402773827314377,
					"24": 0.03670203313231468
				}
			},
			"inputBias": { "rows": 5, "columns": 1, "weights": { "0": -0.10091640055179596, "1": -0.9327458143234253, "2": -0.6693728566169739, "3": -0.08733050525188446, "4": 0.32768869400024414 } },
			"forgetMatrix": {
				"rows": 5,
				"columns": 5,
				"weights": {
					"0": -0.019089780747890472,
					"1": -0.23631781339645386,
					"2": -0.09325306862592697,
					"3": -0.3511645197868347,
					"4": -0.006080165971070528,
					"5": -0.03860635310411453,
					"6": 0.36181512475013733,
					"7": 0.035067446529865265,
					"8": 0.11334789544343948,
					"9": 0.013192995451390743,
					"10": -0.44271335005760193,
					"11": -0.14403747022151947,
					"12": 0.6674189567565918,
					"13": 0.22313228249549866,
					"14": -0.450471431016922,
					"15": -0.035784997045993805,
					"16": -0.0534231960773468,
					"17": 0.020060908049345016,
					"18": -0.22753934562206268,
					"19": 0.07043170183897018,
					"20": -0.06625846773386002,
					"21": -0.11067879945039749,
					"22": -0.12856212258338928,
					"23": -0.24709846079349518,
					"24": 0.10877087712287903
				}
			},
			"forgetHidden": {
				"rows": 5,
				"columns": 5,
				"weights": {
					"0": 0.04210760444402695,
					"1": 0.005142841022461653,
					"2": 0.48380032181739807,
					"3": 0.03683329001069069,
					"4": -0.011459007859230042,
					"5": -0.007123101968318224,
					"6": 0.05364246666431427,
					"7": 0.1731317937374115,
					"8": 0.07895582914352417,
					"9": 0.028911538422107697,
					"10": 0.4520348608493805,
					"11": 0.15745925903320312,
					"12": 0.11725886166095734,
					"13": 0.4414742887020111,
					"14": -0.49632272124290466,
					"15": -0.03760014474391937,
					"16": -0.01422352995723486,
					"17": 0.4361720681190491,
					"18": 0.05654741823673248,
					"19": -0.07843204587697983,
					"20": 0.062659852206707,
					"21": 0.0190108735114336,
					"22": 0.4980662167072296,
					"23": 0.07793927192687988,
					"24": 0.04563584551215172
				}
			},
			"forgetBias": { "rows": 5, "columns": 1, "weights": { "0": 0, "1": 0, "2": 0, "3": 0, "4": 0 } },
			"outputMatrix": {
				"rows": 5,
				"columns": 5,
				"weights": {
					"0": 0.07133997976779938,
					"1": -0.3313404619693756,
					"2": 0.10332149267196655,
					"3": -0.1325032114982605,
					"4": -0.07159551233053207,
					"5": 0.08156718313694,
					"6": 0.42486825585365295,
					"7": 0.06199335679411888,
					"8": 0.1605323851108551,
					"9": -0.03595623001456261,
					"10": -0.0890602096915245,
					"11": 0.05952276661992073,
					"12": 0.12226027250289917,
					"13": -0.43649283051490784,
					"14": -0.12277662754058838,
					"15": 0.08410532027482986,
					"16": -0.05935678258538246,
					"17": 0.17417438328266144,
					"18": -0.020537029951810837,
					"19": -0.07089699059724808,
					"20": 0.022117240354418755,
					"21": -0.023481963202357292,
					"22": 0.09416227787733078,
					"23": -0.13804636895656586,
					"24": -0.0763704851269722
				}
			},
			"outputHidden": {
				"rows": 5,
				"columns": 5,
				"weights": {
					"0": -0.12122425436973572,
					"1": -0.11022172123193741,
					"2": 0.15183518826961517,
					"3": -0.0859079360961914,
					"4": 0.07092736661434174,
					"5": -0.015293920412659645,
					"6": -0.04511171206831932,
					"7": 0.2791720926761627,
					"8": 0.05128880590200424,
					"9": -0.05099096894264221,
					"10": 0.2611173093318939,
					"11": 0.09508419781923294,
					"12": -0.12244321405887604,
					"13": 0.2893708050251007,
					"14": -0.5410993099212646,
					"15": -0.12900428473949432,
					"16": -0.0933329313993454,
					"17": 0.22632835805416107,
					"18": 0.003425280563533306,
					"19": 0.08614517003297806,
					"20": -0.09017078578472137,
					"21": -0.07426643371582031,
					"22": 0.318606972694397,
					"23": -0.08436670899391174,
					"24": 0.04693901166319847
				}
			},
			"outputBias": { "rows": 5, "columns": 1, "weights": { "0": -0.1241554468870163, "1": -0.9301422238349915, "2": -0.7165931463241577, "3": -0.100251205265522, "4": 0.3123016357421875 } },
			"cellActivationMatrix": {
				"rows": 5,
				"columns": 5,
				"weights": {
					"0": -0.3007641136646271,
					"1": 0.8048455715179443,
					"2": -0.7991293668746948,
					"3": -0.8876858949661255,
					"4": 0.693342387676239,
					"5": -0.27214741706848145,
					"6": 0.4266541302204132,
					"7": -0.4673924446105957,
					"8": -0.8924187421798706,
					"9": 0.5920506119728088,
					"10": -0.8349746465682983,
					"11": 0.668542742729187,
					"12": -0.9933853149414062,
					"13": -1.9098182916641235,
					"14": 0.9868835210800171,
					"15": -0.33364564180374146,
					"16": 0.7985123991966248,
					"17": -0.6851415634155273,
					"18": -1.0130831003189087,
					"19": 0.6203540563583374,
					"20": 0.24154123663902283,
					"21": -0.7833570837974548,
					"22": 0.5369482040405273,
					"23": 0.7883680462837219,
					"24": -0.43029695749282837
				}
			},
			"cellActivationHidden": {
				"rows": 5,
				"columns": 5,
				"weights": {
					"0": -0.28252720832824707,
					"1": -0.1328130066394806,
					"2": 0.03687538206577301,
					"3": -0.19879381358623505,
					"4": 0.28164395689964294,
					"5": 0.06166529655456543,
					"6": 0.09169510006904602,
					"7": 0.2970924377441406,
					"8": 0.05502928048372269,
					"9": -0.011943950317800045,
					"10": -0.3102271556854248,
					"11": -0.1242893636226654,
					"12": -0.2743193507194519,
					"13": -0.4111706614494324,
					"14": 0.5715609788894653,
					"15": -0.22009174525737762,
					"16": -0.010554098524153233,
					"17": 0.14656667411327362,
					"18": -0.25583404302597046,
					"19": 0.31825190782546997,
					"20": 0.2566831707954407,
					"21": 0.07969515770673752,
					"22": 0.0038313758559525013,
					"23": 0.2521980404853821,
					"24": -0.36594605445861816
				}
			},
			"cellActivationBias": { "rows": 5, "columns": 1, "weights": { "0": 0.109110526740551, "1": 0.0068815769627690315, "2": -0.20960433781147003, "3": 0.11001551151275635, "4": -0.16660359501838684 } }
		}
	],
	"outputConnector": {
		"rows": 4,
		"columns": 5,
		"weights": {
			"0": -0.3513898253440857,
			"1": -0.2219509482383728,
			"2": -0.46705588698387146,
			"3": -0.3708387613296509,
			"4": 0.27769336104393005,
			"5": -0.28008487820625305,
			"6": -0.41718199849128723,
			"7": -1.058610200881958,
			"8": -0.33413928747177124,
			"9": 0.17707505822181702,
			"10": -0.3602074682712555,
			"11": -0.1446787714958191,
			"12": -0.621498167514801,
			"13": -0.34099602699279785,
			"14": 0.2755178213119507,
			"15": -0.3587697148323059,
			"16": -0.3164173662662506,
			"17": -1.1486557722091675,
			"18": -0.2813108563423157,
			"19": 0.16493326425552368
		}
	},
	"output": { "rows": 4, "columns": 1, "weights": { "0": 0.5193092823028564, "1": 0.49105289578437805, "2": 0.5055918097496033, "3": 0.4781387150287628 } }
}
